{"layers":[{"neurons":[[{"weights":[-0.7387140648599226,-0.2806636450365825,-0.4133392150915398,0.4453149497159181,0.7931743737440571,0.8550407274736358,-0.42190545536433177,-0.5992179876327626,-0.9169774325414988,-0.014934269256263288,-0.5902735585533514,0.5698702492319399,0.09374546464809175,0.20177967618147585,-0.20675089081528197,0.002686432283877771,0.9245467506605154,0.8277672795172268,0.31827313624999,0.39815259392173274,-0.05448375823301799,-0.4666579915938769,-0.7564910250987587,-0.5903557791160399,0.9000523388350947,0.33203579620721113,-0.06309801130342096,-0.9489472466901803,0.06592371176473844,-0.885255214257151,0.6194621740015269,0.7454155134672753,0.7609355918736238,-0.8355439467308252,-0.9800832730318558,-0.7013681443828568,0.036651695600486534,-0.7407564536771827,0.9545544146341167,-0.10440577417226571,-0.39289262378928447,-0.7445086851408171,0.7401048960543521,0.32129450102969237,0.041678106223805855,-0.9067471507066625,-0.34570379960809694,-0.45380997994874805,0.8199303561982756,0.0708800324613037,-0.11499469047532163,0.5425419574647607,0.2363429555445684,0.02057161247297179,0.05744418199334511,-0.08004150837978985,0.14372674171748345,-0.8980958002640982,0.1940393173287287,-0.5703989104271874,-0.6524843133523639,0.38588292237404964,-0.6817829652117893,-0.48404736898595546,-0.10503061430129312,-0.8090888953577613,0.8986524200427759,0.15887575721760427,0.058278985754191215,0.4851293771950136,-0.8341725707486844,0.06501428723753877,0.701876790518758,-0.4546308649259392,0.7368503896014262,0.015394050187099051,-0.9858616303548717,-0.3087639422763795,0.3699912965379131,0.1461804547670602,0.5773594272020928,-0.047106917929064185,-0.8550389657614055,-0.2260296104698103,0.76988946156811,-0.20594767486543164,-0.6109846141059001,0.6154918622062229,0.016570413428325548,0.7922219711266649,-0.39680719067351955,-0.23198464183023493,-0.8161423334378122,0.12828805914053332,0.5794994412466954,0.03255399015174465,0.5398428581083974,-0.6614734738941155,0.44559178078175243,-0.5210614702943102,-0.9250069944328971,0.3490782072320031,-0.009807775907070493,0.284829574224311,0.3340390976016341,0.25800385938340886,-0.18922291190889595,-0.9736579138557455,-0.8168069174459021,0.5843573429977287,0.5169923568130099,0.49133127017350864,0.18021332015525848,0.30563314817541043,0.5112396023355146,-0.4605455755949266,-0.47299581265390334,-0.8688143540622666,-0.9109098306501502,-0.7379755713151974,-0.35772913146906227,0.3368772364008894,0.658123128528167,-0.693403958024077,-0.5850464803008264,-0.28002609481961427,-0.8818116555004907,0.5717146443090595,-0.2575438553930658,-0.24417764666727892,0.06421029039351911,0.6068528369018047,0.5801995943254519,-0.07851780169321909,0.590541097658194,0.29522078034780597,0.0756980968450689,-0.7102810731154974,-0.9029244371049967,0.6476957650222213,-0.02811150548440633,-0.19795935309067136,0.7468173435554837,-0.2511299006320704,-0.7130019324677481,0.6171150696091705,-0.4200474901751803,-0.43351239891922777,0.16593834036732025,-0.28277854557960014,-0.2622786852139365,-0.47274381165796653,-0.5520351658760987,-0.9061176493502052,-0.63194426628769,0.5451393435258467,-0.765627497718151,0.37098583773005966,0.8772920628301453,-0.9020309338772394,0.7189647538673234,-0.1173653301656028,0.5988614009171367,-0.35604806123551835,0.43567190983646054,0.5649403039076657,-0.5576316349196082,0.5869043700908714,0.15968155749806767,0.4262537781725393,-0.7706571610237836,0.4866841848901564,-0.3724294097296599,-0.3244270706734751,-0.6288009512616441,-0.5608006457731873,-0.012316559944311134,0.6106675858307691,-0.604515796549824,-0.4966033157333256,-0.8772018025456796,-0.8588409832499333,0.09314954934621378,0.3861393392254562,-0.8444340381487985,-0.8765400790375772,0.7140139076780607,0.32573118278767677,0.8106320462742627,-0.031409320027478316,0.41458794813017175,0.8536932131176838,-0.3879633150896509,-0.45175433816572674,-0.35276928514169237,-0.10040366220938512,-0.18916543660001306,-0.8064837679458923,-0.19484681680817628,-0.6338236587861359,-0.41773879032081496,0.09139706301801143,0.7304576310696236,0.21259336705351517,0.16209820979438483,0.7250718882827818,-0.21132824087079882,0.5007450454281854,0.1991806581180815,0.64672850870812,0.2560886413605479,-0.4065476602799105,-0.04882375285821672,-0.017474245561777124,0.33914478886698207,0.131020821642021,0.4376399074890185,-0.9595404552134918,0.6780766327818717,0.5482258605426207,-0.11201037244038448,-0.5148502463797557,-0.14060083204310603,-0.47385620380456794,-0.1862002767323916,0.7049116116937211,0.42341429758456517,0.4189284673663849,0.6949573366379713,0.9723536528632741,-0.32483095926595507,0.5377318082625093,0.40047723576380134,-0.5096403863326997,0.4320858348967329,-0.8906787450550033,-0.8762173018875377,-0.6296330436980098,0.5843466136603732,0.19015502266594764,-0.17825524389461078,-0.3010328945148735,0.3055503902071295,0.4680255789559302,-0.7336820493691336,-0.016808726779136585,-0.1871586043386162,-0.4483815738196619,-0.8452734462333109,-0.017477975125996803,0.17492433212926128,0.30716170319200353,-0.31238084200395777,0.004130976180686918,0.9717891672493768,0.8929573542452434,-0.4137316208484325,0.30809072885900557,0.2924575262205642,0.9428682558946004,-0.10383895016707312,0.5624650871491323,0.9450520611345721,-0.25513843868942354,-0.2213597306557049,0.6310735061815853,0.3673081914008467,-0.9037888767176732,-0.7103430396517707,0.752319756717275,0.9134401733470865,-0.9478315807440905,-0.11913355716243368,0.986186638080754,-0.017710192449564843,0.12069033727639855,-0.253225428638987,-0.8146485773244425,-0.6827440695697251,0.21486987019131742,0.33482760576949033,-0.8565423299353765,-0.45275024123398033,-0.01828419017705274,0.692053880157272,0.06262020246949218,-0.2821590145882231,-0.416067937694657,-0.7327751596243837,0.4169660514656841,-0.5670026203678353,-0.39090387388409864,-0.33444350637443465,-0.981192979944427,0.11974552034480324,0.762216016068546,-0.3226962087398979,-0.2476430424882139,0.5078781290341685,0.974888538053635,0.44006240512994355,0.7258982371607972,-0.2887923089146365,-0.9805160273828863,0.6181223800599822,0.4071462104781136,0.05295118520277331,-0.7511754742140533,-0.7877179410229664,0.5832036180074254,0.8786947691807523,0.80133506888225,0.793123762369667,0.7425267428009978,-0.006860371873007587,0.7128656450879296,0.3900426159864496,0.8639216438793089,-0.5071685321255193,-0.2260327494311496,0.3183966766800621,-0.22534821035786168,-0.5103501111107662,-0.6801744255974409,-0.11839924615381481,-0.6766307023609266,-0.12978070306396372,0.32106172338572136,-0.5681486151045201,-0.5285896512651216,-0.7440710361838834,0.24750237834891564,0.7658292854668329,-0.21089218235500917,0.3327357870738892,-0.013847427197006823,0.06531722119031125,0.5999963623493931,0.15932454415561947,0.6057427045522545,-0.9798957467084204,0.10936586189946862,0.7541116698689709,-0.237730035143072,-0.13238314036896703,-0.11858715830177502,-0.1992618208669934,0.8053109132457053,-0.5687136448460888,0.5660301389387095,-0.7324146168252739,-0.08759286504772223,0.6188923074746602,0.45802143142725527,0.044390536660162905,-0.6829141056170003,0.05381605836167225,-0.8549060118102241,-0.15924832342739403,-0.4660018807829829,-0.5734513726848629,0.47611705388590897,-0.28147993154401707,0.9047392451859988,0.23838209535771826,0.8746712860366408,0.23181384054961773,0.05812070240449829,0.825598956181445,-0.8008259318792379,0.6719902532926612,0.24999454975417734,0.46805562425015745,0.011917057735159275,0.5459017685714063,0.3969853028783361,-0.20529689394616746,0.7071256995147635,-0.2265501167373225,0.9498905054856723,0.8689326540903908,-0.8247723871926422,-0.9199757852346173,-0.9350979422224963,-0.37299760166722873,0.1718893743316121,-0.7418288120967111,0.956902398037589,0.8128142504049922,-0.17110810528295106,-0.9167364782300766,-0.3748924006270862,-0.41117645335742203,-0.12335534810646642,0.6095899840853911,-0.7822428332821216,0.11839205416476517,-0.7400921080018703,-0.3716998700462595,-0.2410869130707436,-0.37601584617235506,-0.6575118903791277,0.547921173933609,-0.16141525804324397,0.7745849512353709,0.3295729726016079,0.6027071435256666,0.6566012950844939,0.6487674248285247,-0.8543195560884906,0.39667599053355884,-0.9660143047536836,-0.15019539378346503,-0.4231128342388537,0.6237316058810882,0.0034668518430271966,0.5255415338652063,-0.3851828694022852,0.23422552613073755,-0.5045914537988887,0.8650303294259931,0.02316101152731287,-0.931036818751481,-0.18689367144507463,0.05885127687706637,0.7523820950814053,0.3598291112603915,-0.6605841219528688,-0.9164138964045359,0.17350752471249642,0.15290235713833766,-0.5775535291145348,-0.5767122317746693,-0.660275184143269,0.12564450461703114,0.40797452739886264,-0.9046745569730135,0.911353438545464,0.5660195692467918,-0.5825317139880473,-0.5291866859470895,0.5149709610433528,-0.699013871272173,0.8731013608841276,0.45484565256058307,-0.4371298537973667,0.00817145998539992,-0.44005847992789926,-0.4883593375462567,-0.26404354431262744,0.3987685826016758,0.8269311047511048,0.683866355778119,-0.1572095123952928,-0.7835088933288046,-0.21328015066780015,-0.9625905641177281,0.16882135328340375,0.8631576665620861,-0.9912494151873465,0.3183990348037371,-0.2610743308259389,-0.8292892298234382,-0.7325781739750905,0.5674092849513288,-0.2411590238917638,0.9802016895486232,0.40347907660675153,-0.6529852220225174,-0.7015362506513094,0.9243867401485955,-0.7105852101803487,-0.9887176016652437,0.7770390411728445,0.48774728531243383,0.6953389749582306,-0.9636781414177347,0.5090428392069732,0.265075473352415,0.2224800052158109,-0.8850185961313493,0.39252108409134046,-0.5607391451743751,0.19024564710202752,0.5060738614182712,-0.6235444611828571,0.045529133293789936,-0.3346629211687935,0.42351295924755306,0.7833451027005887,-0.9057345593341699,-0.11410849795533284,-0.09244518543589164,-0.6746521850909875,0.09888518249264999,0.9096267242005545,-0.3702375047598574,0.8085676501598793,0.15375065177910896,0.9948859980746168,-0.6785120340510238,0.692609351006058,0.25646395950721823,0.18314914004205418,-0.20211352905071855,-0.9669420522593954,0.582418660237729,0.15637259038575024,0.9102397122514412,-0.9796578052870109,-0.35526329744442897,-0.4913129959756519,0.031494356897902254,-0.8354826428745206,-0.5915337153061042,-0.2684106246628746,0.31199681534157486,0.42991102762577693,-0.4596088050173681,0.8272221389623109,-0.09757546902374381,0.192694651012848,0.5821873089770144,-0.7878129663164799,-0.4939103529796727,0.1704254312984239,-0.09759238806713277,-0.33890236383526817,-0.8253927310869162,-0.9335582764508645,-0.2367580974341741,-0.6329643390943662,-0.3623138703791957,0.03419366642218602,0.7621932813414363,-0.7447044280616142,-0.6054401245419485,-0.13236483793922282,-0.62128402308517,0.6447002438365206,0.8196781148262287,0.15951739554869038,0.012923482306679723,0.5355623094524766,0.059905823941390324,-0.9646137409168256,0.7883540555094215,-0.4547360336573276,-0.5146333975988289,-0.8683794964726719,0.45088358987694876,0.07790973542169777,-0.6931210202895461,0.2533450187199935,0.007019756301985591,0.14316733559664963,-0.0649095870025822,0.5716943971492863,0.9166408549725529,0.07596390357200145,0.7044192665330087,-0.1676490036906726,0.610547716681074,0.7876430736023572,0.43287924106879405,-0.6157230459329215,0.2427151445328506,0.8212808399491465,-0.7789048375629251,0.59477927971799,-0.8537875542859377,-0.8292823578484811,-0.6760272867617685,-0.4304241581266268,0.8701779406434951,-0.057807726310207475,-0.18198874479803218,-0.43926663491028517,0.7528507684619719,0.41272905560652706,-0.08566787626841066,-0.966179663927242,-0.045183399313496686,-0.05873369590899813,-0.2604841265941418,-0.07855667241410602,0.46048864916177124,0.09700993457887286,-0.37130916709141015,0.44255254810110856,0.5446012223996126,0.3171165887579459,0.961762093250929,0.9237779034039888,0.8576979514495586,0.8751079812533171,-0.7924685987230329,0.9912051798427197,0.20285805174940608,-0.006205103688069702,-0.7026105564384566,0.15156222236686379,0.09757021599046922,-0.5098894179966416,0.2654392914794599,0.41544162137943585,-0.4382628355491023,-0.20190162162505132,0.5652364890045223,0.8831935979066223,0.34313594509279266,-0.2676201808198746,0.5019962621160245,0.3387971449816156,0.17064494408782638,0.9528246088785859,-0.8785430387180599,0.7938146731403863,0.14343577697423848,0.48622085623313804,-0.04372508506464223,-0.9413752378539453,-0.498804883537594,-0.38873472432822753,-0.21212776758811192,-0.9313534604220637,0.5789582484619049,0.6973493866215135,-0.7820935457484772,0.6964777936785129,-0.8046964792504347,-0.48582505911940865,0.200778142936608,-0.5057590254636382,-0.27249389164323823,-0.12545419794692236,0.30814037699098407,0.8273340947378109,-0.5226643141046377,0.20885626234699162,0.6313072641169617,-0.6209695218288593,-0.8267267246586907,0.15945776017069369,-0.42803610935345837,0.8441105571656276,0.048643342708068804,-0.30653626083482166,0.8735615316090737,0.6886774938466571,0.34425157564697884,-0.6618521914752056,0.4804289508915067,-0.4809066798136512,-0.641902837033518,-0.21378727611291914,-0.6763732224542478,-0.5168403120683394,-0.050772153920213725,-0.40126662045052797,0.673738240942138,-0.09626009742997965,-0.4107242408288263,-0.8973659945402241,-0.9100398501824598,0.682811442518263,-0.4383999146817854,-0.7021809012081861,-0.3827682602307214,0.07179769780049616,-0.5695536162090726,-0.14770395165278716,-0.723665729356227,-0.9628889103105074,0.3218706316093032,-0.5650405368782141,-0.4598306509149226,-0.5908189023055268,-0.8506582575928601,-0.7641652214430081,0.75440851554615,0.4787678675404945,-0.9565925397071235,0.44325260681889,0.8637203775446043,-0.0170468461894262,0.8370877765166211,0.006897941358190884,-0.7654699131270997,0.3623915169628238,-0.866355534309283,-0.7877282414210276,0.8869267372188383,0.41714236300265295,-0.2838075965255795,0.2155041227154837,-0.7773858670501799,-0.3449679719005161,0.38082683797729944,0.002474513475832385,-0.2549129857668997,0.35317037980005317,0.9815140824823732,-0.9456555136973042,0.756799483812939,0.8989899533608545,-0.7926649823047773,0.7069128288561366,0.6084499680843898,0.7524072969785935,0.30546514619129583,-0.3412252280113304,-0.44637331001616953,0.6706974233543264,0.5543349319488184,-0.2655555183574436,-0.7041319748335284,0.04599851229111618,0.14581794861173192,0.2304886714655403,-0.8747174690368729,-0.5249128077397156,0.30589998895235615,0.7143818562511712,0.4021521795720808,0.4827668598305048,-0.5162555453862385,0.17585942485694606,-0.8119272640804489,0.5287298558637556,0.8290053060883595,-0.26865077383255453,0.4763066729588292,0.5112983310100025,0.08144031920015893,-0.6706939669270411,0.2518568057301418,-0.4020356157815188,-0.8885528171745403,0.7515547566169856,-0.6398290711460919,0.805190718116485,0.09389253220928806,-0.3963495699006594,0.2851134253823431,0.783189513984837,0.8108371701212871,-0.6724238118979775,-0.43108772856295774,-0.06097267119622973,0.3919886378549178,0.9321681865737639,-0.8619091483290839,0.01851423800234242,0.44643300123359575,-0.2565908057223476,-0.24982070167034065,0.8628515757811077,-0.27203277702446016,-0.9368332802581465,0.3342072974152819,-0.720186354564023,0.6303316719416854,-0.6913661014684367,0.25579288909748277,-0.4640517954911907,-0.676775587527294,-0.353436157994544,0.926089234918654,0.7801029108184525,-0.677942805938923,0.9273960501063732,-0.8255751960881841,-0.7788300559121621,-0.64065859752878,-0.5234684550522983,-0.8468039127272657,-0.4989201070710654,0.28893435592847316,-0.9202450260788311,-0.7279629167779604,0.5316512837632992,0.8268495150254096,0.028597792318119986],"bias":684.5851344426517},{"weights":[0.2051952335248104,0.25241072494680594,-0.8393712195140539,-0.8529295016433802,-0.4415627160138782,-0.8849601493878017,0.5993006208276319,0.28721258523581294,-0.7680991951250253,-0.864757853842939,-0.8930301753581449,0.9983825257898897,-0.14568150570341798,0.09258862775033672,0.6068215789349005,0.4054461566482104,-0.040272140285873004,0.22566275947263525,-0.06804098277280302,0.8148973150592926,-0.7937453545975073,0.23281948884843207,-0.8927408307950229,0.7102548296771829,-0.06711681649053514,0.43006344937965135,0.6537283246931218,0.12034879638362472,-0.877547792753556,-0.844370003922573,-0.43117839105732303,0.40368664364916906,-0.8603628620182318,-0.7538499210256728,0.44892003107583633,0.41015409357249055,-0.6598920349536788,0.12041547286784393,-0.9396110519247785,-0.3944201868621042,0.9173710764678815,-0.86477961938209,0.601940426748222,0.9401569722761658,-0.1886077515455642,-0.6008183294394587,0.366768091484023,0.9815186198269243,-0.6933569568429365,-0.43796143079095273,0.3863988970429224,-0.6194539740359843,0.8576618270481577,-0.93829785027732,-0.4323330726823089,-0.6454415511528717,0.836104357219627,-0.7834013398711095,-0.8090577536077834,0.47682815785215293,0.4429741149275781,-0.06639040519379158,0.3112122793169192,0.8185187817107695,0.7910986296594964,0.3456908008840056,-0.5569804496740556,0.39413366030139585,0.08656121992263666,0.37508752361217557,-0.5948729377510924,-0.16831358259927098,-0.5474772176383356,-0.997621812976706,0.1670101193366076,0.2690562791344582,0.43654527904510276,-0.946561526321239,-0.7034372755060976,0.4497966072248656,0.7642522555442608,-0.30214684154564164,-0.7751246406925842,-0.8518821346980197,0.8213727739274561,0.07335109296763243,-0.8246933110449195,0.038380588588459386,-0.1334738757758358,-0.4083880429571396,-0.7754849786488092,-0.33368433828202937,0.40384014418735914,0.6454743239252778,-0.16504827900016172,0.42516638731637135,0.5431729626206536,-0.014364934389818895,0.11056570746714467,-0.49249585139078533,0.8090412121705874,-0.4610236711447797,0.5796047587505022,-0.8351591698584304,0.02677898558956393,0.37279504643170336,0.19804917079826456,0.9363091133756827,0.9117027653041281,0.08490933303795645,0.6760210416770343,0.22695093212189255,-0.335624346589825,-0.4344598480554924,0.3558279853402335,0.023044438528430522,-0.46196259074325674,0.5909940145106662,0.7830139093659931,-0.2658695187086684,-0.3071646974106921,0.38700129925566173,-0.7587290166477536,0.9486561957444635,0.2755597325996497,0.13653996268708735,0.4222699061800883,0.5730410568954873,0.8250421626396864,-0.15765158470379914,0.1166594215484622,0.6411257803610315,0.6194814558261923,0.5614146784062082,-0.5307487862847631,0.24126370483803683,0.8903525913066255,0.5517941526360488,-0.661770293188507,-0.5588461799784366,-0.12215617191856332,0.8049511153174982,0.750465964413674,-0.8383400100628675,0.793134377024995,-0.210512507689657,0.680130082878152,-0.9194443003882236,0.8322603016771035,-0.3031948890384122,-0.08402725431171598,-0.5416860896972127,-0.8383917417304385,0.002347505144380424,-0.8739678027664275,0.4746157395556052,-0.7757259415908808,-0.07866879040046415,-0.9606860975299969,-0.16468734263268248,0.13819308779651696,-0.8465550081633078,0.5961058752089401,-0.39952971972186857,-0.11561722851167477,-0.6765647018402978,-0.008236730508663914,-0.7728080253129299,0.14498138745786182,-0.041205404464608186,0.6043620313909259,-0.7751625640232915,0.7994711764845532,0.09825736646510874,0.45557096263787766,-0.5982298846675405,0.3030249354610066,-0.233119651337514,0.8187439682683864,-0.36624457539735467,-0.35401014193608393,-0.45562762381155375,-0.8773236587437458,-0.3472293685983998,0.4606584218739638,-0.9051114749895683,-0.8125366690666374,-0.6076255698713351,0.011681337564026784,-0.2813978364613079,0.9401340803404485,-0.667265546746445,-0.4739741893077274,0.44254276203660137,-0.305119270194532,0.11003835470767154,0.15534011163200478,-0.1859746658314272,-0.9107017016843173,0.7814390024927724,0.8525855716043318,0.5934646631974649,0.0784852996207448,0.6997266181484396,0.9714058235513359,0.06275692085886764,-0.44860070494061954,0.22949414603320095,0.6788275294823523,-0.5705239893107321,-0.09737028346896359,0.30435769500389265,0.677138003599346,0.4677139605136711,0.3682897802942655,0.5026605867406428,0.9343992769776257,0.1875330268043771,-0.5004336560310692,-0.44747248143931584,-0.9604520865988757,0.02722030281707477,0.4101635934329382,-0.013346742557106772,0.2831794792393443,-0.6245620316986495,0.6144190459937193,-0.8191918087126444,0.2908125816817022,-0.26509909087952854,0.49379133628047445,0.5361749183867217,0.9390260999327555,-0.37970880335770385,0.5998100114563623,-0.9811369150325819,0.1544004983570213,0.4681350489475933,-0.6383798180254145,-0.5394425910103395,-0.13250192422859097,0.9405716083632281,0.18631459582590493,-0.38871588164909276,0.6871345877983641,-0.06421868693091337,-0.22108431563614772,0.19547264201636194,0.28612489390211415,0.4726675053765783,0.8495027205972656,-0.6369035227329469,-0.39296023347829045,-0.5074383920546239,-0.519322473103943,0.9954628948317121,0.20632509306201197,-0.3832897338341845,-0.3814085336580182,-0.25130668454533245,0.7118222555285239,-0.8586798514122527,-0.4630506166544941,-0.8895975029225593,0.343673756521488,0.11271379524743264,0.4864957601688831,0.8549322493517924,0.7537251598985919,0.7422355916593637,-0.548746940007451,0.9035156924082859,0.8124689303359287,-0.01425853137187838,0.454622477060048,-0.7744331030151739,0.01675298866265784,-0.352510433284694,0.6871149705206205,-0.8633740730390049,-0.08495766879587574,-0.5275077585138321,-0.7740311371281945,0.191878371593996,0.18673112528637903,0.05386886796346868,-0.6744492742332993,0.23174285421072804,-0.25271324486098257,0.885903731435175,0.026676643060176364,0.33520173930276664,0.7071202032288517,0.9470478909634852,0.8296921872043517,0.08846794919621281,-0.9953947914958086,-0.9547265892499142,0.2801660539457891,-0.8500276744985267,-0.9137784472845203,0.6837776060744809,-0.2316225531248537,-0.07489653962828946,0.11833202967735712,0.04801879886054872,0.6106503230076514,-0.7201243959436407,0.1815901355517986,0.409094270708906,0.9223161700243847,0.9686560136531712,-0.9933457166941411,0.7872171642405146,0.5331027164156685,0.849564057421706,0.8850775499034604,0.7113450086878981,-0.9333283583770173,-0.1352632826253206,0.63733713666393,0.517868132269157,0.011197884462518015,0.6482262190410761,-0.9137814674718054,-0.39940425216045927,-0.7705157107583416,-0.21767814868417457,-0.262853358706439,-0.9695530082340951,0.8145493855551722,0.6748648610123018,0.014857697719541374,0.509661895220225,0.8907973307432417,0.9895797537543758,-0.46441130551526477,0.903119969523289,-0.8789320867146024,-0.8719861409433296,0.8295552664489954,-0.2194100575593363,-0.4991340771423305,-0.41039644693164856,0.4541274697011177,-0.5777046161143882,0.2642625368401572,-0.5369375496796498,0.15693067632888713,0.6304651879885457,-0.14669335821462193,-0.6930669296165752,0.2657692188670011,0.5506732875142433,-0.937297553764393,-0.3770520809937108,-0.835929555491028,0.967998826952781,-0.7839441814941068,0.2961135995363713,-0.2449309032685143,-0.10846190865201955,0.05719650304665791,-0.00010266529321167894,-0.7133450993323764,-0.6771809696824982,-0.6799125977212639,0.4350458879411998,0.49862009794691486,-0.3190900817805731,0.6245902403555448,0.5704215579591767,-0.7210144469036606,0.3033423585243282,0.9357665717004626,0.983482673167432,-0.8112630966437315,-0.09705773474409707,-0.20726709062317994,0.12237128079715864,-0.13383465812583717,0.1394590655963932,0.23227677294328553,0.7403172695120279,-0.00814085882841864,-0.4848326681682238,0.0033442384587387686,-0.3803112642521782,0.052927920742588785,0.6390966368424689,0.7344440378231645,0.7292615953408945,-0.6658575116403931,-0.2535689760004125,-0.06266028330466655,-0.6608999737322909,0.16449043062969881,0.04697778411888498,-0.20487416525388813,0.6275310402377365,-0.07766221713824617,0.9513470111505473,-0.38392109654247397,0.6576722832124346,0.4215111559678899,0.19961312857872127,-0.8672786026023602,0.431362566994264,-0.5745855736018286,-0.6438402469354414,0.34626965735320203,0.5218750802223053,-0.30043262049771036,-0.8790084188141596,0.9539731091054513,-0.09856783808401426,0.31636791103465534,0.4617110509027489,0.0807388357583223,-0.6172951130375757,0.5295022861108967,-0.3760083264324696,-0.752792936563214,0.5733285020957646,0.7309706709424408,0.32672653520795736,0.21498950332209477,-0.57350618101546,0.2691650458015631,-0.12254328599806241,0.03424961366310697,-0.991444366776006,0.24833985396529368,-0.7051220655040313,-0.6141917967374337,0.5713357292466616,0.26319716068996124,0.8158189545989556,-0.4174773604356239,-0.9914294155686938,0.04006891600075635,-0.9458340268137904,0.47534388731805155,0.6626146737987182,-0.18282945287095353,0.07041334556948975,-0.9361729215772123,0.3349616329607841,-0.33861239276818544,-0.9253722125475528,-0.6086915834948461,-0.20004847168012052,0.2701021596197961,-0.6407513480830938,0.19472478526944625,-0.4652655760547213,-0.4929032043481314,-0.8780082567611931,0.5329155890508628,0.1440810344247616,0.6468338957989728,0.03348905004755531,0.15818861080577884,0.8401465201571714,0.22842020320533685,0.2311043831550852,-0.24900916417026098,0.6800067267892476,-0.811717183504626,-0.1456542220622108,-0.0791640012606214,0.4675956620982311,-0.41753412063652906,-0.12955210223591784,0.5116118454132286,0.8493475609996861,0.1542500489694274,0.18217204542015697,-0.5872811864137688,0.42195254775089364,0.19254595381290285,0.7425153142890979,-0.024869736826355737,-0.7882438933364204,-0.9918042738875132,0.3017457076432475,0.7858145841647683,0.979989586524999,0.22198020904200044,-0.21544022077308345,0.9522703198603644,-0.07030841928522591,0.10141275332674793,0.7441725819893081,0.08676236942663129,0.966218778242772,-0.4164364044981257,-0.043525171668976625,-0.2695000596431938,0.31913726810032017,-0.3050992323992858,-0.6253288990633177,0.08293877214314094,0.6762121839214492,-0.46143271959317067,0.2193557799551895,-0.30886721957944063,-0.6438783550382801,0.9814157159753489,-0.12324085123226824,0.005313175706804341,0.08537805122734277,-0.9792187132650962,0.9530485847418593,0.48050645382266355,-0.5956226429821001,-0.6306255351451528,0.8347923815867571,0.7493140252578065,0.6910977044738305,-0.9242661179486666,0.28776418210374954,0.15193604599007138,0.43357662477104997,-0.7118454192511066,-0.5259390355665574,-0.7162394588279399,-0.8224965133617723,0.42997341693876834,-0.1548722321274183,-0.6366743091107336,-0.935410927681906,-0.3480824328593539,-0.8357978553790075,0.3118511030684328,0.5441007109682361,0.6488501577637007,0.5152239007766353,-0.4392634251636136,0.5854540500621521,0.24342105239397682,-0.38610326223250446,-0.488919123508599,0.6797661996120454,0.07129265086639558,-0.6851025912596014,-0.7007444427226237,-0.8725070182425436,0.47639056087976295,0.3101546811112992,-0.9978593007186372,0.63155093183406,0.9229677103696927,-0.8281347829973225,-0.8819306083676746,-0.42916516713995145,0.8882459926677582,-0.9857622008195,-0.558961902862023,-0.06212967454611018,-0.9750580382280734,0.8927463112334744,0.6124897332542862,0.8103163393844892,-0.30593484884907074,-0.536834297642101,0.8363211178279402,0.23331687267529722,0.7623568036506341,0.14067255288412017,-0.25756867569018294,0.5497868140244448,0.2260950243753661,0.5475170179841897,-0.8596160630137915,0.24529365879016884,-0.3173423531040198,0.23249576771460667,-0.6895480442544519,-0.14597900197089908,0.7614162471095738,-0.6453173739903422,0.9856546971527749,-0.7485423842996974,0.35394887962965127,0.9462678692233313,0.1824499514920519,0.44282664929235693,-0.03704426624931134,-0.327309765485293,0.8685760616823002,-0.8706642623580247,-0.0780710444968542,-0.23158978742803793,0.8704862657314671,-0.4237509356924227,0.6278951644123745,0.12693836370641565,0.7886667167556705,-0.7527856184102268,0.48811017948593305,-0.46075609459029865,0.995998734884787,-0.5823141341366465,0.6215018827477872,0.4092059147308671,-0.7000486348796442,0.418497264662836,0.9292402018583266,-0.3684582560068148,-0.1809296439068473,0.21375716113866527,0.5694092326132472,0.7724723126622681,0.15175593368677243,-0.6354174847824496,0.8360485909156328,-0.5872424568701646,0.5653479608631176,-0.8620518479169985,-0.5550742293775013,-0.5041990334300488,-0.6998414075686976,-0.20075761848990092,-0.538132422545496,0.47279503662199573,-0.9512127724586938,0.5907322179535104,0.9690132988169653,-0.5984687778862803,0.700822741699151,0.579218294287994,-0.9290872612554408,0.7553128309137325,-0.0033182226819681304,0.8308390847122382,-0.0427958810555622,-0.4834543938672855,-0.4989312964730659,-0.26861831533165104,-0.5267100006023377,0.6371803396307154,0.05003889341785284,-0.6628128109406277,0.07517597699574541,0.3519508086304306,0.45167816388965054,-0.6138779345167915,0.3435049537229453,0.37208393615195545,-0.14604820020134035,-0.32269449787690707,-0.32600369008618735,0.2813847579145703,0.7848164205289065,-0.8496468488044973,0.7657808263171675,-0.16760942241247,-0.10277652440458551,-0.10661254484605687,-0.50237375530038,0.9049503509322792,-0.1880021936993712,-0.7524460507930351,0.6569771487091414,0.16419878079626793,0.8047642413011613,0.26709775540169467,-0.8388278711778554,-0.5050687119727524,0.370140901620593,0.3136037069165609,0.6805190723583499,-0.2661753773779143,-0.668072433376266,-0.3479722330886701,-0.1719649447353322,0.7711957167615044,-0.8704901546237589,-0.5780632891251725,0.3780948017433312,0.7640041693915349,-0.6848633189024644,0.5352078644605816,0.5858915873246993,-0.7940632297549484,-0.9376168776113132,0.8611869802048417,0.033014150193842795,-0.0449630892697912,-0.23781670938516486,0.22429395649634687,0.3188589367808521,0.6583172893044611,-0.4146977344603888,0.5764621121081079,-0.6066150220334761,-0.8919127256600836,0.6424913318598859,-0.4400979266923861,-0.8975783345939155,-0.36338793028983885,0.6354736236560963,0.5429380492871609,-0.44195895584196787,-0.28126462990368717,-0.5100862707333675,0.0063227178727371935,0.5082677594908747,-0.5274498446604561,-0.9113880296119046,0.7945585126252079,-0.6730422537167917,0.5825272774487376,-0.11797170013266234,0.48896745755214566,0.4748662908643011,0.5562440523712153,-0.07979049742491728,-0.029576735405477006,0.7877033007955228,0.9430903599558755,0.5828815616522109,0.460611738696902,0.8063855100270008,0.9333352523274123,0.4194046007286625,-0.44808184586700595,0.7307544407439499,0.7314038978162674,0.35261080606514206,-0.34511435009573077,-0.9343313225144039,-0.024289418249686,0.7119611690695038,-0.5293248029188868,-0.6893418499105164,-0.05827839415151548,0.8807352537293265,-0.7651731153898309,0.25849998314227207,0.18370251350364297,0.34390251851699327,-0.4612337850008794,-0.5475547598529733,0.9647543525753908,-0.4453193000252207,-0.33708193504446493,0.4305742619774202,-0.07123468437834601,0.5449991281314466,0.23606472983197424,0.2278444158846491,-0.039333951105269715,0.7801983342486798,0.8046518559797993,-0.5138461030774066,0.9449099007701749,-0.29949823562502953,0.8535805969441319,0.5622917032095969,-0.3080664638352757,0.4645584031871981,-0.8760979858758842,0.7161062987307512,0.6204467097126649,0.9416631305167682,-0.8135073059328808,-0.7529845237844026,-0.09224716873771666,-0.7314227060830558,-0.09820609492694299,0.8961714288549829,0.228909936320695,0.49291637852276216,0.7819701891886948,-0.7173526302479272,-0.7811554980158921,0.1491462244760573,0.399147687046427,-0.17564006882731054,0.34714269249797036,0.7561005668034628,0.6174736373640606],"bias":70.54219774540161},{"weights":[-0.6840829002399187,0.11715890850022737,-0.0309157423751647,-0.708311326450914,-0.9791528070295583,0.5781460218697401,-0.3589521791421926,-0.9674664791239396,-0.09226960371850224,0.6867052363805275,0.3707030268361029,0.5490538970141259,-0.11062023262015241,0.1547978130933867,-0.09688536978279538,0.343930505961239,-0.7171133382891202,-0.03705740087549536,0.7051292668841027,-0.6636288621602593,0.8357030137615471,-0.5016637981190937,0.7437165928342147,0.8132725300567749,-0.03127322845046976,-0.005794962658065117,0.5122712257482984,-0.6387707994790528,0.5921185683794348,0.7080336247763133,-0.8643677179086473,0.06291576132188004,-0.48098318055860156,0.0898234383975609,-0.5033013783860532,0.26435376736779626,0.8445724166348136,0.24260433634122602,0.17400333074398677,0.5627195061812018,0.48208518236286135,-0.46629496323692754,0.5592107148580467,-0.03961555525588967,0.08779767911302327,0.8447733259172714,0.5675784286493974,-0.9705040694930682,-0.041147296597845884,0.7248560470144394,-0.6493634519644598,-0.9216986104744112,0.26789241731282143,-0.9607915106692926,0.42671434613005665,-0.6812323222457923,0.8766146811685203,-0.6754034494237362,-0.12267310133072495,-0.2401077639006033,-0.41914792970925774,-0.25982998497841514,-0.11648651778924535,0.8147887764421413,0.5583272721215646,0.725007298461545,-0.11742569778995682,-0.4216269754052604,-0.5355822116800506,-0.15864837655491026,-0.8230943909616082,-0.5586406214776707,0.9466007018148721,-0.24280324071019965,-0.2970771037785558,-0.11186850647507951,0.005935995737241129,0.46497496028677254,0.9707590970589957,0.5629214005927854,0.4641763178964502,-0.6989579866950701,-0.7439180400011343,0.31446281827302336,0.1485476937494692,0.26712218857956227,0.9795127765547997,-0.562419439686416,0.19457431746359655,-0.4833287955621035,-0.47851291070321533,-0.5945476783135892,0.8839018333494693,0.9211718225189962,-0.26622406594778303,-0.8948194755164574,0.8715117609353884,0.608339067751781,-0.4750570275356303,0.2536881754833433,-0.6751804412776394,0.27660444037901355,0.7242804448355407,-0.42838220883804556,0.3999513286492493,-0.4726070802060969,0.44756797278544047,0.6456677007768081,-0.5460071217335418,-0.47765466995322337,-0.710997007588519,-0.5619970815013824,-0.9464561503410276,-0.1638072825362249,0.2743510560153566,-0.274847237298832,0.11994027924694972,0.28045021357726796,0.7904240961165381,-0.9666849842364251,-0.1666255678927251,-0.22233414684092434,-0.6836819253988309,-0.8076548933176508,-0.5069406707849349,0.7015810780090179,-0.2709780311483141,-0.37847976386685334,-0.7012829955658444,-0.3332451654411428,-0.6530618642636732,-0.37400997409197867,0.5235324171631808,0.09060015298788349,-0.6835807877602176,0.03731156123014934,0.8146451554552621,0.9621364063527542,0.6383777331520242,0.2819192608870722,0.5362534065150992,0.8115112082994211,0.7404553229878612,-0.26423803025168624,0.06895901136042326,0.5110624933152836,0.600827318513423,-0.8006794303328655,0.8349784884720073,-0.32098089890575254,0.10667303272664341,-0.38197204245308614,0.5172331306537017,0.9488471639456999,-0.1936517508444915,-0.7853085593691933,-0.6834169695118941,-0.20928109280607687,0.9704011125266816,0.5663530410509403,0.07535618392829724,-0.6211720290848595,-0.4639460710568595,0.14958893704235976,0.8077184036705489,-0.05794247541038322,0.12391785741452388,0.7514851615461708,-0.3723368587380822,-0.24887491493163605,0.795238232811784,0.8941878145635034,0.7082210350294034,0.6034219065484732,0.8571102665811194,-0.49317667277103805,-0.36669921667260486,-0.18291844686119463,0.7616334667480911,-0.02993750434980491,0.9501932545552387,-0.8334170341205662,-0.8346347264295604,0.6383863235775982,0.28093209291333476,0.4082557883711364,0.6986469844589505,0.3865396224399653,-0.2391309955313825,0.7426807715153974,0.8375698425963529,0.9158055796377171,0.9675379183703239,0.854518447098243,-0.2837656810292315,-0.1120955931171892,0.647559943669183,-0.2776560745982719,0.47436793411098366,0.2029016717858001,0.07046212549222552,-0.12383496986187792,0.4409856343377965,0.45359347794679383,0.9927215560505256,-0.3007362107621909,-0.5050551014444884,-0.2463134522458459,-0.4943520727787023,-0.6578213672403739,0.6561969886951107,0.6555955907906035,-0.786332570377188,-0.20367259188033549,-0.11928288001480558,0.7954421392666067,-0.693445876117492,-0.38570229543015344,-0.10271600181860085,0.7533920394210734,0.7109853112534452,0.3096952052927229,0.6647586904239762,-0.5397999127785198,-0.36613323452001234,0.9472319791183144,-0.765430787323814,0.3488775983608927,-0.45473000136327135,0.7494607594723655,-0.2875449027564221,0.8426819922577602,0.42199483747111843,0.13602011492371613,-0.3051627529944403,-0.2945469485298533,-0.2486245338318649,0.4580360775474581,0.6717430348424864,-0.17485477195206833,0.1360735892632592,0.4489307616498488,0.6692518696455898,0.292466806902802,0.3242316576807891,-0.11536540204984869,-0.5747050242851759,0.7929955412790561,-0.8462446115065516,-0.07512362204783285,0.06746891108988518,-0.4650307111291432,0.454010964351804,-0.43994517845713377,0.5605096158768306,0.12534941754953977,0.17498583443365723,0.8611585819297094,0.5604444582886532,0.5205640583810602,-0.7077969716628321,0.24763160299127707,0.06865094851914755,-0.37811932076253196,0.8923028296545228,-0.4321483062414493,0.4305686032276581,-0.3588943410918861,0.48030737050904415,-0.2107732284877688,-0.7095736238693235,0.08004338515674769,-0.3946401713507073,-0.5886353164104792,-0.4918898931227389,-0.4921561929771059,-0.07017718431799524,-0.4248249667916286,0.9739103686915995,-0.9043925768933638,-0.4906006577670414,0.7061645665529999,0.44058541462635636,-0.6522967335498806,-0.8497142456623936,-0.9157769956333066,-0.17541395248513014,-0.8233789046021283,-0.8389171059679303,-0.07687289952855103,0.20095567168689232,-0.5365383893204259,-0.6675614370711589,-0.3935531749324168,-0.48251822433843916,0.3010423925056247,0.7424415262255657,0.04634462031977904,-0.24079067099994989,0.41016934102057956,-0.29575846525594285,-0.5304314017987943,-0.5199217526168138,-0.9339668991094263,0.8875001923210184,0.7464330251565889,-0.875627488792647,-0.20874007066009614,0.7284177440439459,-0.7773610070960943,0.9665873586628386,-0.5102678313175466,0.513408541617205,-0.4114769166410479,-0.9654761457071328,0.38003902704650017,-0.14612299910596782,-0.11234659790947532,0.7097266447408948,0.5236185572507241,0.29717772913445106,0.5688600346664772,0.7313939972941972,0.5141579060970933,0.1457583171240211,-0.08996115805478277,-0.28631984585315307,-0.9161252099559354,0.8161060285776243,0.6001040756472551,0.4359711014430161,-0.9424812009343113,0.9657338006278331,0.9235720398704435,-0.6438858975340893,-0.9060910198791228,-0.6674383422806018,0.24719893812318272,0.34027476564972714,-0.05252213782493875,0.3580785070790662,-0.044872349104141396,-0.5727220958141226,-0.6141448091728248,-0.6954800714113367,0.2799152260997433,0.969413875278057,-0.08761645516527805,0.630678332912296,-0.11344574470935287,-0.9743550785466923,0.30480716389822016,-0.32715718649224845,-0.35064454534061706,-0.5548566073081309,-0.30679262705499477,-0.3666810453359792,-0.4244565220361247,0.658835615041951,0.6241946846263864,0.05776436448264777,0.7238027542632048,-0.7491801469565855,-0.271546331858739,-0.890493197605168,0.9324557306043455,-0.8807105689801529,0.4639619317732051,0.620299437030778,0.3443590748071248,-0.2675684697237992,-0.8201788992388472,0.055358906062744406,-0.40245553656152877,0.8049145056820195,-0.24226014530375117,0.5013987960595196,-0.9138868250994103,0.09215515919834028,-0.56934136881631,0.3341841673366419,0.5662539700994147,0.8642883456135841,-0.8288433129965158,-0.7520048360419445,0.5023247670649313,0.3740424914132303,0.7730314502713793,0.9989418187968488,-0.14413006396609784,-0.722913688027464,-0.8138336199376934,-0.17885507282059798,-0.5938830680401908,-0.08997903252412165,-0.9412042556332145,0.024595991072381196,0.7822727315487112,-0.5885144533750224,-0.9460563692853508,-0.2663096277003638,0.8369130273001946,0.5793895087169085,0.13051215891777712,-0.4236883006970724,-0.65531242535114,-0.586005140083417,-0.4362844841234632,-0.41960448841741904,-0.10751690035632988,0.9759793423166112,0.01627134533252228,-0.00440477291038599,-0.505912837454312,-0.8740721387291681,-0.21971239121621133,0.04916740180655221,0.7290320936205292,0.7140303863335098,0.514369318102375,-0.7362846619247736,-0.05929215658077336,0.14138812273428636,0.4909671901125656,-0.898750514704413,0.17814699546865143,0.5750338470368916,0.813541162382498,0.30479229777108685,0.9102168652022016,0.9433201037628023,0.6609073088497719,0.9798822115794015,-0.15814536200853713,-0.254796305052742,-0.7721116273945792,-0.47574556483876274,-0.25906748214542796,0.7237957139412101,0.9623471545485875,-0.3304861227022786,0.09281064500144387,0.1804253172211494,-0.6244147041748782,-0.9976031004583401,0.2691889196156323,0.11391492916941681,0.016566602610202263,-0.046584959316184005,0.6414420854913492,0.6302567505596648,-0.39385957351847,0.9759777796085047,-0.5245441139582026,0.15598733241804652,0.7800291697710247,-0.8894358818701908,0.4608021779747058,0.26936862930540917,-0.9402966261196242,0.5689593215684634,0.2505406992536221,-0.869988386839728,-0.7695090420899646,-0.42562538364401714,-0.5484425890543991,-0.6448559181115083,0.1600727123922301,0.6617457116750911,0.9709674763244847,-0.6502199207366393,-0.25387776854508415,-0.8619722366643754,0.4880625814063069,-0.1615632090101493,0.4049551546133219,0.13406026446841368,-0.6099915502956343,0.8700093751730682,0.06919642140338045,-0.8039811824599021,0.9360907762322674,-0.9102907569428997,0.568452880066797,-0.020917717197928454,-0.6026247761237493,0.2490867577018454,-0.36418536693407866,0.14429774771282355,-0.6344744659010928,0.9123731634740464,0.9025079757971644,0.16045149746220266,-0.7585982082285985,-0.9926720807837359,0.7328896478549423,0.9900579694825526,0.4372621540755244,-0.2732799262909835,-0.9723751840500015,0.8510259805879463,-0.4882671114429069,-0.6686607182774962,0.35263937692299185,-0.06227157364376623,0.4003799382640638,-0.4659166241001831,-0.8694802546857163,0.32535579762079037,0.9060665053237886,0.3503743645491233,0.2556789437684017,0.015197922397793828,-0.9107492344849368,0.06206178339811341,-0.661346365154523,-0.36312512998830515,-0.9224671540002993,0.9710957212281337,0.029071201557606674,0.9054425834867517,-0.0044782322286338605,-0.8422442808714559,-0.4821928305389509,-0.8760797696084528,0.14077621327508716,-0.686002888706589,-0.878464829297382,-0.32913281610153433,0.0798159259611495,0.9412389370802137,-0.6015505128175462,0.8860866182413933,0.7309817337094944,-0.33987847609624255,-0.6961896215990113,0.6641676541665298,-0.7887853784919021,0.6107957270972135,-0.39109080654586137,-0.2743621180675335,0.889281957307205,0.8460405849644159,0.9007744728034219,-0.4965591952628361,-0.18112459421148053,0.22750322000099343,0.866879642269577,-0.9616744013546947,0.6594887393350959,-0.21567163899570962,0.5278628608967093,-0.37154887891864385,-0.2987612876210122,-0.7055090243821773,0.5712294574732586,0.42392428820275674,0.2090446536697148,0.33430784377831735,0.983359795057607,-0.9003879434033482,0.8990111284175248,0.5194638015026367,-0.8022544249405201,0.2874166264868241,0.9833904421695312,0.583558681885282,-0.9695992121920947,0.0006276725610447897,-0.20616554027021872,0.007429922525470367,-0.986843130375409,-0.525465904077298,-0.40672256927357076,0.5618678987092012,-0.7215583581332541,-0.5047080927062408,0.5251166420968909,-0.5144031739039852,0.5112352875915538,0.8220652534189514,-0.2728448703029862,0.8913444250131843,0.09051609744910305,-0.7404036318898184,-0.25324016342445255,-0.11436634224785358,0.7057740241525647,0.8571308847140249,-0.7706482190528909,-0.16019755774280053,-0.22599600342231296,-0.367338087674288,-0.47249998828646467,0.23210923172271647,-0.361462103314238,0.6445662684177864,0.4872665974011019,-0.46304424830949875,-0.2832712323483011,-0.974029268569053,-0.38750449228120454,-0.2469019066048257,0.575914517764764,-0.4573945784059097,0.9897068685999568,0.5129768802190835,0.607734925041906,-0.7491071515560614,-0.8983380243523964,0.007158409196478921,0.05412981097803016,0.05352579965163651,-0.5896101210018796,0.438498273744222,0.8753887193651715,0.7010185976763492,-0.9477969098476837,-0.4087247501332909,0.48679865236362785,-0.055248149924283396,-0.3207539594261637,-0.5395901532721155,-0.3857787768704344,-0.622792691487164,-0.7466379884709395,0.7104711797457353,-0.29942556946367427,0.2297758133419654,-0.5937294750625162,0.17412114345982266,0.7557624517271275,-0.8303788341303773,0.3001681454527021,0.6912844726350023,0.9330707198768766,-0.06555853271059409,-0.6021043737540075,0.489543439647532,-0.030117738517559722,0.4503471815443145,-0.3227257504834351,0.0429852375277453,0.6130948980604098,-0.5359779716951598,0.811163540995139,-0.2870395934933665,0.24103310135972889,0.6889056344934681,0.7100173586553065,0.6602901631770903,-0.5323328406461623,0.6778465346937157,-0.7916563694515091,-0.0014189203192924715,0.8908227604550549,0.7346881440466335,0.2201476229622732,0.7472636985866616,-0.35043485691187426,-0.9948280877068867,-0.5293027246088635,0.9785922372430429,0.4110834452737304,-0.5511327923279659,0.5744662810378354,-0.29869638359406325,-0.2101595650862884,0.4003308805140424,0.07968312594167326,0.7875850022174484,0.9793795606714579,-0.8248004941788047,-0.25542311966320597,-0.43750738557850255,-0.44778701646659735,0.2771118620875397,0.7982059825586729,-0.2985329703612152,0.7896076349315932,-0.9296106101191217,0.6774720377227186,0.8346792724527954,-0.5605781894805224,0.7368591925819885,0.8830707579549415,-0.9913177644451374,0.7226160060387508,0.35436921202506344,0.993835976814442,-0.5208768665442896,0.0947359086429791,-0.4966471309030456,0.5706038241796625,-0.3040297768595699,0.41574177415267854,-0.36192752852784515,-0.8841870582798834,-0.383629906344793,-0.6331523238733592,-0.15701565872203416,-0.33265516426022756,-0.48502894386021955,0.24722964675640302,0.10180056929159687,0.5407247850110908,0.5471121204186957,-0.4239489349221137,0.20180436470093222,0.6611045394717578,0.19454797322324557,-0.6057125144248832,0.9943240220909964,0.5936984970064549,-0.22685962677908478,0.38950206724776404,-0.03313030738634648,-0.37749922189405893,-0.6247539149792534,0.5603632885507484,-0.27506976412209516,-0.5816734684234031,0.02068779956610234,-0.29556919872040943,-0.2334353797402211,0.9722352734009041,-0.0741793838670941,0.8024562762313252,0.5224782967137829,-0.46262202729061164,0.5639745476824962,-0.9327136292621239,0.6030005305954296,0.3252515576970829,-0.03773811318608988,0.5024073300039826,-0.3661646947797421,0.021070952814185695,0.6889523073043811,0.12177234907262813,0.17774250599015096,-0.6379377477593899,-0.3183918586418524,0.5722931877131634,0.4543588779098884,-0.47002856798359716,0.5812779067108278,-0.8838430552298662,-0.007173593090982866,0.47230212717804454,0.6684220924741551,-0.6492996100588,-0.45549104992669776,-0.8719823076154563,-0.19339689854974917,0.5444218104001037,0.6643685171196787,-0.5605020343879819,-0.5748480401322738,0.7114333196926399,-0.07393316174459841,0.40367575261674205,0.17191293198175073,-0.7192805302414742,-0.15989056438050842,0.2064369390210139,0.2313005467037743,0.3562938069511894,0.5298767436120837,0.2972503715325776,-0.9283079786226538,0.2522115057177339,-0.5069188870165577,-0.9260656604848747,0.7573368158785958,0.22194307517337597,-0.621355571746014,-0.11137667007080498,-0.4517669672998106,0.975784515116477,-0.4717978112660344,-0.45714306701120977,0.9027864805888162,-0.668372510113016],"bias":98.02358024929663},{"weights":[-0.3075692617657615,-0.18796569957626597,-0.3912677859958662,0.3198482358623642,-0.3673698973940831,-0.46480765853472716,-0.27929969600662874,-0.6433689194840935,-0.10590329570083856,-0.5518098114044281,0.07301872532748188,0.6241341831337164,-0.30313960729731004,-0.3650523921303508,0.7374617983955858,-0.7549569180161697,-0.68195990544648,0.35941306219929103,-0.2893066433328544,-0.31926675971368823,0.49570446952832414,-0.9023728712357411,0.217640539299353,-0.3814046941214606,-0.11600821873616152,-0.2058032525184652,-0.7392795846156361,0.813849484664924,-0.10489411962653472,-0.9969817345607428,0.481847002689757,0.1723944299092155,-0.46632566792222585,0.5791654260440082,0.5649824728282868,-0.3881205772051626,0.13924624327209,0.3570453309809576,-0.9364009096732628,0.7835451461017491,0.022948177345716303,0.2149710637860318,0.7465032899274684,0.5475550833478353,-0.1849066047341048,-0.4719572989971379,-0.5020761274264491,0.4669451152606414,-0.6904030164301291,-0.3908741735368664,-0.7327520863717019,-0.7728512951369111,-0.3913104662138447,0.2586990472027022,-0.45103929974500323,-0.6263340886781537,0.8505928527630613,0.6197707268760269,-0.7282021636026648,-0.5140349800743755,-0.9335734693582372,0.534852022088451,0.6998150027170529,0.06679640233970918,-0.31025850894192786,0.07061867954595069,0.9021381747437989,-0.06927637937534081,-0.6489426757422438,0.24408497852177602,0.15161815149304525,-0.0444196911423802,-0.6757619968361515,0.20165256706706813,0.8527356379559543,0.6963473576189809,-0.2879460563180345,0.93530195634033,-0.6251817775024375,0.8261198284522604,-0.8484721546993703,-0.2099214168938821,0.9790052332652808,-0.3099793860293034,-0.6912652487236772,0.09269278510460621,0.014947086054796888,-0.16293941175623994,0.8758380828766659,-0.954654570760451,0.3862250106382561,-0.7690411717091061,-0.7969830504947266,0.9412887155167007,-0.7780841026828118,0.4789607750544844,0.10050598926615617,0.9745116000361564,0.2844098046205512,-0.26938211055589845,0.6083304738651987,-0.427181563111942,-0.2717231136743039,-0.3864304366712794,0.39274137838617795,0.6754051210260554,0.5137840757622931,0.15281411136230894,-0.14319315594981852,-0.657445709578917,-0.14737732113882185,0.7400937446223268,0.9923432979779769,-0.9842297718899946,-0.39330155550234336,0.8602040712114203,0.5318863720052214,-0.025159027451108873,-0.04801791614357054,-0.8392737290843177,0.8943951905479279,-0.11379353140644977,0.5501896525208609,-0.3441336176494092,-0.8553802801889443,-0.8537669780897605,0.04672462260411692,0.7007402404612129,0.3131131968216776,-0.7635242256529802,0.8643573507155007,0.04395835565786399,0.4493696439048893,-0.24754407235466402,-0.9552499422122875,0.40307111943205465,-0.06965811841128966,-0.8214806038516298,-0.059634482332993066,-0.5652313046335005,0.7687662550577725,-0.567412976010564,0.49599300859520845,0.25731634285128147,0.28185016427711806,-0.607213070710745,0.5647736197145479,0.23253084354658382,-0.024189985902574485,0.4191646907658195,0.25091901953817386,-0.3916638839757596,0.44914701425999803,0.7488693226456897,0.35453241300963967,0.24481387984661218,-0.6953911096916015,0.9626587800862856,0.32202514470289545,-0.2166725758695116,0.9315770519463427,-0.7794269215673642,0.9939679788054829,0.8544166218163878,-0.5317985317379113,-0.37313532658326887,0.1107230543233153,-0.9428390949682139,-0.9645017540302763,0.6604707769653575,-0.8653280112536561,-0.9389397376912325,-0.9195840114427778,-0.5136859919877685,0.3517059111813081,0.21512125469275434,-0.5639714159675284,0.03144694259772596,0.09595876671389325,0.3638927286375937,-0.5698930219033169,-0.9971939074185796,-0.638377525379894,0.26395003145802587,-0.7514176837407214,-0.024376152965515985,0.3853141568373841,0.8008786785735276,0.3624790839512868,-0.088398053495927,0.6691482281011529,-0.10108062775643178,0.8920240028569997,0.2701818065573467,-0.5373376787331705,0.9707311628493054,0.8691393929774991,-0.3079989581037439,0.22693546689358346,0.32143470099769766,-0.34901699072758685,0.4712113831036038,-0.0865404647657142,0.4476790440207261,0.9996132234904267,0.9096947393872172,0.5471837901756373,-0.8618835865765906,-0.611269010065405,0.07546746067294352,-0.013168053607979235,0.7537338991037701,-0.37306116179645565,-0.667013222567677,0.25343555228730796,-0.380263601224585,-0.7718964991950235,0.7442927173032801,-0.5315834340213641,0.274547867764074,0.7124336901838366,-0.6610429235511828,-0.4948176870614214,0.30123828503344097,0.6777819548838955,0.37072003270455856,-0.6172679584094789,0.14046533290636987,-0.7825768560964961,-0.8264592426295256,-0.7816161715144108,-0.024233449889859315,-0.6892942890093705,0.8489719045773336,0.5555458043078647,-0.03213742585220114,0.37819695356392646,-0.8176932599092699,-0.3638887601561511,0.13404093268041573,-0.6652309972572623,0.5183113579095595,-0.6302299684421508,-0.022444709418815822,0.8670040024448205,0.3760585186415617,0.9822612442658323,0.926060997918575,-0.4299183624482126,-0.6824176765154997,-0.2872106215902428,-0.5929834829259004,0.6490798039185606,-0.8707688596659406,-0.26567604958215485,-0.7612497366727831,-0.9581872921296597,-0.9927676093050852,0.9223308666815915,-0.6485715737805968,-0.4396374358566928,0.496913644108826,0.12340769747396951,0.0029660902937580502,-0.4026695132477003,0.5906424524092881,0.13888193903439428,-0.19295302003757486,0.4706946076934515,-0.27624608221262204,0.01556322024033907,0.3432263108545994,0.22068606256479217,-0.1389790881919799,0.6235651895431586,0.6554790627340124,-0.6157094895194835,0.2978987897021881,0.5794785249142507,-0.9547727380220601,-0.5805397038129954,-0.16212124107854953,-0.3229387745928043,0.39284378912283024,0.9896326029764082,-0.9163817694207128,-0.7285399961645846,0.9925336254617045,-0.4197679660912743,0.7755919298574212,0.5218851810128253,-0.7483837008136098,-0.15951300428094273,-0.4157981854077075,0.24229115217646058,-0.37973075061226336,0.3496604002792414,-0.12368749085648645,-0.33783374951050416,0.5952988193986286,0.7559122220192225,-0.3194685591781048,-0.8098663976538951,0.7279086420718359,0.6893367022754355,0.6399354883448973,-0.43656949247068866,0.9181207448834163,0.8043134733735751,-0.1740719447486021,0.3550944516053707,0.7852034352021451,-0.5235335121321838,-0.8555746428877686,-0.6300824530863802,-0.6667456461376888,0.5523130411727162,0.809904405246487,-0.12711684552576719,0.8458882492591626,-0.6575263222033434,0.4116504090060662,-0.7550762504513919,-0.21570848344799387,-0.6051852245056817,-0.4977589713310908,0.6274741234793306,0.13819911350609626,-0.5390625980859411,-0.6974149959412856,0.0647430678012415,0.9415773060457733,0.9360228815523692,0.4694197712125727,0.11756246416301686,0.9162535402763514,0.35531755402644594,0.31957696464703833,0.4097780545453955,-0.6015598107579851,-0.3929367781755868,0.011368147636707349,-0.6957983956840792,-0.19660050001451168,0.3886476627881952,0.27525715183818855,-0.159706703695226,0.6901188050431175,-0.21338654363517806,0.4588663377535198,-0.7507336817937897,0.5652567418021244,0.15235660812103413,0.2434278578650826,-0.7785424710166082,0.31939153267078124,0.0929236380726679,-0.6496744887589014,-0.4401925620452234,0.6489762554764607,-0.8461040383664136,-0.36632584388586364,0.7895004081663957,-0.6539656289289795,0.4512697325803572,-0.3620033177293549,-0.19756858053384097,0.11283170873260495,0.20143734117854883,0.2412423058509514,0.30861273445524473,-0.5801162524956274,-0.7363675655780373,0.8939763781879413,-0.019388455379122593,0.6740484906885484,0.24700743015288484,-0.37875735338081284,-0.12682694988742593,-0.9046242457839022,-0.4860670248598624,-0.9102950837922199,-0.8818901352774717,-0.049327038524832556,0.42167179517525666,0.8846272748940658,-0.9872414561275065,-0.37149817032974664,0.8371495275365093,-0.12861441435091692,-0.19197273767625544,0.5631313500275357,0.3363418038899182,0.6333803945377885,-0.47109385871358844,0.9348162358641541,0.2184451032627881,0.07051989389796853,0.3290150784877963,-0.20872895546822257,0.8788785549987987,-0.5649579904649653,0.41787971404948054,0.9417403901655259,0.9742022190071014,-0.6485920348565073,-0.7748827543203274,-0.5404578631231662,0.8842514016356411,-0.15249289968175628,-0.017188988210420586,-0.7497108045923486,0.9587861701739859,0.9688008189388295,-0.19521460330355378,-0.8729301944768486,0.5243712939131178,0.534423096852878,0.13971721045034835,0.3584320274641213,-0.8870403926795505,0.0525443890002153,0.6551838737567977,0.0015298890325152747,0.18276787819982054,-0.3360973056524066,0.12126011768773726,0.7464124173113249,-0.9735947180720212,-0.9362663909574107,-0.6815612497684227,0.11690368022618047,-0.03582571392399192,-0.26443181998219245,-0.1997429144903724,0.8464639089103061,0.06029062216361325,0.6166078559442627,-0.1358923585236691,-0.6074303818500835,-0.3260506879876752,0.6847771848448967,-0.8061774739675189,0.5710703204675216,-0.060484457850304096,-0.897662427108735,0.6472138782046168,-0.8742455766588346,-0.2859046198877264,0.6489933772859278,-0.216923750273454,-0.8053900071649411,0.738098297641768,-0.6253395509520647,-0.690848167140544,-0.8074420412988723,0.7288527811463279,-0.8696584000188134,0.31735484179309026,0.9057858829887815,0.3531299814170845,0.31025551995068845,0.3858420123392414,-0.7840613955300175,-0.2603853184794618,-0.9951817417253208,-0.47766629221020906,0.9986905488691686,0.89393346356972,0.08798468887657185,0.4041683742099842,-0.0648665917087139,0.46753453449663374,-0.8251694855909975,0.4605034889542532,-0.3038629742964676,-0.5624712445389366,0.07205767136732177,-0.6084995635762267,0.4855242747373949,0.9327963876759604,0.3077947076245522,-0.7092787097202411,-0.42271863953509525,-0.3351566381654534,-0.9077174652524826,0.6458117623893509,0.7444767477711265,0.3080919820605179,-0.36782397908514586,-0.12752277854705785,-0.15760855493082015,0.24999835876552634,-0.6526892758502258,0.1476187455062581,-0.6359590982524379,-0.1589380968169456,0.22158682918557338,0.42541973420849466,-0.46759362070139865,-0.10832401090914301,-0.7367171687545535,-0.41497883270182845,0.2708645997213881,-0.9105579360463762,0.9759853820468112,-0.11232578805477411,-0.8696402586066929,0.08085106237620066,-0.3155055608438153,0.7129310499489772,0.015986679034585727,-0.034056145116628134,0.32728941843596715,-0.8580935881059979,-0.4467630645588505,-0.623574257500946,-0.9926709906014413,0.9520783012665492,-0.19053421900380085,0.03264071996880835,0.46104010765360437,-0.7643506164879956,0.5842009415311953,0.2899825334742574,-0.37335909147715496,0.8670294769232045,0.5387179415014747,-0.4841183353399807,0.14731012028198442,-0.73522881611424,0.2421277023358468,0.7331243437170345,0.9568503577233276,0.7918985551624163,-0.8034410324710515,0.8808088852746709,-0.1361323398265908,0.45931595579701945,0.27367667598752377,-0.3232716683454231,-0.9696748091901637,-0.8738718946092066,0.03181803434335162,-0.02008127804327664,0.8462209837623584,-0.11456199644733722,0.6291455579554839,-0.8541503647548945,-0.4910926780870746,0.2870658773541521,0.46414360832707624,-0.4085265892727774,-0.6575997253609862,-0.15056787342250422,-0.3945674701229467,0.2828380458848083,-0.4654367442373144,-0.7390342991436087,-0.5256495404422052,-0.1509244715002458,0.0013307158349076254,-0.17113646199220245,-0.44327693259910017,0.3514650341804746,0.5832134295422624,0.6212420048938938,0.7910449814066207,-0.3889870155257271,0.2969034300364606,0.13926500401691566,0.3612352055915893,-0.2357825686047894,0.2920775463195122,0.40504778788458173,-0.6527761506047844,0.27839998816375644,0.6534621968476686,0.9565121916962696,-0.2625234670785366,0.9891697461420144,-0.15067573109588217,-0.5533775497947797,0.6929540433111949,0.7266629317109867,-0.3240117585268578,-0.5682616812077104,-0.4142881748525764,0.10367838156811349,-0.15224315481250628,0.3969562974855618,-0.27939248956508367,-0.2565296175992451,-0.9910104241498612,0.09656645377834394,0.1718220349048858,-0.7735080880500407,0.9584370757181846,0.5908379697411701,-0.4249070818791547,-0.6511780726343894,-0.4423843346054581,-0.8215486951872037,0.46198009501120785,0.8025110360143639,0.9364298113595941,-0.6846466463812515,0.9538671395078855,-0.031142880230421,-0.1493949672347128,0.0891911157119325,0.08399407569496509,-0.037048453013131866,-0.2959738698423351,-0.3531190072828778,-0.2056058525809319,0.4062896676185117,-0.8278027549521054,-0.3617124748280145,0.23466500191451445,0.408054489002708,0.1563173225620198,-0.828045330230724,-0.029912235531625697,-0.11772609370980813,0.7787979090124977,0.03737023685863683,-0.24639887370802693,-0.5131016017003445,-0.7141763454568077,0.9379941691230451,-0.7795901826261646,0.19736845233713485,-0.5857436177212425,-0.9216894029133633,-0.5734008213892512,0.37743270393958195,0.29046499299829165,-0.367265372960897,-0.7439812612975456,-0.8260768102270406,0.8254583788342105,-0.41421330696839087,0.2788692164616573,0.769673234390639,0.43776714411606976,0.3451574096354668,-0.37682329728346264,-0.5260549497770568,0.4389179312063778,-0.34605831601555304,-0.36692470137878974,-0.5676553817205785,-0.38387831698479014,0.7030023897868336,-0.6392880888164436,0.9748022780038101,0.8134460232835856,0.41169028619512904,0.6011984365186067,0.21066915866277558,-0.17370388162535644,-0.14381471314391048,0.0045734765594249716,-0.32867580510199446,0.5079803307238238,-0.923861532808997,0.4511901027808074,-0.9328263592800394,0.013127976540590502,0.6514207438221886,0.09346204666226887,-0.7508714553913736,0.06594610552533764,-0.6288146601091267,0.6267521047830793,0.9265945636778588,0.8355825048024172,-0.7841432414865688,0.7935608098031506,0.5166311148441509,0.4356566970864528,0.8683579247800668,0.7681409867249815,0.84473541441962,0.7558569571615452,-0.9016835288333325,-0.7147015546749045,0.27632562554594475,-0.0387160821653878,-0.6943755882268063,0.5529823616781671,0.6450005104666099,0.5873231308619236,-0.06234562354877138,-0.5285648536122434,0.1429130040101243,-0.6154881008650359,-0.7801608030745402,0.5177280568102298,-0.28424554184215234,0.3859808805548397,-0.5062442665757323,-0.5788995398267072,-0.2961417797620096,-0.669870375775043,-0.5163704371393538,-0.34443086378109644,-0.7997674926041762,-0.1331594797604061,0.6743875747737063,-0.6864114367234442,0.5482903358741966,-0.17850165511536353,0.6450804059332946,-0.23703029155024247,-0.6403900041495909,-0.9422181300021579,-0.5466731467616537,0.8912174298921429,0.5199427808294783,-0.7490779888873109,0.3809355334539477,-0.592090259145079,0.3040649627844658,-0.4697041944922802,-0.009809351586502757,-0.2139785636669136,-0.5542544541124883,0.3059538889656994,-0.7203801305918347,-0.5071290120019154,-0.5095128217785985,0.6235986176116519,0.8115519974304819,0.7691295025046894,0.975619320705261,-0.9917418665686011,0.8571560594387213,0.8990893633949772,-0.7834823150576127,-0.02509893658932194,-0.547084530988518,-0.5933991479917249,-0.2017542928692153,-0.7033069906493861,0.7624680803302728,-0.32411660446913704,0.4976606539748403,0.9232765389691306,-0.4701809799097396,-0.5994939622326267,0.28820512908085094,0.8278883747101387,0.4222732949437842,-0.823892049896298,-0.6170397286431482,0.8140391276607422,0.8842467639333558,0.6432934030131383,-0.5248682802535702,0.24380000148102976,0.43550429429489546,0.05974365900872769,0.8630668845580791,0.009526999379962042,-0.69091715222486,-0.3210350143444085,0.07445708187445099,0.45633209467961766,0.7634161270477207,-0.5076861108329633,0.08776290931922581,-0.058107092552698525,0.40680197398919393,-0.8132693557235466,-0.6431971380493278,0.8014156375508854,-0.5638171478372187,-0.8760586483010755,0.7744824836198299,0.9248411918011206,-0.7576122217222956,0.9594181013692169],"bias":547.9624476361282},{"weights":[0.8195569880264211,-0.7010860788210396,0.9111360842598759,0.6155824630878937,0.5044641402764318,0.48700635267159065,-0.7330373902722083,-0.24662996350981903,-0.616586737192454,-0.05525526670192438,0.5317891808595636,0.0866037031261504,0.1432223976928162,0.1403693135585371,0.834729424537044,-0.9501084804061222,0.3551467800133121,0.4582010031445143,0.8105476184561495,0.23017276482417115,-0.19851474388689327,-0.8054137636346477,-0.6445266887480834,-0.1513804581224223,0.6057499751255695,0.16475280007089044,-0.8847106159476863,-0.7639876888359454,0.45115425454723646,0.6002640284271079,-0.3997055880032332,-0.16893739829279042,-0.19391040488591926,0.12437858255004786,0.9339903194636081,-0.13683794961738238,0.7762380498863974,-0.16975979929450968,-0.915326475284123,0.6690599512452837,-0.45659496662252286,-0.9464402429596319,0.7384373832201723,0.32812123353318867,-0.3527179891064569,-0.4176521586350983,0.6817670185789884,-0.3975121401558419,-0.49327010770342916,0.8625269019137196,0.18956519750042355,-0.21676403856348747,0.06929512985473485,0.30233848687113385,-0.16656442169235586,0.46082041246316763,-0.3722214730515483,0.19487835716311697,-0.3481602219269089,0.001243532196990138,-0.03123576892752311,0.3276429630030031,-0.8778393593305984,-0.6734080917048253,0.7953652843347574,0.11775254167116289,-0.7728911440625761,0.12557054083132746,0.23518469578286405,-0.5569336169493693,0.9354389625948247,-0.8256361864931132,-0.19264130887461617,-0.8805516344314128,-0.22696861147514857,-0.7402463096433949,-0.5133515577056373,-0.38813118474654296,0.15939506652289115,0.8805621067330631,-0.2271711583598246,0.1673042411375083,0.6443990744830446,-0.39731289862875485,0.06831201227971917,-0.9650601922865376,-0.7301799409864866,0.7493097214716191,-0.7327469851859818,-0.7541082138752966,-0.08622540245017207,0.7072607212073665,0.6700781690221564,-0.9383213127591916,-0.9405392783239535,0.466166550661284,0.5052041877437179,0.044417486493180114,-0.08020039282076441,0.8114695488654302,0.8162702296445219,-0.5212445929473764,-0.15467350058459717,-0.47769902894160055,-0.41453800948711184,0.40023560446361595,0.8322576307763856,-0.7237593793071873,-0.7106861892967871,-0.7420818513275989,0.5515133653009676,0.48900707932120957,-0.985224253739974,-0.5596427847047845,0.9201585637807295,0.1729200046651096,-0.48909351555563196,0.8127072448711781,-0.4403932961766652,-0.36838860290987396,0.15488829070518095,-0.7260408062057695,-0.06059314895771495,-0.2389054190698081,-0.7018731289071329,0.8293507338987443,-0.15455862759404404,0.24998178780625402,-0.3442029659665704,-0.005996158506725191,-0.5279150112030995,-0.02571207213689375,-0.7565810381294438,-0.8345094743272132,0.1596099456855935,-0.19216742438548184,0.7397499534172489,0.24197008692318844,-0.2612050978455307,0.6970131104081738,0.4194404975411099,0.9829801635231394,0.5957809664593343,-0.841142718718543,0.423473463528254,0.9662376841707809,-0.16814577881273873,-0.6272512953561975,-0.19532469512174444,-0.22543003886616964,0.397461240236741,0.07105166344530955,-0.2783495121741937,-0.2459446303255466,0.8573245557483835,0.5251350920478797,-0.662118626405579,-0.172492745140572,-0.5356960299447242,-0.19668473342458137,-0.23832268702512716,-0.18834059039651274,-0.6233062681506074,0.04034382099593259,0.9164701404984914,-0.7794996989537708,-0.9316964484706758,0.5908243947393719,0.7001333152543476,0.46266672700272515,0.218491013224289,-0.8450124371016532,-0.7796403453163205,-0.562380064583333,-0.3620314115174632,0.4953035381596562,-0.155972717580509,-0.47463712835260763,-0.6665365305131554,-0.8527117582902988,-0.6401377265418731,-0.6882107440541114,-0.34971948381337503,0.03215039698707267,-0.7845122758024838,-0.7256492560590271,-0.9324951105575718,-0.5130813968809278,-0.7853739038127179,0.5420491499098485,-0.39321258805661286,-0.3274534493034813,0.6891288231191108,0.2119271933233402,-0.6717608850733874,0.6915821481321727,-0.58553611824173,-0.6126898399860581,-0.6841918981351074,-0.7544025392426583,-0.8298351399279036,0.9295074942095756,-0.8086218333432957,0.41297497828508645,-0.2799962176614996,0.455331540476291,-0.1774921577926225,-0.42636189257639234,0.1053885395609564,0.7245865327258567,0.8106862531727974,0.20458058667080747,0.9015808688856715,0.619029188979968,-0.762575481217076,-0.43413995688348805,0.3404144085502332,-0.5477170714504447,0.5260270404662344,-0.39741735948309254,-0.19397112472783373,0.7675831997135893,0.35392607993768843,0.7912249875348945,0.8666756674906799,0.849659411827508,-0.5460067399690662,-0.47673577446226734,-0.26114804716008777,0.14993966448298846,-0.504020914249343,0.876706899655872,-0.0564249226655531,0.6171096017040032,-0.2362835460689996,0.9502069639508477,-0.3740767842982815,-0.965227462355505,0.39497756535818374,0.42009284457208773,-0.11722191364269063,0.6570687037911065,0.8240443671058539,0.9518282720296889,-0.4781346785189484,-0.9488700055255994,0.35677433760584565,0.40205861369509943,-0.5137535737625001,0.6686282642950139,-0.49507363516792635,-0.31132576699337644,-0.7635881902607244,-0.5827604681186149,0.8650868026713128,-0.5943814735119983,-0.6418507299290459,-0.4209056894514176,0.5229338824126781,0.4925956085608032,-0.7106792126183548,-0.6385367456221407,-0.6627370435027808,-0.8277504211661886,0.3089669167522482,-0.4357154298059318,-0.6058732400094611,0.1254917743084163,-0.7942442289207032,0.9956711126783793,-0.5960615464757275,-0.5844731205355687,0.2513698697136597,0.9921208502499432,0.8807295411525771,-0.05549967816572021,-0.7783924179121287,-0.42392840716983127,0.04465131816395429,-0.5033664704576091,0.0695834608682735,0.5564142443447779,0.20260294372069287,0.5689680531539985,-0.6375327062086091,0.523976426809897,-0.8741353719946034,-0.06274339913422722,-0.9756473668702741,0.16723678706459744,0.8122540534184206,-0.5879139591815488,0.2398218285212561,0.4526158369309492,-0.8552825379338902,0.6695219313640304,0.6941874286894332,0.8504104403377108,-0.14759148095950714,0.6014137963101858,0.7921284485003524,0.7597349255179382,0.9104516011846977,-0.9093422937260018,-0.2517347986436427,-0.1807666022212402,-0.6744532263809848,-0.5983995085417546,-0.286293431013509,-0.10925869944467914,-0.9558792220210006,0.6822218346181277,0.23770161274434143,-0.09149185951591532,0.5217965057920253,0.5537689999437112,0.8579683479011981,-0.49515841288913,0.8056301942925184,-0.7626553874915598,-0.8026128122218972,0.35778184438592664,-0.5807996072229895,-0.5476213207397347,-0.19040938897196513,0.45694697951134255,-0.23655031653758662,0.10487218889273109,-0.9721001892029997,0.4961864113109469,-0.1620915429312224,0.040084682892400636,0.3875208535170147,0.007775646941005299,-0.3381441804417382,-0.9001170882899237,0.8086721214670631,-0.6381770200896213,0.3107493179324847,-0.6470803757082315,-0.9722031424650908,0.4701862640200556,-0.043156695806534806,0.05398278141097679,-0.19741902383171706,-0.5124606204526656,0.9848844660959029,0.5830714593405091,-0.8952414390385175,-0.5943772745714657,-0.4703275284137365,0.15310037603717142,-0.857679390535266,-0.4150118982283173,0.7954020976919618,-0.253817337532539,0.1254076158788533,-0.009043617976320029,-0.029967444267816834,0.10888896865171782,0.5219802148123485,0.17938533817856284,-0.2931775240079091,0.7404937630281361,0.13148903003110224,-0.6614936547288952,0.6557244575476653,0.07281818936467888,-0.30481878190829104,0.261107634903734,-0.49708103963902195,0.7684429227120613,-0.5114837515593709,-0.04952063746592428,-0.14985780187537134,-0.6502616908851464,-0.3228066756989816,0.9680989267554656,0.5222613545787835,-0.11044195662702672,0.9352411830920193,0.17920873492742917,-0.3038819538358877,-0.6012326934661703,0.23580736258753143,-0.5469760081668995,0.10399936665244702,0.17409748064485386,-0.00946393959448022,0.6855733579816428,-0.5889980577129812,0.03422858509597804,-0.6461989572345379,0.9170654661952824,-0.038720645613488536,-0.4739722790686929,0.6696958420607335,-0.3240111443033311,0.021827462739878456,0.9231505971503382,-0.14572401687285463,-0.5637703521007187,-0.6430163646494349,-0.28472759946895065,0.8223370946815289,-0.11973997483200804,-0.7297870152879855,0.8180620144979618,0.23267670705061283,-0.8076923275209533,0.7961923715727321,0.8040204363299681,0.7903516096352119,0.08045900944807993,-0.3149315753830453,-0.7578688423202,-0.25137027676334434,0.3224822524665423,0.7570926179824671,0.1628647693001839,0.6162700243879979,0.7294781987886507,0.5406879241492728,-0.6169502362360251,-0.19770670188598016,0.21072421350802806,-0.6485197477884634,-0.6365654772656133,-0.6038403012932183,0.6205340794040275,0.4804115623582508,0.2503861953461315,0.5348507972912095,0.19965257160096384,-0.43231022609709013,0.20844377660742275,-0.4726765620829938,-0.9353222584904524,0.884952530734215,0.8536446350969564,0.40772743026025493,-0.3266736425109129,0.605329051577264,0.34839780414892996,0.9666525464202107,0.23112599977690573,-0.31779651962509314,-0.033631738713249426,-0.288632689233717,-0.45341263322767444,0.37992782133561365,-0.9856513992235549,0.07194418142169079,0.5067552824730348,-0.5669581923271916,0.3083628267908667,-0.6828366043661114,0.45514497562690215,0.03382278808388417,-0.025259199733903337,0.4542086647527177,0.07406692117162184,0.6364264723681794,-0.11554758218121597,-0.40051738523273395,0.44104704373810133,-0.8828667069936622,-0.9874396103155805,0.7193191298740294,-0.5621945526314902,-0.07592842561439062,0.10511453040729979,-0.7982180136689676,-0.4945345916367061,0.7305476096709396,-0.6122566015566635,0.6566761760987978,-0.4384624443069147,-0.5776361814303694,0.11517259608806762,0.29519261483407133,-0.3319279536995534,0.6802438837601748,-0.03600312092385227,0.7633892943119549,0.2373929756954043,-0.8946411742417504,-0.8457866381035579,-0.32822371768466363,-0.6850457102131795,0.7017078487001629,-0.4073623211633137,0.4523252289856732,-0.4698925749404874,0.06720066692768789,-0.917727431639189,0.0006589649002344267,-0.9431718788664982,0.7625924690101593,0.021334093617273453,-0.7480531874725842,-0.3895819038589048,-0.6242337155379434,-0.14681587049303868,-0.013896760342873904,0.19701229996626113,-0.4872637626378844,0.6372046085068166,-0.7492424736466794,-0.7433727008845055,-0.0073389422653442615,0.7909485038268436,-0.11813349831243736,0.6043159425977196,0.193973729397674,-0.6981538842344626,0.28528310706359816,-0.9442897968957245,-0.28266575286338025,-0.6463591625125229,0.19083684999841077,0.31430022735927343,0.3909886197441663,-0.1221465785349265,-0.5982881880407342,-0.20319869883160901,0.767287090330095,-0.3266067746783259,0.33675493991919625,0.5698195554119154,-0.19978877006441342,0.42041514432961247,-0.29955196787486793,0.13616720600573418,0.5262445130515943,0.1922532572920539,-0.3484438682416866,-0.6724103813374169,0.6553614136324879,0.9295893681282719,0.4045105984384998,0.10176200654496137,-0.4136277304275242,0.5765078127904872,0.015262842767624463,0.9390856665262932,-0.2743744459599111,-0.9949615826002622,0.6022777150639853,0.42975304784143153,-0.4259497915828576,0.7997313267839377,-0.20319581461137126,0.4919391378064235,0.8213409028382346,-0.4251877992859563,0.046183910562586306,-0.2975976768466384,-0.5059979088058686,0.6235544885704623,0.10034059852248234,-0.6727639015635916,0.9176260899159718,-0.32505236749528565,0.34577615576568643,0.3044920744968955,-0.9884781768641178,-0.8246578577554029,-0.15644255974593113,0.47216119328205997,0.50022710415135,-0.6141638009640031,-0.8224400582015847,-0.4258157308750161,0.6058941942132976,0.6670396778873351,0.06520283703594254,0.8756977820708496,-0.7806789476633118,0.1656755006311621,0.9080990307021364,-0.8789222213737777,0.8817572184378295,0.7393615363137864,0.284523090835346,-0.10055903460381987,0.14195543810152556,-0.5115538513801008,0.08151427232238628,-0.1807205939286649,-0.5837940154717725,-0.00011936118362010362,-0.645907136960985,0.676501928759917,0.41000582139269337,-0.005363131356263207,-0.5992483069297121,0.988498024526447,-0.3057948450955421,-0.45246506858421975,-0.7590177513138343,0.42040255979865115,0.31876993664813513,-0.7422225450000535,-0.24870244986750567,0.12142811759831718,0.16029760431398277,-0.21887686878448687,0.5539071638071094,-0.1994004227025563,0.07795844549374342,0.5198300816369126,-0.1473480867329542,0.4365799313698022,-0.9930985720389018,0.4526084806450137,-0.9169620907522336,-0.6995236737884345,-0.5345664932455558,0.7285272576771633,0.5615799794141463,-0.9748171689339187,0.13983766584422508,-0.33666617119840314,-0.6036950495833682,-0.17361978897715513,-0.11394436261654839,-0.8085370505587934,-0.7786549397919238,0.6410037152860522,-0.3464566133563478,0.3872935970886986,-0.9847132613983964,-0.5432684286382985,-0.19300321399716802,-0.672148699747888,0.5391018505293985,0.2421574586494355,0.6567344099170067,0.11934650062675711,-0.23865836602065116,0.7298598195077122,0.8832547099728187,0.24478533157955207,-0.5215641426208437,-0.5844732753602924,0.6319207772896047,-0.4858832721067867,0.08234856006618951,0.713389973904043,-0.31084251045855726,0.1838915534234964,0.66398611103374,-0.8897664952064344,-0.22387436842201858,0.3974241916755301,0.6822566079402685,-0.2606710533990815,-0.23495604543625248,0.2782684905875188,-0.20470592173205304,-0.5740923101697466,0.5908276859358375,0.6746802946176138,0.004857288864724474,0.4633180978987075,0.035329982068855514,0.13851565717228365,-0.3390664044499325,-0.2217900082112605,0.9631855870036738,0.43108102436869,-0.5667494501565633,-0.16983415689969972,0.34447845278347744,0.6102977851016407,-0.2993921864803264,0.8802209729205175,-0.3430828459192514,-0.36317159164417223,-0.60939176623963,-0.3714808328562853,-0.3679213099917984,-0.1707882081794141,0.16971910078947827,-0.39230611598926757,-0.08652486080496047,0.8892435599119701,0.16235808082428704,-0.16144984402166962,-0.10843005675992057,-0.686964062189634,-0.19630638614754847,-0.8669283473311022,0.7583699766544858,-0.45316253204455226,0.5053801776712246,0.41963702382039614,0.9046132613968689,-0.9968208667001672,-0.24254974184019717,0.5925180444329254,0.5866519498142502,0.742108379549911,-0.7179489123896423,-0.9788294469783896,-0.1789171637179825,-0.4104228289763472,-0.6516249616735612,0.38155485752610874,0.3701010130233482,0.5907544055187492,0.8759336082373101,-0.7828121073897951,0.4400655574565744,-0.31289321477636056,-0.24967486097312097,0.012217169549177953,-0.1911745740316264,0.7840828834293312,0.26641192648969314,0.45411731105304654,-0.1742594963836397,-0.5755609201276091,-0.47883783343432196,0.23726080311801923,-0.03639027677858486,0.2993078883550515,-0.8665771786279479,-0.2177055088312656,-0.551250610994892,-0.8869440009180045,-0.15164612415813794,-0.09245186008675832,-0.8913941878768821,-0.8531400119953552,-0.09357918129356291,-0.4837915545177429,0.7433447695632154,-0.3089161421480604,-0.7492442945081397,0.6085322400340583,-0.651113867710297,-0.3085041239290667,-0.384984940343565,-0.9059759515755585,-0.5380266712666315,-0.7006750833479689,0.04320911420683293,-0.2047021489788552,0.50263246490108,-0.6936049980090035,0.26711792171529236,0.611205081251637,-0.43612860959753297,0.6886005642246906,-0.0201509195101659,0.14933158240841848,-0.5050661171065496,0.2643675904221703,-0.33014558693772944,0.40213537452710835,-0.7969775800109544,-0.8694844597254283,-0.6327831055899775,-0.27791303183760574,0.6231142041633517,0.9736086740568366,-0.36387207952433265,-0.20061771581903276,0.7712390859718719,0.7783475757041565,-0.9812924911749543,0.41150556150456197,-0.23686094875288077,0.16753550545058937,0.5340176682093736,0.7586168468233545,-0.7054908382265577,-0.45902562405077685,-0.5969785587352683,0.780809928985676,0.6816101351129094,-0.938218041202628],"bias":769.964399923706},{"weights":[0.1432581808646427,-0.4674264924858855,0.717324533492798,0.807455647243811,-0.6074408775702849,0.7048214829458899,-0.30493132562150427,0.31169362051038796,0.47881453091480886,0.35629723445323247,0.4932820366240578,0.10605466122496665,0.7091331630961837,0.8085846091144413,-0.07054386949943003,0.700822072574375,-0.19225216290496627,0.43399779089039736,-0.5468008352335394,-0.9636350826668538,0.2851050254772476,0.915891103846227,-0.7105005213724724,0.7279054023172167,0.9762018211330079,-0.02059421183599408,-0.32919045393833857,0.020236688642057743,-0.5190622661022313,-0.3001338547314343,0.1786016204867793,-0.5217246989719984,-0.9850561179341559,-0.4282187280622529,-0.11043398961702433,0.1247247702835641,0.48353901403832245,-0.8957712385134244,-0.9366557194009908,-0.9544751826830895,-0.5723956153117862,0.42747056064634315,0.7050925214529773,0.2632537749760142,-0.7696293539711774,0.6392454726014982,0.3095526544508691,-0.18681566845947684,0.007806598881146876,0.23509490290151414,0.7836437178956515,-0.959159787772268,0.19739186582837176,-0.38722175965818906,0.9008257952669805,0.8959548073854053,0.1550926089829936,-0.8905235085763819,0.2928481043736446,0.055849777122550126,0.9718246190042121,-0.9199210594870517,0.9590546950684367,0.3251193208080214,0.28260396881134753,-0.8949272884676276,0.9878004310510828,0.7050535882645477,0.02571574308841118,-0.18307823028970782,-0.33695773583919797,0.5916211909366291,0.32765040822562064,0.7980928371531464,0.32680471421561874,0.07423777510917562,-0.675688077522453,-0.8338295548499364,-0.8715832396929728,0.6431814122526998,0.30030135307123595,-0.8157069020626682,-0.3104245886125754,-0.024061510587533252,0.22411596114563626,0.2405406245633488,0.20248237958067827,-0.4929826938505779,-0.5606488140376396,0.6204607186498712,-0.27686650842810945,-0.21674688308554568,-0.47214644875881584,0.7343437706326816,-0.7691351117410701,0.9866682908985127,0.14180548607005639,0.23329257778759827,0.7444696678545428,0.17357425358516698,-0.630694187931133,0.10653877818941782,-0.683562911541757,0.18980956519631453,-0.8995378877669675,0.27207267616231023,-0.8192205768552348,0.6442236627439835,0.8204003173191827,-0.45348740486355954,-0.02613666169499851,-0.09759873256792373,-0.9719369529342692,0.15448736973058041,0.7734275580086116,-0.7481050655449804,-0.018704827012132608,0.9097562814574167,0.4388423539512343,0.9457202450497615,-0.24003907671315217,-0.3883536193464585,0.4659866821638978,0.965593918695602,0.5283957705086162,0.19524590474379355,-0.632115461490669,0.3037235860035423,-0.058133369522345824,-0.21149028892131083,0.1716538942214778,0.6903551166401032,-0.47068286312110885,0.157869847048842,0.3305177277731204,0.17027747432931806,0.9953825209952751,0.4005502945443271,0.17274811731765904,-0.07072648762104583,0.8299181268658402,-0.1002361778107792,0.5381367783265087,0.5672578949573936,-0.8202874812993892,-0.11386445975107584,0.7139810309273633,0.4666570882651788,-0.15784253062307485,-0.2376259116758659,0.4666930999461467,0.333921750921768,-0.5899550307818142,0.30065920372521404,-0.14681196926986573,0.9812151883982536,-0.30370206730358884,-0.1357476909824662,0.49547903133727633,0.7499307348384541,-0.8573173756916046,0.837629851156632,-0.5475231695038989,-0.7463002926018643,0.6138786918027188,-0.9684601820502086,0.989278362990401,-0.06269945163610124,0.8320513711559969,0.770316946529912,0.9162831328288865,0.48182449494579416,0.18371193072118253,-0.28225766707491484,-0.39991534275404783,0.40591468518995066,0.5243571124438957,0.05960952991017221,-0.6028558157585788,0.6805355989120101,-0.30248351519424865,0.6792920349962932,0.19634690481522288,-0.3323839509545192,-0.6508947446554147,-0.5677181126362987,-0.1364718906016864,0.10718262369500353,-0.9586885411471027,-0.24397252762043964,0.48652359982229454,-0.03922453321676134,0.5350954619671953,-0.8361259203373463,0.5259836735830188,0.30887091801940736,0.24441843268690322,0.8962748122065625,0.08900902455477455,0.7296864376334584,-0.26194261579461475,-0.8467017215674844,-0.0693394515792023,0.09650323863994759,0.10649765522574928,0.7724946412029565,0.32456646125969657,-0.5426856332863439,0.2747957540739563,-0.7460578142323442,-0.07532906301080367,-0.07491138899403138,-0.6492793776466637,0.7227781219790543,0.6363292668606033,-0.8762576469416499,0.22312727539259614,0.3567303688792096,-0.3445982348244012,0.6236194851030197,-0.7407252539451488,0.8393463137174257,0.9382654857818125,-0.9075160078474713,-0.39319093108305614,-0.9586625718101174,-0.04643959080145388,0.639815770830126,0.9056593280911964,-0.6533514470906701,-0.042505010964384304,-0.854375418721351,0.9914525947863688,-0.3413597134543256,-0.9044800453674502,0.5571749348496762,-0.5219384350213234,0.42429668058575,-0.41576867181468735,0.22245645871589215,0.17323535801804768,0.9088186974973107,0.6485773136342057,0.416920971021582,-0.2542306193189585,0.23616697012474175,0.31020446654405154,-0.4806986469613701,0.4690344035098377,0.36702055511352194,0.3159473328199609,0.9758417419469931,-0.22219659362472033,0.026312369301319638,0.357674703346631,-0.971918852445572,-0.7138153929460671,-0.2597038681144226,-0.9000141494665006,-0.8649598083139076,0.02176389254366029,0.2289144598531032,0.4520808195945838,0.8164505462198903,-0.16164193563672802,-0.9244943811595308,0.41277551126179235,-0.2466578573351743,-0.8207898452284228,0.9798492745617704,-0.6196185880487097,0.09350389615012267,-0.2412397886837443,-0.2432102071689033,-0.14758388204927408,-0.421845967104038,-0.03331211528426081,-0.4872431881862025,-0.3820992734536821,-0.5454382368879735,0.18608720314984994,-0.5479243100336535,-0.8764847302960037,-0.18613871175315966,-0.07314947429604013,0.20331845274466076,-0.38808099580211275,0.11306331652599244,0.2802520729362721,-0.6087388654525254,-0.8246818508053408,0.8410408021836036,0.3395353560031378,-0.9265491218690736,0.2208880762983969,0.8271755329302626,-0.747556010480269,-0.24489710576277401,-0.9546351981617391,-0.28090016687211694,-0.6077851725905492,0.2735633413024363,-0.24917297357532942,-0.1830062626533011,-0.40685945323956796,0.49126890429415226,-0.9203279244232911,0.43298396056454713,-0.11294864604030286,0.949439941834664,0.6164230728482263,0.9368396629451232,0.40240538597264397,0.47155618044492,0.6488549012959446,-0.050036102688345796,-0.6948495994369757,0.3951742749015956,0.9208520416326902,-0.6155538752365639,-0.9740963701075631,0.7681267068296673,-0.3543571705322992,0.7134654739294892,-0.152064648842841,0.9473227054058553,0.48521898987229983,-0.6856078790622031,-0.1785247319486829,-0.80400160777728,0.8417119244690783,-0.9595165414566202,0.7180755755142503,-0.32705701237291374,-0.9451865038346474,0.5559720875835308,0.14336578959112556,0.05633191409300631,-0.8375950229113149,0.5769757579900658,0.3952212318606496,-0.8984396735799383,-0.6603891672669064,0.7038326859355837,0.6164183913861905,-0.19202770268774882,-0.9600583516083994,0.27674008071184986,0.8910867229047215,0.6521845832236774,0.8986399620620444,-0.44405580368490716,0.5659140391595479,-0.9641117915945405,0.21205855102954896,-0.6010498738423151,0.395574066968547,0.3653924886804165,0.16275496130379752,-0.3588658816138981,0.11847347699812438,0.7214490484776932,-0.8972651364425439,0.7955735104537345,-0.7434832661106814,-0.746776738827458,-0.6247733087360077,0.2161842810624628,-0.4802465514068617,0.15981795477454597,0.558639392248677,-0.021525081034167837,-0.17415971529575636,0.7767164331132022,0.69191298234067,-0.6035378535830245,0.395118390400917,-0.3425369011859307,-0.7054299372483208,-0.09154686002105272,0.5813859631474689,0.0900204725127316,-0.9174945835928177,0.7077529078069915,-0.5411990800424662,-0.7791910820416543,0.5906636181200176,0.16109088250448567,0.7083893030454793,0.4695311100309336,0.9549188906908523,0.6566614196234539,0.19571363279580112,-0.08374179876659715,-0.38260354493839577,-0.7118133978707526,0.7943768365267352,0.7772299450905775,0.887907047515518,-0.8438734931739584,0.5490205723567452,0.3540761511468058,-0.9498357481778674,0.18008607736486626,-0.04464273942414554,-0.34180055544784693,-0.15679089469296725,0.9383868852421604,0.41100356769854596,0.1043786017845294,0.5068568848014912,-0.9167881833772737,0.6494689943777647,0.08196347756890932,0.4707102866158519,0.15802980498398123,0.8237053334826578,0.9490283462754214,0.17219147723750083,0.32946590601602566,0.05141203087159951,0.7636840275356471,0.8202888289746353,0.6569390919289795,0.19996683023466666,-0.045226770801860994,-0.7630642082199541,-0.18843465916832347,-0.17007216565622407,-0.5725947046828677,-0.7898952549934131,0.13409187173373693,-0.1644880686814143,-0.10034259635806864,-0.5434546967780327,0.5593767149834084,-0.039234860312851616,-0.22452415925355762,-0.59983330749104,0.13810080331124075,0.839190141492768,0.6700037725974028,-0.576313220856675,-0.8448807499973716,0.3727493669542348,-0.47095316699803647,0.7272775862457403,-0.6329456234702868,-0.2193639172109383,0.008125647812726733,0.06735363287988694,-0.10120429419792432,-0.8331023016329087,0.7507030241123198,-0.3672779889691986,-0.9885422458526167,-0.799894429589151,0.5683667847566971,-0.5620540878189875,0.1584798752546921,-0.04631052840190142,0.012955036230104522,-0.6518545511337757,-0.4176480475588691,0.19393837175481377,0.6407800803164538,0.39048373831165506,0.6600596842426745,0.06504875991711767,-0.1267096393431113,-0.328211799964651,0.9940803858840099,-0.18831437754769187,-0.19383072683045777,0.958678716790907,0.1930665778819569,-0.608654948313581,-0.3094137150496543,0.11058757792025764,0.8216007595838524,0.7521370665162226,0.5728071155160634,-0.020489732856890708,-0.49831760511563594,0.4648792810268527,0.22098263745674362,-0.9306497477790212,-0.1065647541140744,0.7166687126997529,-0.7405334159934132,0.6204303466175327,-0.33133337223856607,-0.10778929458921738,0.6708667642073611,0.13729886568585004,-0.6505707661797695,0.9758017322313224,0.5784399583915021,-0.3726953190707558,0.4336755092713074,-0.07468032614361597,0.9398913951830159,-0.9674309475959508,-0.04554190288603799,0.6171762082129764,0.5818518477501002,0.9621598702811651,0.153569842979139,0.19020724331772199,0.8968176639315932,0.9209204571666754,0.9886832482138459,-0.3278527994046465,0.9240173385610455,0.025065454628264927,0.22978375332991785,0.2030888808437341,0.02122508919545485,0.7219364565360356,-0.015187241408083363,-0.33657472477108685,-0.8997151025778378,0.5047502753863409,-0.22912554522809137,-0.32031172122796114,-0.7226641941545751,0.7095771276924432,0.7279407008104046,-0.5500990102762389,-0.4466908166700816,-0.5279831140751732,0.3369574147256289,-0.9052124877662489,0.410810903587119,-0.1333243261368926,-0.8648194425980429,0.8564466819392371,-0.0278145351453829,-0.4849893390371194,-0.5254495134152299,-0.9362608595828932,-0.8155313291874466,-0.3808987762511409,0.33861140674943924,-0.32416296460320826,0.9078612655229916,-0.5596057571027249,-0.8079758632330623,0.1795754961131557,0.2537179295836762,-0.5553965424410299,-0.6330698553094574,-0.9109566182452129,-0.7099519498956242,0.9976415060686321,-0.4204677240563037,-0.3380136419015871,-0.3551897167576916,-0.13507349539993418,-0.6382751322545932,-0.23944792449792507,-0.5275478454911253,-0.5644005276014603,-0.4489025433997207,0.7591315969073711,-0.7320634188206312,0.25832340275337096,0.16964606479219535,-0.7550644493775578,-0.294592991031164,0.9892167460563424,0.4181575371121342,-0.41456072123373744,-0.9503785539493053,-0.08191580362596751,0.46045056209640567,0.36998403961514903,0.4435252709679456,-0.804526822825057,0.1345385996549986,-0.988471375085755,-0.9842442357261754,0.8683788902934917,-0.04372440716985482,0.2970380488282549,-0.686204675600619,0.9100489462152122,0.7348392341764498,0.49566618574506904,-0.7601664654495677,0.25296914646414015,0.5214795420027594,0.6170698780725363,0.2874104169863174,-0.30972964757424304,-0.9385785021970352,-0.9781802120745926,-0.6946197025957019,-0.6344668536216052,-0.11473475065584005,0.43280396243436847,-0.6776981515851248,-0.28573461733141325,-0.6193089482656902,-0.5638412532331443,0.3835159928029017,-0.237201492014961,0.3078209771320375,0.775774859685411,-0.22500356308982505,0.046818740329120256,0.31343091113712696,0.9892320335748868,-0.7257885471033987,-0.04896847095297607,-0.16275408318979467,0.7200283883270187,-0.2776961759234542,0.3801237467162495,-0.6613867848876698,-0.6986359214407973,0.3830706067181806,0.42349745895770274,-0.7112469405796449,0.7158199175193025,-0.2631621024587747,-0.9398056284193133,0.4470195626380522,-0.9901880490229296,0.9628942732868544,-0.8471315007759013,-0.09304365042303742,-0.7323979726229304,-0.16022382852684913,-0.9047130948841748,-0.09931488678301559,-0.9250940418194715,0.2930953623967172,0.3748448663263164,-0.07517731757856883,-0.957301912636793,-0.9676772150329431,0.573645406303751,0.7154278951573563,0.16565072627620792,0.02534461721928416,0.8850858135680086,-0.23673219859551287,0.8972524405793272,0.9593404194450756,-0.5770600660377112,-0.6758930872803446,-0.9340104882083611,-0.925157807031455,-0.3276301388991971,0.2425784322191884,-0.8538580624624461,-0.34255882803616267,0.7869858489539614,-0.9933128744707718,-0.10864432042420447,0.360806053721741,0.8211719219688853,-0.9925666623867788,-0.3911751365827336,0.6544526720897288,0.02572202828306125,0.6795480088394994,-0.7316311407469422,0.20332734014071185,0.53431791761273,0.7612742870074825,-0.14169748611814859,0.74511129836658,-0.7159237746186409,0.3742726589158165,0.07186556080569773,-0.7684724905086169,-0.4346958854329728,-0.26439613847917354,-0.1142939560839582,-0.3195675982376964,-0.7608642379930779,0.5911965375965011,0.6273809121495031,0.692679002693243,0.5857828309774566,-0.07612996326671784,-0.2838317633210621,-0.2597740827386086,-0.13764200905329105,0.8119869921356986,0.85712828025357,-0.3729297095431088,0.8288019801561242,0.5038895351058978,-0.7233514274388813,0.5025537963100564,0.32381199888219303,-0.8009826746893158,-0.7015999036889031,-0.7628743459443035,-0.5822592329638416,-0.2576046481134391,-0.5506782701264665,0.9079532335266953,0.6937813483305364,0.6711790078712196,0.8032269302690658,0.23529801925492322,-0.2878879051562224,-0.20039936542725423,-0.5392235366671763,-0.8256787594351915,0.7412943882238179,0.043800775582740314,-0.014657177276071742,0.12700304574162624,0.5202506044617317,0.07038979055607886,-0.4240611770909273,-0.767973964137247,-0.2669881450771503,-0.7497949898744851,0.40299655382540545,-0.984361807688622,0.4003032267461677,-0.02181559547566092,0.00864679000854629,0.2023635900374603,0.9860870620930755,0.05928060150271541,-0.05412460497136973,-0.9487459977401218,0.2780880524626981,0.06215782730124886,0.13151200453116996,0.7008135465278396,-0.32624627840774734,0.3914180074291673,0.8523623146011374,-0.30922553029635136,-0.7462426367679109,0.5401916475273749,0.9562531068559585,-0.22880674504587084,-0.5301475663570301,-0.844149743691641,0.041388203307706206,0.31215520696704635,-0.5087810232271797,0.8236757098873384,-0.7483974594501874,0.9997367183912655,0.7425417902333331,-0.517734676800957,0.9244476376381554,0.5343442081820391,-0.7579943724277576,-0.29835128396227173,0.6727816283388193,-0.151365791105464,0.449392606195119,-0.030481621500662914,-0.6169859012505747,-0.3009287796712763,-0.9329719822451401,0.9008230543143032,-0.7506449802280355,0.18593777963993396,0.20759895031814102,-0.8202342792543291,-0.4225297189722723,-0.6193375601242499,0.8058242786015009,0.05703948796817171,0.0734291222735255,0.5031849708304015,-0.29089411494456563,-0.010086276443108222,0.3676489444390354,-0.8532645366656757,-0.6081650651652013,-0.23888796555916425],"bias":-584.9533781159037},{"weights":[0.32498337597482063,-0.7819701277776798,-0.8980620979316236,-0.474264490056056,0.2703386675995558,0.46060618874581394,0.5658647557050047,-0.17248139342926327,0.6965519727332086,-0.5939416221122644,-0.09843005377141267,0.37878976700735345,-0.8344160291350993,0.8116079553315032,-0.9362489381274308,0.9586196244491574,0.9165217898403792,0.6873505411979615,-0.5367656019871214,0.06830295707784106,0.6883083850225074,-0.6402373563012222,0.8929950287856423,0.9254706347222279,-0.11304845138176756,-0.8440514672475286,0.6429395552953099,0.9272432978488636,-0.32220868860582685,0.39636437342561814,0.34887035200672845,0.4376658811965157,-0.31435292665296144,-0.8946544216875676,0.2935569369665352,0.6511545802663798,0.9667027499221477,-0.9349004915118693,-0.4873426299095911,-0.032689987144221444,0.7665053251450766,0.3169235514323021,0.1738950459105495,-0.9753416000684525,0.6127487745911631,-0.018315865517960273,-0.21837370038735182,-0.7047838457275089,-0.46679842251312254,0.6074232581245433,0.8034388753297885,-0.8377201656005622,0.4807024132406781,-0.19370585825884534,-0.8966133889909016,-0.8354846366818562,0.9401204187804373,-0.765958611115535,-0.13690246976979248,-0.718937560736479,-0.07939618423361328,-0.06515713891700026,0.623810721526767,0.7054856987714042,-0.12783543148411614,-0.12848794988881718,-0.240062087729215,-0.4038400841249592,0.620795020065458,0.5908234649218822,0.6598960885727969,0.1844178603809663,-0.7704372732024125,-0.992619159735876,0.28804761167932025,-0.7596372322695437,-0.24452308161910885,0.6121986939329505,-0.4788792087035292,-0.6536794364806475,-0.464030710355932,0.6799563760419476,-0.09697654951758006,0.7196667806511368,0.440385655586629,0.7086107657935354,-0.564180591653352,0.20253389705774172,-0.32674686496541616,0.6253788410323797,-0.48950562844945633,-0.435578907477443,-0.08590949978608586,-0.20357782314608386,-0.09138500176670039,0.18367133575202965,-0.030270965120322568,0.5576407986591203,-0.45475078693205884,-0.029214150140735917,0.2989312577733503,-0.38664325852592984,-0.47321883370088225,0.09067926274493976,0.8728790521592451,0.7426890203362988,0.47553907604080825,0.35917620152574203,-0.7708891708502836,-0.034745163367928544,-0.8064202642820706,0.8584121960505726,0.3887579249345996,0.6217272431970198,-0.6912033643792186,-0.11890171012421957,-0.3050119755709315,-0.44995847016450874,0.044519507991104934,0.5416265805174207,-0.5446970420192279,0.33472330757719515,0.7381426573864678,0.2517954277479677,0.39351964832203024,-0.3488714121513139,0.7603463610141792,0.05193838769744552,-0.8917847521694333,-0.573893469684132,-0.7020096952506387,0.10849819513394543,-0.17474103335000457,-0.03301796473515273,-0.8119547394954321,0.4563248415527301,0.5199266346756879,0.6853008659924908,-0.4559049216708102,-0.3578636342356014,-0.3300908599421475,-0.6331147717713548,-0.7967643106320863,0.16614894798865487,-0.8221472224823438,0.3946339382578663,0.04002235939976906,0.39546391080214516,0.011117615649077983,0.010583466912773787,0.4736607706530225,-0.30238976396714046,-0.10857001674588584,-0.9974431730713476,-0.5162848693135373,0.8963877602723733,0.07348399159599772,-0.5166835380282278,-0.9886638633947333,-0.06453434964447213,0.48349744669552175,-0.8035026336805471,-0.07164288590362755,-0.7345261974265798,-0.8504506703822106,0.29802288222367235,0.31930830178680303,0.6216222805225402,-0.5072411466296853,0.850642564865224,-0.473905677111238,-0.71679421159573,-0.2495588104814308,0.04020396954909833,0.4978309449892029,-0.937619520916062,0.8097749717623697,0.5718049817752924,0.018115136467970583,0.4454898849893074,0.5869485044417138,0.9590198914024066,-0.5876228884498658,-0.408183593188427,-0.9306852959003087,0.23715165000359573,0.11662651298301085,-0.21613513709058818,0.7657890517088104,0.6753444577137961,-0.34202226925769397,0.31742103904625374,-0.34063411270097177,-0.022566963180006727,-0.91083166561071,0.38029501392140963,0.26293516073550904,0.255022661180313,0.9088980808298102,0.8360130983628178,-0.6747790379166281,-0.2969944552525732,0.2893339216290616,-0.2364952789785537,-0.34419359567294316,-0.6079391792511388,0.48121640723583026,0.8878001214631364,-0.29067162670319613,0.34484046335001617,0.6408418376700422,0.4210750597004549,-0.5113968311987991,0.7211566373192286,-0.06360842772429409,-0.9179829164750193,-0.8531418967992042,0.09896481380221589,-0.5663539799082691,0.145229134094631,0.5990410885029127,-0.7467711328999673,0.7184251507602677,0.3529660544001958,0.5300812207466103,-0.5231976865699686,0.21809503196015978,0.01380768265166532,-0.020863913850330373,0.7779369573882242,-0.5933726313457077,-0.2844307594764346,-0.9514524066944259,-0.4808055554195194,-0.24027363075783592,0.7735860869943569,0.19397677776300037,-0.8561297982635674,-0.14800194474264572,0.16541761186897652,0.34981549498148334,0.9592535152293284,-0.8834521150895607,0.4034866399072503,0.5840445424042948,0.46165797590751945,-0.36597337894586524,0.7380314394910341,-0.6909414809864027,-0.45547866914855417,0.42954478912993954,0.18943710038704786,-0.056503510422070136,0.08004052276849638,-0.6241474426792974,-0.8751918141009671,0.9226665278210913,-0.0012859166010530387,0.9599269788071059,0.6991502914688432,0.11746952875528383,-0.3817080180083887,-0.3044305945293888,-0.9344270213398169,0.9247006869190497,0.912564760289106,0.6865205980967226,-0.9862868493072532,0.5920732894973808,-0.27359597428266236,-0.4121421081432408,-0.6764533015917418,-0.4901666347468172,0.9572266634787834,-0.866179382754173,0.3426207374877568,-0.08598714686809839,0.3102626462782987,-0.7277884907746155,0.40209365853699275,-0.1603298696957305,0.5614287715671322,0.4531861823116152,-0.4650235909199312,0.8670654130441293,0.6407305547800681,0.7152655178599168,-0.6463341328290686,0.8767646899745625,0.35367510776133537,-0.19735868000727885,0.7593858669663804,0.764045322256536,0.2827853178406685,-0.1970542353731397,0.5133082870698606,0.26074701036581294,-0.016248309500582092,0.6721704138091522,-0.39196062212153127,-0.6200626687400161,-0.9286027343491208,-0.8536022301276862,0.9611797177232471,-0.5581827918175084,0.4611521940428789,-0.3313115623819818,-0.46730076465615866,0.7665846216363121,0.864067004755575,-0.08514111447418982,-0.813924058278499,-0.03368638614606567,-0.9384752734414481,-0.836406818743495,-0.6032792035540582,-0.45399041218357405,0.22086322960576066,0.5865115007041757,0.9195833551726489,-0.4325788335568368,0.15329354436760712,-0.8541431704405444,-0.9967149516640754,-0.9293656678764335,-0.5172475082886132,-0.9038973564395336,-0.6409228704553729,-0.014054688171844631,-0.09798100500900953,-0.5731049165526181,0.9229546122071208,-0.5027133167899298,0.2664373337453432,0.2882460971884293,-0.4938824781718747,0.0041376657049285726,-0.5845351081475196,-0.2843589611048132,0.2920881446410659,0.9738367996453801,-0.6836537843094268,