{
  "layers": [
    {
      "neurons": [
        [
          {
            "weights": [
              -0.5501621666865559,
              -0.8050637750029286,
              -0.6447145248991535,
              0.015479937241113184,
              -0.09796360403830029,
              0.8664925299434358,
              -0.897141563125079,
              -0.16038926127635333,
              -0.7790146871326002,
              -0.36837688355383813,
              0.030804950383254148,
              0.5148936602518792,
              0.7022190971670081,
              -0.7479689043497411,
              -0.6238800663328243,
              0.3742426947224229,
              -0.4871856518507567,
              -0.9474143868084957,
              -0.4713078716078072,
              0.7231211343443777,
              0.032807897756852444,
              0.9951867051175776,
              -0.06380868339454793,
              0.7414631039447261,
              -0.3926952230574985,
              0.6886677951646827,
              0.2953757851275398,
              0.6355104403162293,
              -0.45267771850509053,
              -0.8195723590082666,
              -0.5396004521837283,
              0.6777389545439059,
              -0.5767668279048275,
              0.8264247228745707,
              -0.23005412740541908,
              0.7322352843290449,
              -0.4692141303073658,
              -0.6594117260212755,
              -0.3607560345339391,
              -0.38936970583190256,
              0.7553195673314486,
              0.6900452305150981,
              -0.49694888954086824,
              -0.40003666008688876,
              -0.2706763292437486,
              -0.40716166035044576,
              -0.426452105490029,
              -0.4487172842421643,
              0.07089389003025026,
              -0.6763617679418248,
              0.9360858703129162,
              -0.4490064430457288,
              0.5574825064646927,
              0.27372214185072297,
              -0.8511515220866159,
              -0.4153060288760133,
              0.16780474332327655,
              0.9223643300526319,
              -0.3150322514838444,
              -0.4202564500955104,
              0.6749202310518556,
              0.6304889380507692,
              0.05620551039644095,
              -0.8101893424889695,
              -0.7529502660538179,
              -0.8381201696403391,
              0.13368860284060746,
              0.8783928065078523,
              -0.06138684019699969,
              -0.05542944246257342,
              -0.5862529759075685,
              -0.046474995052359525,
              -0.5526595292636816,
              0.9551268117645724,
              -0.055708592414473124,
              0.5169150297289495,
              -0.44918130939954093,
              -0.1839186951849685,
              0.2528542186522076,
              -0.13161866301599057,
              -0.4950187833323456,
              -0.9755603466852185,
              -0.41160120810978906,
              -0.5994539441045137,
              -0.11987244202187597,
              -0.29901119827383615,
              0.9499104186885035,
              -0.27927047952414874,
              0.011457169989399052,
              0.5831595307710424,
              -0.9266155410366275,
              -0.18584999118205436,
              -0.5848908295268078,
              0.8098842776800317,
              0.6048748707268441,
              -0.7009772668802841,
              -0.20626853601783912,
              0.11871810709898556,
              0.5809944609527422,
              0.40790831295484864,
              0.4265110009610922,
              -0.7506326520008577,
              0.6169804560854661,
              -0.37208267944313533,
              0.8371284855335288,
              0.5298449505740028,
              -0.20892345199365536,
              -0.9420618002459569,
              0.7749542648010541,
              0.41995458480603043,
              -0.6020032480006137,
              0.6028984379883102,
              0.12014537688023985,
              -0.7947634053524957,
              -0.8262463844233334,
              0.19974795419021607,
              0.30271513448141896,
              0.45983313444602114,
              0.2794296628992874,
              -0.16258629311893236,
              -0.09761036890043195,
              -0.7229626491295367,
              -0.4027036118505798,
              0.833626212814,
              0.10605573411785274,
              -0.08515450722902695,
              0.7347876930161359,
              0.5154459834071661,
              -0.41622374277029284,
              -0.0765292460143332,
              0.6884254033383215,
              -0.9461603976594413,
              -0.751114353941218,
              -0.5542438928985858,
              0.9038552326530067,
              0.8239328316973205,
              -0.9785566185417163,
              -0.5714195040125585,
              -0.8009398237857632,
              -0.8839230624334333,
              0.48778539292418355,
              0.353536609895174,
              0.08613410336497385,
              0.8323729067128314,
              -0.8158339059573985,
              0.44001110356169004,
              0.36583327904797747,
              0.6263850067481451,
              -0.758660075003311,
              -0.625291611463688,
              0.5419709230130842,
              -0.2865219598067785,
              -0.09626152888409534,
              -0.1522694612372235,
              -0.5790885099567298,
              0.522444510960459,
              -0.04198883298890044,
              -0.23754944488438312,
              -0.3870008345152818,
              -0.6517123561239035,
              -0.5717896432617615,
              0.5570218008265457,
              0.7170314314090711,
              0.08512198488950373,
              0.22572587185247528,
              -0.8060669913564249,
              -0.14349950476897622,
              0.029539899780243406,
              -0.6925258807798098,
              -0.6181412910220812,
              0.8295676946792638,
              0.587237641295066,
              -0.432000477514626,
              0.11685655782823678,
              -0.17455080498132158,
              -0.717082662944172,
              0.2108024092645091,
              0.5560335351100272,
              -0.2992823564094089,
              0.05398272840354634,
              0.25261510848351953,
              0.20694220264405594,
              0.3967065447827389,
              -0.6934707043775274,
              -0.05678805129320663,
              -0.9868022664837324,
              -0.9988295925371271,
              -0.23912030928974692,
              -0.727510874494012,
              0.5888976946990852,
              0.3724010056156768,
              0.4065180576180665,
              -0.5489171223693594,
              0.6796551149927299,
              -0.7556310846287442,
              -0.6579196260583027,
              0.06015718081787336,
              0.12583058156120908,
              0.010333669269225965,
              0.06169686404944397,
              0.48475223019384117,
              -0.14261858898699042,
              0.30170369936098984,
              0.7715163054879666,
              -0.5631003334988729,
              -0.14215943421771549,
              0.014293128599075278,
              -0.9734175055365224,
              -0.8418098858651439,
              -0.896329906219413,
              0.28508621925017463,
              0.12798375303019593,
              0.14548309842396234,
              -0.4146867283810698,
              0.6873259298287433,
              -0.5612524591873851,
              -0.5276103906414416,
              0.31601438017586725,
              0.4228242998065097,
              -0.7079508224403042,
              0.11010316121792929,
              0.9709919870140484,
              -0.7100328740116946,
              -0.05842317954878151,
              0.9609988664086981,
              -0.6161016985902368,
              0.7429681630624208,
              -0.7176212055530957,
              -0.28981278527741106,
              0.6390315595657823,
              0.9833070121500032,
              0.021734872300148034,
              -0.875419275267511,
              0.1244091947968271,
              0.5293576083088971,
              -0.2020389385835224,
              -0.30819384954689477,
              -0.0662494959945179,
              0.47473033750118176,
              -0.39195966544495686,
              0.9438310730053132,
              0.6503951178780496,
              0.42735705232017196,
              0.983262391655638,
              -0.7986166055521458,
              0.5006211177458555,
              -0.18599921208589842,
              0.9558949004423765,
              -0.5066864175794659,
              0.24732302747714163,
              -0.16892767336863823,
              0.9879708479543323,
              -0.49588997206129415,
              0.819696276379795,
              -0.23504627853479265,
              -0.45879913891605373,
              -0.517008284017284,
              0.17900475302076302,
              -0.6851484987555652,
              -0.5143131193856108,
              -0.500091235181169,
              -0.7702039708922923,
              0.9996326398397786,
              -0.7337003298245262,
              0.3386276764523406,
              0.21808601254438198,
              -0.21951370484789479,
              0.43275351740813184,
              0.458134150741627,
              0.6649018079877531,
              0.8833758329206729,
              0.7779820517788734,
              -0.5453093871448589,
              0.3618531604335091,
              -0.41085128895106493,
              0.23747084746364333,
              -0.6724084252181615,
              0.15970181259530492,
              0.3905026379553447,
              0.18110620989600656,
              0.47972708451974455,
              0.9873539647192549,
              0.7972834929903971,
              -0.7927968690257474,
              -0.4615330244114535,
              -0.6721348760434727,
              0.8904425886382077,
              0.5410296678188371,
              0.7329626001054641,
              0.4257504033956976,
              -0.10390572581459168,
              -0.578841828545515,
              -0.559036392617211,
              -0.3308337825477561,
              0.08645544695887075,
              0.6060430059957964,
              0.5619987248086118,
              -0.6979018951338776,
              -0.07488924964194421,
              -0.38624906579737006,
              0.2586570497466858,
              -0.12672964302957013,
              -0.11343497918409717,
              -0.5955763414527873,
              -0.9099518567715568,
              -0.15076699084993317,
              0.9048442000198791,
              0.7259690083445873,
              -0.8882331659130767,
              0.727185050633615,
              -0.1532966806485052,
              0.7788436731529194,
              0.22826834222483106,
              0.5134299256991852,
              -0.678377873232419,
              0.3285118382718526,
              0.16814597729366376,
              -0.7062780295132454,
              -0.5207522645923537,
              0.9654514989303387,
              -0.28866425330579304,
              -0.07253667177769829,
              -0.2888136481302017,
              0.2526945510147094,
              -0.7763377632234327,
              0.6131429500744248,
              -0.17857652824864,
              0.9904054726533582,
              -0.9426458943890053,
              -0.5200644016056031,
              0.20222881565720963,
              0.38482768822116364,
              0.25567209534926194,
              0.08236470679553332,
              0.08105691560987927,
              0.3933669051666051,
              -0.782789952182918,
              -0.990888496832115,
              -0.7418604472362422,
              0.2132862943048739,
              0.14896010896030543,
              0.6745384053136299,
              0.5718430293444352,
              0.44633192141890543,
              0.046405214513223214,
              0.1685853665835153,
              -0.2313004615146399,
              0.4296164112801715,
              0.3317671459104612,
              0.05677381959033845,
              0.9558608423510293,
              -0.11521721066991208,
              0.012430894968062045,
              0.7587879139028697,
              0.3188416891253323,
              -0.7233811962436336,
              0.2841629604650646,
              -0.860978918475169,
              0.7821111486961749,
              -0.27519997354069137,
              0.02292203075204524,
              0.17633952416725318,
              -0.6455838885696052,
              0.16351556158100333,
              -0.32666272897341253,
              -0.596541125559451,
              -0.6440372923563462,
              0.3042015395762969,
              0.5146734198610674,
              0.23698269816920847,
              0.35617987896655645,
              0.2965205933270063,
              -0.43846804203646306,
              -0.6830487289890241,
              -0.025457710726338068,
              0.6223024191275339,
              0.5297735755435782,
              0.928940530022806,
              -0.5625419722796425,
              0.1054263183512334,
              -0.45062925190572534,
              -0.29779085011988427,
              -0.8475570659383918,
              -0.6104368046407691,
              0.3637787254983671,
              -0.12057162008523559,
              -0.918647807393751,
              0.15469146519203303,
              -0.4090761455246783,
              -0.0016534712331455204,
              0.7480338389702537,
              0.057854680642352996,
              -0.47311798376729763,
              -0.30020549947214237,
              -0.9917344030398185,
              0.266781577365129,
              -0.41178725089762125,
              -0.7170752367088142,
              -0.6195513239689197,
              -0.9173149988753875,
              0.33593030321610584,
              0.27666611403183916,
              0.8028058785279844,
              0.11663021279830987,
              -0.2515469074297938,
              0.017808274111660527,
              0.99462368663553,
              -0.47433394312542454,
              0.7678805280529146,
              0.5895233279773859,
              0.1264384595394601,
              -0.917403991817058,
              -0.033247481327284056,
              0.3557609886550628,
              -0.3833026033928002,
              0.5613134087776541,
              0.7289630207189468,
              -0.8839962416156815,
              -0.7101117495008662,
              0.9849326808469288,
              0.607319840453175,
              0.31454404159171334,
              -0.9443387582199425,
              0.3076708997663298,
              -0.8687733573171923,
              -0.5014853681007736,
              0.7492124636093322,
              -0.38161448686915156,
              0.9374329059475839,
              0.20329667113404692,
              -0.9251221331283603,
              -0.7488196638547282,
              0.7944559862467426,
              -0.11056011047407743,
              0.45050917557266734,
              0.35543378115341673,
              -0.9095233298398804,
              0.1446592307240584,
              -0.5653685173348815,
              0.41237043112514815,
              0.92580927079619,
              -0.5523760284588839,
              -0.3465061377699601,
              0.409936329250129,
              0.8798930485559073,
              -0.5650608527250904,
              -0.055341671062203446,
              -0.05326134566350538,
              -0.7223916279277129,
              0.612651023810415,
              0.23734019355742308,
              0.7246637236996438,
              -0.4131286160875791,
              0.3386648317238623,
              0.703429333221949,
              0.796943323228569,
              -0.6286782968819726,
              0.03862852738156253,
              -0.36088723728346883,
              0.9517969942853215,
              0.298121932540818,
              0.44723821824448784,
              0.15893662198590386,
              -0.2892357086443993,
              -0.006535922645251269,
              -0.5513813691900413,
              0.8762527305260028,
              0.5172066861926989,
              -0.6982456119445071,
              0.9991206107147605,
              -0.34445034486992077,
              -0.1677652780521548,
              -0.8955484715142932,
              -0.5603643561080736,
              0.8054597954134,
              0.16181490794240183,
              -0.02585260713481574,
              0.9444877966194376,
              -0.0045189852620910465,
              0.0066926445977277815,
              0.5253253567109346,
              -0.30344654466027965,
              0.21898961852002508,
              -0.9135400624876886,
              0.7966417274669064,
              -0.787112179001964,
              -0.4225439636494821,
              -0.5485770611233574,
              0.8190174026815251,
              -0.6875737940529354,
              0.9907872084657399,
              -0.802927556692207,
              -0.39336855271598825,
              -0.48076723799460463,
              -0.8048307649666233,
              -0.7497377571686976,
              0.18969575906165614,
              0.09574173207177195,
              0.23856834792969606,
              -0.7966241898897155,
              -0.4616124061513598,
              -0.3499636892799427,
              -0.1672374956990561,
              -0.3838903398789357,
              -0.9785833299476332,
              -0.4342943653851008,
              0.0717916905369993,
              -0.6545920745195146,
              -0.035379049080237035,
              -0.4555649881665822,
              -0.7367990859984359,
              0.1466528950761261,
              0.27715735238209893,
              -0.36654132673383133,
              -0.34296014645963924,
              0.17623581486268236,
              0.8789685813739863,
              -0.40671063873194413,
              0.9690750587472712,
              0.8701018684490758,
              -0.7196402701347777,
              -0.1354898777859299,
              -0.8254525983455516,
              -0.9799868516337544,
              0.92720650080232,
              -0.06823861361515648,
              -0.9682675551289082,
              0.3820888640640807,
              0.17392148991781609,
              0.4335171739660737,
              -0.7304608824996954,
              -0.27644107702962417,
              -0.7883155612243287,
              0.697396296637196,
              0.35347510734074694,
              -0.08124163513129679,
              -0.2562331325616065,
              0.517998078249295,
              -0.4451660773352222,
              0.7762261926297627,
              -0.6823688886140884,
              0.1908507784874902,
              -0.7462491547019892,
              -0.8750008473025384,
              0.9029395511054825,
              -0.7071633906990247,
              -0.691397166906869,
              0.8698337233481994,
              0.49757865979250004,
              -0.6001640258540748,
              -0.9730518916962647,
              -0.8133440700250252,
              -0.7618377158600591,
              0.9967696726726318,
              0.7469010363395769,
              -0.14528359533332846,
              0.15442990146839586,
              0.4969137532848773,
              0.4189642146293524,
              0.691267538933138,
              0.4721907045762439,
              0.2196815742839222,
              -0.6786745324414745,
              -0.2542201720979733,
              -0.2770805126602718,
              0.45144337415709046,
              -0.49767408016754944,
              -0.9721578353685558,
              0.05424814937754929,
              0.5750817534791643,
              0.2522448493146068,
              -0.7302660412586919,
              -0.011232137671564058,
              0.39231530445431506,
              0.6152343353336107,
              0.5130437792580071,
              -0.6854242646485944,
              0.285745311987434,
              0.5797895596389151,
              -0.03663609593189365,
              0.12697986255956062,
              -0.9910323778795407,
              -0.17814111174276714,
              0.5870668540635289,
              -0.8211865801862905,
              0.7450891284701231,
              0.1469419475105238,
              0.9467344780410625,
              -0.7296125268012932,
              0.5743184404372061,
              0.26340198362169387,
              -0.7811843676947148,
              0.45289069166827023,
              -0.07013747452107477,
              -0.2395493021276569,
              -0.9062523549050323,
              0.15368150314389029,
              0.7426981263532868,
              0.061868489879648436,
              0.7858051706584854,
              -0.18676804462261565,
              0.9964290871563528,
              0.8027967678006607,
              -0.4947725913178025,
              0.4342582526849297,
              -0.9418576818877118,
              -0.07021524983296157,
              -0.6960970860373372,
              0.647526051862358,
              -0.28803868985971404,
              -0.4579405258636968,
              0.8668737356920104,
              0.6564767828780167,
              0.7563643386133712,
              -0.7689712228218193,
              -0.4289329106590265,
              -0.030067067352987475,
              -0.48940135174821187,
              -0.33331479041833534,
              -0.7922221950835069,
              0.6723411072575498,
              0.9393067731432017,
              0.6107601378568592,
              0.7816608128695206,
              -0.18049983353678378,
              0.24608769939794017,
              -0.7483282480736313,
              0.9561721145927407,
              -0.4203010687974187,
              0.9508694728494222,
              0.725175809555568,
              -0.44352534447498027,
              -0.013195434952653962,
              0.9081748089850894,
              0.15067934050986542,
              -0.10073872979291787,
              -0.7820621172748758,
              0.02165904909633154,
              0.2495643365413205,
              -0.41679387410070046,
              0.8053329584917486,
              0.8747240511219783,
              -0.3752511472204647,
              -0.9723675888645551,
              0.8390986255203621,
              0.2304185099901006,
              0.6163146800542547,
              0.2979026853112159,
              0.3820731303892626,
              -0.20577018387534984,
              -0.8315995019060352,
              0.23223208468319312,
              -0.626151289315807,
              0.4636864526312219,
              -0.9338921277323502,
              0.9349675629625098,
              -0.8812499312282696,
              0.3792317334335906,
              -0.4196420330513875,
              -0.6815513191274483,
              0.2494863870791395,
              -0.30311802079518824,
              0.4658054812901846,
              0.6245656242542852,
              0.04686199000588598,
              -0.04905027748268065,
              0.6676914961882185,
              0.9688087969852037,
              -0.4178319326083324,
              0.848556909712578,
              0.5046322043854787,
              0.3596856859166975,
              -0.3930491543866128,
              -0.22483307341662018,
              0.19611727285908698,
              0.06425352027055409,
              -0.16398677920320148,
              0.527914613404346,
              -0.7445805744017946,
              0.9213037855922059,
              0.25317007973071126,
              0.08463093570848645,
              -0.904490145023404,
              -0.046811035465520234,
              0.5583910112392974,
              -0.30835606380832203,
              -0.5016222758251025,
              0.373335056755689,
              -0.022228697672874276,
              0.3071809240920911,
              0.22195833713683388,
              0.003955777918461134,
              -0.9916017307509857,
              0.669413009495293,
              -0.8192748431515291,
              0.9343613349763906,
              -0.8016783623355406,
              -0.9134287453375309,
              0.6503041048545346,
              0.04334241162665098,
              -0.12552362965609465,
              0.023981668616724683,
              0.10840690199143133,
              0.09607875173784652,
              0.6024974137870518,
              0.0028389135160660217,
              -0.5507425164854447,
              0.5132467771989253,
              0.5249965803532666,
              -0.805223493635534,
              0.8638613691013739,
              0.7751360108746566,
              0.5286847187209904,
              -0.35938368631751816,
              -0.9535473712701732,
              -0.1569282313538367,
              -0.8409098827559074,
              0.7265060378903851,
              -0.9403253180612148,
              0.13414971203268422,
              0.01817537471739694,
              -0.3964308160472654,
              0.5571369902154211,
              0.4667931215492307,
              0.8276467273926111,
              -0.32718523624918383,
              -0.9034352044556884,
              0.5726988409291995,
              0.12597938617289506,
              0.3421440091983885,
              -0.03014883074438046,
              0.730633242896138,
              -0.6000980269439129,
              0.9124371718109185,
              -0.2849451521464412,
              -0.1064562704847214,
              -0.1573113655938907,
              -0.3885141130149359,
              0.9985416890573258,
              0.814991912864127,
              -0.7446858921022348,
              0.958094347921751,
              -0.13030352025093617,
              -0.43148320176257204,
              -0.15023943530097128,
              -0.7208232748150696,
              0.41789169378419677,
              -0.37851458277318706,
              -0.7090998624733702,
              -0.8643451349405691,
              -0.10710988075083483,
              -0.581524060669826,
              -0.035092434451564625,
              0.6979235551948992,
              -0.24166941878855663,
              -0.29916555988720805,
              0.6088763969960298,
              0.2782457350385723,
              0.464091984402518,
              -0.49525656923427075,
              0.6052661435273516,
              -0.9719966806982536,
              0.9407172741232648,
              -0.8254480618925979,
              0.6780894387941623,
              -0.5147873139019619,
              0.2826402841786999,
              -0.5888555832192695,
              0.2922740019791559,
              0.5064542689538989,
              0.8327604977730689,
              -0.8219258862218948,
              -0.3502111055735546,
              -0.9436328857044796,
              -0.5184244085015082,
              -0.8256576963853002,
              0.4377381445573376,
              0.07105017157750249,
              -0.15703710887006217,
              -0.13725582691612326,
              -0.30896791502858534,
              -0.057111340755696016,
              0.24971806872822455,
              0.6905427141418032
            ],
            "bias": -783.9172823012567
          },
          {
            "weights": [
              0.05156293409980517,
              0.516586235855601,
              0.8938245240845117,
              -0.562691427594392,
              -0.22977924936012073,
              0.6066037731638168,
              0.25872831996431733,
              -0.21165884695282067,
              0.6693309670303345,
              0.5608270983342334,
              -0.01963124656230697,
              0.4021203519113965,
              0.27610454947317553,
              0.07320180137293297,
              -0.9674217378228778,
              -0.39690247501385123,
              0.33241307158399325,
              -0.31834196214821286,
              -0.882331868546617,
              0.4143495554171994,
              -0.19963735706754093,
              0.18958845406995195,
              0.932226539448493,
              0.1540246473749507,
              0.24057411906908044,
              0.6646227177360706,
              0.4851502114952706,
              -0.0027566349148231417,
              -0.9359436657316511,
              0.3670348782919044,
              -0.11999480487372827,
              -0.12828976617763788,
              -0.5198222934443035,
              0.16515917756263443,
              -0.1246196815254379,
              0.07093148968510388,
              -0.0524956253310469,
              -0.2302395155817618,
              -0.14855038980912072,
              0.2305281541734514,
              -0.7372167021519123,
              0.5053330099737061,
              0.34378459137420503,
              0.9665736699967677,
              -0.6971938389084884,
              0.42541801177924254,
              -0.6193650716870307,
              -0.9411665020570417,
              0.94774458001549,
              -0.907081865740869,
              0.4061580042838133,
              0.8746438143696929,
              -0.28178503453326753,
              0.47540460999239187,
              0.3409924888554108,
              -0.5527543383159541,
              -0.42643339609013076,
              0.44538394498624534,
              -0.7061956593649885,
              -0.4139810505883208,
              0.9515533271679204,
              -0.6683450941767264,
              -0.8827379104682427,
              0.23907977401958647,
              0.7072846199279685,
              0.8620211073285051,
              -0.34811585986617244,
              -0.6164341410497336,
              0.48002740912101816,
              -0.897164460567446,
              0.4505215530288891,
              -0.9478363788590691,
              0.7677408224841797,
              0.6407332613116759,
              0.6231310127556196,
              -0.02333295234304389,
              0.3692209720413051,
              0.7367154847124047,
              0.8604856197632378,
              0.26833261552555454,
              -0.8527733443307524,
              -0.5433995193374117,
              0.9860534236001741,
              -0.9088436685022518,
              -0.5585693509375749,
              0.9677307724966471,
              0.6550168506022818,
              -0.40134205312522697,
              0.9891203730466551,
              -0.29847541940771904,
              -0.89170198079443,
              -0.12336867671875185,
              -0.23786639831981438,
              0.0900267762622402,
              0.6531224934435405,
              -0.2904691592179285,
              -0.301823396270843,
              -0.4488176325205808,
              0.013809349146924,
              -0.3031127106788505,
              -0.9548680012843218,
              0.18819547839678075,
              -0.35908538375524257,
              -0.6272953966225892,
              0.809718361829241,
              -0.8836051404802823,
              0.980364610771733,
              -0.19925362774589495,
              0.8097025361878627,
              0.7403872865806256,
              0.23936881171416147,
              0.6984215126347961,
              -0.7876639566867394,
              -0.6831411506496821,
              0.9208076807628385,
              0.08980840626520736,
              0.14954209608748315,
              -0.7735218804333623,
              -0.7982619541990417,
              0.16040697100720225,
              0.5662489341611172,
              -0.5019597262021436,
              -0.029029851925986172,
              0.8908434676367505,
              -0.039880522533766616,
              0.022102112880165503,
              -0.9361443458439522,
              0.8909584143456586,
              -0.6199231775303615,
              0.36511550733033893,
              0.9911896025223075,
              -0.12276842655898923,
              -0.9363033007295547,
              -0.6957653709990335,
              0.10062159289486416,
              -0.29231379673483415,
              0.619602203355083,
              0.5625153296631931,
              -0.40356366267759025,
              -0.653415400285073,
              0.6170010426512516,
              -0.052841690072614966,
              0.40595578047885716,
              -0.6074249564393499,
              -0.6717591466863078,
              0.7545945616324956,
              -0.4977504185279136,
              -0.9413665936934161,
              0.861063192807805,
              0.080642316203134,
              -0.9731372803412568,
              -0.4436776172849708,
              0.5301564911861769,
              0.5651376871422986,
              -0.3117964989482518,
              0.5332684991892207,
              -0.9040360769267886,
              0.004854831257132819,
              -0.5430256802398405,
              -0.6610644596670809,
              -0.9761445128845723,
              0.266910602661663,
              0.9280866826937695,
              0.4624401255665984,
              0.8561463138533845,
              0.6108039419632187,
              -0.7341143449590652,
              -0.7832109428594478,
              0.11533196981305549,
              -0.8285137669948712,
              -0.3533138549890813,
              0.11760959669813964,
              -0.9328343085439634,
              -0.8284052415141048,
              -0.939389230056952,
              0.38842850534508155,
              0.6235235044100387,
              -0.29378002592843844,
              -0.8229035254792252,
              0.6407177347430424,
              0.7473404923736839,
              0.3681320242572519,
              0.873612015644881,
              0.06822719088139495,
              -0.4968915794709141,
              -0.005041067956053968,
              -0.09432439385041302,
              0.03077735040925278,
              -0.6161001065139646,
              0.20788498636093156,
              0.8661099681609716,
              0.4972103370928589,
              -0.9323180240993754,
              -0.5163681642831168,
              0.2828818678034728,
              0.6319213680567453,
              0.2386819002922076,
              -0.4664582458569053,
              -0.045320589013578605,
              -0.6651289179807116,
              -0.27898216843766255,
              -0.19232516893019547,
              -0.4078977629198808,
              0.20717115020170773,
              -0.5768602296837537,
              -0.36397711761883755,
              -0.5005936147499495,
              -0.851163314605135,
              0.20478418947698174,
              0.3420069395082721,
              -0.8219494943826695,
              0.18959329855545892,
              -0.7935751456250144,
              0.281941379568579,
              -0.30384810294825737,
              0.19742152200432717,
              0.7293421222617265,
              -0.22595462651630305,
              0.3238157280587317,
              0.624127962888243,
              -0.1704246459612877,
              0.3858625951104342,
              -0.6807984332317294,
              -0.19664253452407676,
              0.762358579782886,
              -0.18798832597920478,
              -0.9289220566633922,
              -0.5041312266231621,
              -0.2141588170663522,
              0.027257052637873702,
              0.9026804151467474,
              0.9055567704937784,
              0.149316149492698,
              0.2410676427337921,
              0.25473562408242234,
              0.364480927031416,
              -0.7497691974655831,
              -0.00003130855625066431,
              -0.2880153615958916,
              -0.04309400971272215,
              -0.698855869345318,
              -0.144504249256717,
              -0.4107999838706129,
              0.9469887916879167,
              0.9492937727183803,
              0.18888793065014342,
              -0.8044277392962838,
              -0.8034347040222447,
              -0.17930920620530078,
              0.2709272456586569,
              0.09618751716544294,
              -0.34303154034128536,
              0.13614420257680981,
              0.5799125233593458,
              -0.45083611212754127,
              -0.49255379322221327,
              0.29190786427055615,
              0.7200285130396358,
              0.10733447000388718,
              0.4280674638746724,
              -0.748711801968474,
              0.3372891588986189,
              -0.9646703067737485,
              0.45275822362864737,
              -0.8751019857602045,
              -0.91401405647514,
              0.6742215325968388,
              -0.5703644965468828,
              -0.6415942234490544,
              -0.6638138164079237,
              0.7950136421176368,
              0.9463264218460901,
              -0.0895133913033761,
              0.27815364954367494,
              -0.9076559818254659,
              -0.3186922259852656,
              -0.7957537997312465,
              0.373704976356648,
              -0.4768142266963613,
              -0.9757318373525159,
              -0.5207885630248441,
              -0.22204533921381975,
              0.970380346863347,
              0.6443385413002427,
              0.8143551462888503,
              -0.1409660964713657,
              0.8544315011557622,
              0.34270481493532223,
              0.40028939151514065,
              0.3951207796615961,
              0.5268996435485183,
              0.51763113298114,
              0.4814843561634321,
              -0.5739149256161751,
              -0.08737897158350005,
              0.535022856842843,
              -0.9508176297084856,
              0.40346469081718794,
              0.0010392189055754564,
              -0.5099080669883103,
              -0.27878871455721344,
              -0.6018669207641394,
              -0.45520649783330924,
              0.8820298571456084,
              0.030201467054337794,
              -0.1970655586632608,
              -0.5574889594795391,
              0.08734840513708608,
              0.2087666584440373,
              0.11542594491692837,
              0.35710506806233866,
              0.5083526623863328,
              0.19895708763706121,
              0.5467557708179092,
              0.35278856906891454,
              0.5057186724740816,
              0.9584775174491784,
              0.058487583231171314,
              0.5157491467126483,
              0.06320576419907198,
              0.44301630979584683,
              -0.018960877963686507,
              0.44762707724870543,
              0.2320924062135119,
              0.2282991929930387,
              -0.3906424859785571,
              -0.043355342430654975,
              0.03665294210628467,
              0.818526229579545,
              -0.5395824702192438,
              0.23530678241494662,
              -0.5135844707173169,
              -0.6759255137065532,
              0.037303961383139406,
              -0.8583458754504307,
              0.009285934538832308,
              -0.8412112392607995,
              -0.7841907675196711,
              -0.8027262257583003,
              0.23295346050548194,
              -0.20584252154331972,
              0.4114589345854198,
              -0.8648078985759753,
              0.10472010053443848,
              0.7867018198300606,
              0.9931255695144756,
              0.1297246284532685,
              -0.31442875562512107,
              0.37340108377380465,
              0.4144793472144621,
              -0.8397469653746441,
              0.005063322251580349,
              -0.05630661549401861,
              0.10377081440195601,
              0.22809778634339528,
              -0.7603332560116933,
              0.21656945267041872,
              -0.40469391934994237,
              -0.6437264682378516,
              0.8726163100132966,
              0.2546832280481226,
              -0.5523840235083788,
              -0.05078777341208207,
              -0.9842636003680614,
              -0.37158198238561235,
              0.3016488615004893,
              -0.9161383917396089,
              -0.1970360137860241,
              -0.5496532020016014,
              0.396011382754764,
              0.9118934896090316,
              -0.7544636400618168,
              -0.12787783272525388,
              -0.09223342577848603,
              -0.2653372977729611,
              -0.9202868643937454,
              -0.37801545319044205,
              0.34846403491953915,
              0.14809147565024894,
              -0.5572047707667185,
              -0.42213353433318446,
              -0.3853196567274657,
              0.3527838164796031,
              -0.9726490198559281,
              0.9969223168973795,
              -0.3793099767450516,
              0.14456075608425856,
              0.7202164307541472,
              -0.5021903303574615,
              0.6731301730690289,
              -0.6696959575060815,
              -0.8513874443268148,
              -0.6704281014649158,
              0.6187507607314147,
              0.632889859766256,
              -0.8219580487768061,
              -0.2540435292891452,
              0.03276234841562298,
              -0.5150494909046541,
              -0.26777830814034154,
              0.7200526658196185,
              -0.10746144242002353,
              -0.5393833166103077,
              -0.12610582825826144,
              0.5713866686409945,
              -0.894426294490458,
              0.7073654302006069,
              0.060633490898615694,
              0.7543045863457221,
              0.8880023150237579,
              -0.39527945991533064,
              0.03012327422887706,
              0.6863699869170334,
              -0.47267200385655217,
              -0.2817534102115715,
              0.4703873607335036,
              0.06517930841628417,
              -0.46906627342191953,
              -0.9475127002357921,
              -0.46561896795464985,
              0.5314920019167122,
              -0.054017300263420776,
              0.5989863713126193,
              0.1980842611432556,
              0.031793262502084474,
              0.12047895597247793,
              0.1920567309837935,
              0.39327945422050803,
              0.8820936882163051,
              -0.9695503218848738,
              -0.297098944315195,
              0.06043891387736844,
              -0.272959037511173,
              -0.44457904647462776,
              0.8734803307774786,
              0.49994114833967185,
              0.13557714398638776,
              -0.7865653702233608,
              -0.8901818985902636,
              -0.6880174026628216,
              -0.17383064305772322,
              -0.8623303597629257,
              0.10439322212573687,
              -0.062390808316603596,
              0.6806558172535451,
              0.3591757544677652,
              -0.9033854785832904,
              0.11540101494081112,
              0.306722152007707,
              -0.4410012502200793,
              0.45863458062077633,
              -0.21876798819951215,
              -0.2990597383666591,
              -0.03550999577225289,
              -0.7019169282665674,
              0.3087596962821091,
              -0.15798157968149118,
              -0.7394029125340462,
              -0.23056946423342506,
              -0.7338905610400879,
              0.39481402844796065,
              0.9161305620037408,
              -0.6560352044920399,
              0.12294067283983123,
              -0.8827114799782576,
              -0.33598878217590045,
              0.8035693443734759,
              0.21676291396148928,
              -0.18209391016011356,
              -0.3886767644819642,
              0.11622396893336973,
              -0.8011516684341915,
              0.7371735427910018,
              -0.5707155349396547,
              0.6720608509725263,
              -0.4355894863257186,
              -0.9105138527418664,
              -0.2343491060739873,
              -0.25950845570033687,
              0.7856418697619119,
              -0.0935950717470222,
              0.5478100313268968,
              -0.38243789251951776,
              -0.6845951416095724,
              0.17329210225457947,
              0.5899892776611568,
              -0.9054804334929165,
              0.8973550046035617,
              -0.7602086593476511,
              0.29124680069438824,
              0.31087687912920847,
              -0.08599833973611082,
              -0.967848958995916,
              -0.5736090157602174,
              0.3893443307503084,
              0.2640164697974221,
              0.3282265168444636,
              0.10375253567085485,
              0.8157424932612236,
              -0.8071975115491652,
              0.8196452302211679,
              0.7587306656277759,
              0.26321400662919725,
              -0.5474077440991398,
              -0.19477040906685117,
              -0.4356415592655605,
              -0.9769220046848832,
              -0.5640209992467402,
              -0.9253781812102644,
              -0.8140660442246457,
              0.009862027178200172,
              0.4592930537440387,
              -0.6901471808761599,
              -0.021269342595170215,
              0.187637028202023,
              0.9096762836492092,
              -0.12259366004195194,
              0.7150594776287322,
              -0.40401518726698393,
              0.8671947699050553,
              -0.19432113881557012,
              0.8491035611770958,
              -0.7079090171828577,
              0.8255579021929993,
              -0.8073030798223262,
              -0.3629748535721169,
              0.9422145490199996,
              -0.24583188231534203,
              0.8110529177601689,
              -0.3770135307837532,
              -0.18368983173188713,
              -0.08593967393148505,
              0.7385435526307664,
              -0.9171377129504714,
              -0.2150347893198683,
              0.21069710992314317,
              -0.669449795321928,
              -0.08806750167009048,
              -0.01670678210487253,
              0.22864206044662305,
              0.1237197987328309,
              -0.9320461637413211,
              -0.23820819884926614,
              -0.5285999519413145,
              0.45285121241285253,
              -0.12868318889979324,
              -0.23539717508594737,
              -0.8311018674027753,
              0.340821853251712,
              0.8667075584410999,
              -0.5732292995174646,
              -0.00811459624600408,
              0.9366594077219257,
              0.6592632776217693,
              -0.20176281423823683,
              -0.0843594271722492,
              -0.47664169731589023,
              0.23132817751265922,
              0.19627255328932325,
              -0.3976803274257774,
              0.27764193923004754,
              -0.28028797132750505,
              0.8895679202008546,
              0.00927357321202793,
              -0.810510523461041,
              0.7398168449341451,
              -0.6028623094801562,
              -0.9342712868607035,
              -0.14846573968605892,
              -0.40452685412189204,
              -0.05336764984138087,
              -0.17320639832395868,
              -0.3834000529067745,
              -0.5984274556042393,
              -0.13414638477055751,
              0.458299754631446,
              0.06090671058619046,
              -0.5951498960223232,
              0.9331269634115942,
              0.32446364976826114,
              -0.9636745913783269,
              -0.8235606270138964,
              0.23507102031062876,
              0.33961679686600155,
              0.6028863759757681,
              0.8684794444835888,
              0.8960519006594696,
              -0.16465318905080695,
              -0.6922742850486632,
              -0.8978898345528283,
              -0.9386828828513001,
              0.011839724638872617,
              0.5781878675175491,
              -0.6738925271080016,
              0.7975629048655195,
              0.01863170322822638,
              -0.9185432339805364,
              -0.15246511028441656,
              -0.18154314435095165,
              0.30436854615465503,
              0.1805442798415191,
              -0.08791601917052727,
              0.1387198665642031,
              -0.8502041823751014,
              -0.9227324775748795,
              0.9781250728629667,
              0.5485949956392715,
              0.8164324514764938,
              -0.9800050536582803,
              -0.5485747157697851,
              0.372928496989704,
              0.1433120485164765,
              0.3514961531395495,
              0.7811021611238003,
              0.680838382021983,
              -0.3073493552026605,
              0.14351956456571058,
              0.45224488109255256,
              -0.6042913701949995,
              0.4766660300227463,
              -0.031773784484376844,
              -0.5021115537076217,
              0.05964534410038391,
              -0.6619031371769153,
              -0.6006821237723763,
              0.9719188459370875,
              -0.5103160036218704,
              -0.39527918371783954,
              0.4726020505983932,
              0.14856823883089554,
              -0.3836330412375899,
              -0.3702278493290745,
              0.6925387518840216,
              -0.6923261992965899,
              -0.3579640457791067,
              0.20071661089524317,
              0.7726920812576088,
              0.6762913354500233,
              -0.9234059273110131,
              -0.4388709091233194,
              -0.8447223352432749,
              0.4371919917780982,
              -0.43503383851756894,
              0.8835286178675186,
              -0.13342399684194595,
              -0.7915100144867981,
              0.6790134574481952,
              0.65529470639571,
              0.682525125395554,
              0.17297257356141715,
              0.8980206659496757,
              0.9252696892159529,
              0.1834803624208936,
              -0.1953451050289634,
              0.4429661789326085,
              -0.13632938807461104,
              -0.3572710622947959,
              0.2926039066310868,
              0.714410406208382,
              -0.41498972854649585,
              -0.738474927888388,
              -0.023194307892912214,
              0.7573639074827176,
              -0.9006949444327907,
              -0.4942002693981351,
              -0.8074712446588941,
              0.3041505310114334,
              0.8503383135698219,
              -0.7931262991777177,
              -0.683703672907352,
              -0.6896336208935816,
              0.8209730110821076,
              -0.8413938427404686,
              -0.8354889477357439,
              0.6966219642587745,
              0.05230277819447515,
              0.5246815580359865,
              -0.8984065853211161,
              -0.7942678201246909,
              -0.8384818957222935,
              0.2070392059425612,
              -0.18052313080065652,
              0.29192845147664714,
              -0.6500612969659989,
              -0.7082327289584822,
              0.5486281635697452,
              -0.052098847560655415,
              0.6377534555012794,
              -0.026796310101441456,
              0.3262014364891832,
              -0.6083390780159621,
              -0.596895794471104,
              0.016093613933358952,
              -0.9264120394751636,
              -0.15562918127813719,
              0.18277685700085256,
              -0.7996335142174527,
              -0.3629405902380234,
              -0.46985817296493293,
              -0.3852666293480853,
              0.43931954395782524,
              0.23575539678768065,
              0.17337490740653116,
              -0.6650901205763398,
              0.9647752303701957,
              -0.40145051845260715,
              0.691616908541739,
              -0.6406665673832315,
              -0.004278961506064771,
              0.32613936558543255,
              0.44002403111924027,
              0.2720334375272948,
              -0.5963777409483364,
              0.6964159810842303,
              -0.4124985566287749,
              -0.879369875563055,
              0.039621650814983145,
              -0.7508141229917387,
              -0.23640924224872117,
              0.9118789031880805,
              -0.8196192690858304,
              -0.013865594068692033,
              -0.4672133623845296,
              0.198671006383059,
              0.9843511816144335,
              -0.8544496721112473,
              -0.2486432613330547,
              -0.4805717978445796,
              0.6675297189169251,
              0.27940650666464784,
              0.07088190833370689,
              -0.04830108424154611,
              -0.25619970761888267,
              0.21632962981096915,
              0.7891198464534779,
              -0.5273766692544188,
              0.026001048032523677,
              -0.07318310483125856,
              0.5431359568477285,
              0.42446031773655557,
              0.19462772934654549,
              -0.12721430000494394,
              0.6484081589496506,
              0.42088730615198733,
              0.19400303570946598,
              -0.700201214727413,
              -0.5091209989967029,
              -0.07205756908900485,
              0.263597881251469,
              -0.6713993574086508,
              -0.7465532783492828,
              -0.6779079278931341,
              0.1812387501518411,
              -0.5186104609061064,
              0.3072814918028999,
              -0.6760333203681492,
              -0.8854525455211046,
              -0.5281900352852293,
              0.8954386249159296,
              -0.2683809484062927,
              0.20822192351055424,
              -0.5131046740975913,
              -0.4006529285133036,
              -0.18068269170679807,
              -0.5277695930129975,
              -0.8217516419812712,
              0.5527739519084869,
              -0.7864973159077531,
              -0.45202185254487715,
              0.8604661753118226,
              0.8144718988533048,
              -0.6864801253711472,
              0.6459337044398352,
              -0.28593881106340335,
              -0.5645416508731462,
              -0.3508573827203003,
              -0.8311159635836107,
              0.1741656922587289,
              0.004010914001146393,
              -0.09468806715486267,
              0.7753000081754902,
              -0.9669445967825729,
              -0.30766873908062653,
              -0.48297359047279054
            ],
            "bias": -507.97214053833767
          },
          {
            "weights": [
              0.8445105490034588,
              0.06552506557951965,
              -0.41202719625735806,
              0.42072389818294154,
              -0.035183822362884865,
              0.7910878358458282,
              -0.007287720553857735,
              -0.5356356343967001,
              -0.21721796418498052,
              -0.3135913194569855,
              -0.25270693194786764,
              -0.9702823136529122,
              -0.841732603183631,
              0.6663015544465534,
              -0.5257953404646489,
              -0.5505047585690543,
              0.41801496677703565,
              0.7702948432743626,
              0.17938175348367258,
              -0.5741893027152112,
              -0.6695665338916976,
              -0.5034248110589545,
              0.5992547910151278,
              0.25650072992310546,
              -0.6719509620183999,
              0.581694424199346,
              -0.5648506946259624,
              -0.3081917948444457,
              0.866287431823987,
              -0.1304685365854894,
              -0.40583485804614217,
              0.7960879653074406,
              -0.25059897081160765,
              -0.7237304207032906,
              0.8525056994082969,
              -0.19795521305611707,
              -0.7265265763339359,
              -0.3590331858940443,
              0.03906307480306115,
              0.3568292787922136,
              -0.4722624008465961,
              0.6204178927456279,
              0.3568115790597908,
              0.4778716261832625,
              -0.008040931919218064,
              0.4321493954592115,
              -0.2777604769869111,
              -0.46088637189187676,
              0.34489077107720334,
              0.8026322137437671,
              -0.0024817586883991716,
              -0.8347259799634181,
              -0.006960177727177719,
              0.03063676866468379,
              0.18466792539461352,
              -0.9965813396905516,
              0.6640228212270118,
              -0.221257618962579,
              0.9346893626158437,
              -0.4384085105620601,
              -0.096385985389571,
              -0.07281250370627967,
              0.27864876559145424,
              -0.5075907821367633,
              0.817119174332396,
              0.9992191409804541,
              0.6265338125929101,
              -0.42231192645056925,
              -0.9357387012088405,
              -0.5876902140444042,
              0.9660882520027223,
              -0.7979474804328963,
              0.07765992031293178,
              -0.013709350565914935,
              -0.26315221683557244,
              -0.13921369461145083,
              0.4908870910805141,
              0.9517079229294323,
              0.565586433488265,
              0.520454166692526,
              -0.48629729483076645,
              -0.36501292405542207,
              0.7618588604381529,
              -0.8016718683056858,
              0.88354482847343,
              -0.6396576371928315,
              -0.8171593216310025,
              0.23137917257791374,
              -0.14222423011640606,
              -0.1331928703257259,
              0.9237630116190854,
              0.9302698192695575,
              0.30420939078933174,
              -0.8349063594452244,
              -0.8234501749948464,
              0.8232582558158201,
              -0.19069988267389926,
              -0.027285338439761997,
              0.4770749466106361,
              -0.6706455653767414,
              -0.6894475755031837,
              -0.8478226145014474,
              -0.908978676318736,
              -0.39775734293735177,
              -0.5553015853916707,
              0.965973914762583,
              0.8230988459464479,
              0.20046678750024416,
              0.5585487140773004,
              -0.7774126626573485,
              0.342659221201834,
              -0.16572132853447918,
              -0.6493579606133943,
              0.720199827259278,
              -0.5693286773199873,
              -0.7686150605303017,
              -0.72659438411974,
              0.19417823934781397,
              0.27247525586855614,
              0.5557977597285806,
              -0.6688525651668238,
              0.23784293727279593,
              -0.27667518575672245,
              -0.5212089483491695,
              -0.04550323582588556,
              0.5435780405894861,
              0.5737774585022986,
              -0.7870903085198391,
              -0.7693786424780615,
              0.8864240185840755,
              -0.02443590041188548,
              -0.03045390457069086,
              0.5913577831546832,
              -0.3766791792261426,
              0.5440044979030669,
              -0.21372671798819587,
              0.4912574563996728,
              0.06780727101814232,
              -0.6692269727134126,
              0.042015520521466954,
              -0.9807440437221624,
              -0.4009794718000137,
              0.9139920980242238,
              0.5637173333492762,
              -0.7788625844703323,
              0.2723548900107251,
              0.9682914086522945,
              0.8044391793122578,
              -0.5375292726759988,
              -0.6581564942432752,
              0.9548775011651962,
              0.8177187061609774,
              0.4566009680647447,
              0.9609823891272207,
              0.6241863846650237,
              0.7526779402476893,
              -0.919923538379702,
              -0.06064186755342149,
              0.676445133591002,
              0.8449901186194309,
              0.9025828531761539,
              -0.7301013172772306,
              -0.6516306367344864,
              -0.40720982040782916,
              0.834831553545957,
              -0.3618440137374139,
              -0.6930500902549217,
              0.6510492471325215,
              0.9740547944303319,
              -0.46019127930171067,
              0.44445859436271373,
              0.9922276636423373,
              -0.18305185759911335,
              -0.7662040671266852,
              0.4816172014104021,
              -0.33737640724023477,
              0.9484601910901889,
              0.9502071348449572,
              -0.20045527125210327,
              -0.9629607906589404,
              -0.14434953324827937,
              -0.0806038244007854,
              0.6944604335762206,
              0.29438465458276664,
              0.3592571888451248,
              -0.4743458699423613,
              -0.9834054470866254,
              -0.6381496023772044,
              0.01830581930009867,
              0.5552853247911482,
              0.9109343734239532,
              -0.2141557255189266,
              -0.5013867761826454,
              0.1117231376245984,
              -0.9807858002716561,
              0.8585344649134266,
              0.9711804826331902,
              -0.035574043407764044,
              0.5492653328472104,
              0.9901527926762963,
              0.07879845647255923,
              -0.3801863746441554,
              0.3172409208786644,
              0.3589056318182622,
              0.0830207995663419,
              0.9823140831776067,
              0.3625361304603154,
              0.16023745055564964,
              0.12711814881927186,
              -0.6630740894090179,
              -0.5342618491455262,
              -0.31537242686767497,
              0.284825958366381,
              -0.7784521988983499,
              0.6180583053490287,
              -0.9466081448620911,
              -0.9021333761511086,
              0.5668464327070994,
              0.8073592919436594,
              -0.40930842223947783,
              0.08128293401252096,
              0.9290467258058319,
              0.7810414929578253,
              -0.38351003245966053,
              -0.6109296752863531,
              -0.8816020099759889,
              0.9047681148828701,
              0.014495938203133552,
              0.9336739174032505,
              0.15711768562711192,
              -0.08572694165850736,
              0.41070313644946843,
              -0.44157100300498264,
              0.8217859717508045,
              0.9061869843610184,
              -0.0043460365931196066,
              -0.9842771134759043,
              -0.5097858216039239,
              -0.1943538399865874,
              0.89841502565121,
              -0.3769624844877075,
              -0.1032946022691883,
              -0.9390186176287871,
              0.49324056926381266,
              0.304788603034885,
              -0.2869342633202234,
              -0.5185712687932056,
              -0.29050575931768785,
              0.8677215845004249,
              0.6744241131056552,
              -0.8048051441447837,
              0.566908220347937,
              0.31477665064781624,
              0.5909185212919028,
              -0.2834615041319446,
              0.42296889001673366,
              0.8525675459889834,
              0.5690289895204406,
              0.4129826046743488,
              0.6137136453295815,
              -0.4386515331222016,
              -0.07049560533978383,
              -0.8419748764966011,
              0.5249428514547043,
              0.9614480006876605,
              -0.710605367467076,
              0.2853578289181926,
              0.908566346225252,
              0.8387630856862289,
              0.9715006589306254,
              0.8841991758516294,
              -0.39066057694108913,
              0.5119832756513221,
              -0.8970459986694888,
              -0.32830310885862213,
              -0.4655666335529931,
              0.2289398495060393,
              -0.12107684311854205,
              -0.08532795732595533,
              -0.5353683832786067,
              0.185142920443631,
              -0.3401408614275683,
              -0.3060441332391459,
              -0.14539417186728176,
              -0.37262889482692696,
              0.9774321012052267,
              -0.4788869813675176,
              -0.05605478206960912,
              0.7124400812960539,
              0.5692137569286997,
              -0.26388022401378697,
              0.6308370152003708,
              -0.022138336778903867,
              -0.6633511781193291,
              0.8914414039344938,
              0.9311351017395197,
              0.6211767874325775,
              -0.6743442304447225,
              0.4281209381271691,
              0.6140549801288007,
              -0.512510007667828,
              -0.7337787624127912,
              -0.18720115340033594,
              -0.24479839840127138,
              -0.35624994637768825,
              -0.6525689908035206,
              -0.5955071029225092,
              -0.2506155456187713,
              0.9240724882293367,
              -0.6231865016066043,
              -0.9167858164167186,
              -0.3773402009725859,
              0.47523392114403373,
              -0.7680221028774019,
              0.8367246335931395,
              -0.13014554097652287,
              0.6740690033514931,
              -0.3859424852742337,
              0.9074939489105982,
              -0.8235207918979035,
              0.43976810054373994,
              0.2395825368152562,
              -0.9705302473763147,
              0.2986077671433618,
              0.2520067735399323,
              -0.7833275451816006,
              -0.17907895133024176,
              0.4716023333021142,
              -0.46945212753493326,
              0.1505124683311183,
              0.9884371302789012,
              -0.6506187331850142,
              0.7617377716345075,
              -0.28286042614802387,
              0.7506977510037034,
              0.9897330992268278,
              -0.6527421628856511,
              0.15049969363616977,
              0.8948978073248677,
              -0.32036543311537713,
              0.1958618658372031,
              0.6449185436095322,
              0.20264580660425358,
              0.1497829602743188,
              -0.8040480896016193,
              0.5264585609957422,
              0.5297295054805176,
              -0.9387663512797326,
              0.6333226128712366,
              0.4578564042522508,
              0.8495402397133676,
              -0.7619516658063268,
              0.6214715386408485,
              0.8292774776802352,
              -0.3509885859444344,
              -0.3153150833007774,
              0.7526225124562633,
              -0.27678498370629123,
              0.7439003893918361,
              0.6075595487017722,
              -0.9537205668908708,
              -0.952155311461532,
              -0.862870472115072,
              0.13903628833324566,
              0.4140173544292316,
              -0.49292258389404253,
              -0.15776166610730336,
              0.4406174581494926,
              0.3470235205938197,
              0.28480397081520614,
              0.791837466521184,
              -0.7103417131728631,
              -0.6281537279392904,
              -0.44564396267693196,
              0.2202495430755298,
              0.6742907778677232,
              -0.769743228141031,
              0.49621546978847597,
              0.5958512668776019,
              -0.9727661666665188,
              -0.462219242714919,
              0.6563371246570933,
              0.19400282625664822,
              -0.6181477509313131,
              0.44853851669726374,
              0.5111854648067546,
              -0.3872870858988682,
              0.40895291322134764,
              0.3008808465195596,
              0.6714349728333935,
              0.5366193268286898,
              0.7315385479829679,
              0.5176853133912482,
              0.6319987853038476,
              -0.1812067878052659,
              -0.5077799275851707,
              0.5851998193533321,
              -0.19290952251379379,
              -0.9374057315941715,
              0.6743443543944161,
              0.6938819114490098,
              -0.561471291354505,
              0.1698239377565609,
              -0.10716230933354032,
              -0.664629979416608,
              -0.6647673641442666,
              0.5226053627672327,
              0.7876382397262867,
              -0.6497326001502048,
              0.6043048856615694,
              0.2054404985471785,
              -0.023299322877774475,
              -0.3283835591907076,
              0.16918104693227232,
              0.017773026335655917,
              -0.8849165051977135,
              0.007664451496929292,
              -0.7857248005463124,
              -0.49973175004619996,
              -0.20492309803342268,
              -0.36422084560845525,
              0.08805271911560508,
              0.3186816412405631,
              0.006326308932915747,
              0.19729167714068563,
              0.7869882978475582,
              0.4272204154914099,
              0.812410856138067,
              -0.3494853666471962,
              0.8224548048295439,
              -0.8849638844831333,
              -0.45809623761387286,
              -0.5121706949366622,
              0.6542997689964718,
              0.40558722385321744,
              0.09244244809181934,
              0.5960962652771471,
              -0.11757059184862273,
              -0.9318891428237985,
              -0.048781359759511034,
              0.6885090888347492,
              -0.8337475160248613,
              0.37913648564065294,
              0.5511240212355086,
              -0.4817207048826879,
              -0.8091382174887887,
              -0.599373967980124,
              -0.028572058385389454,
              0.4956556486201973,
              -0.3401497740373678,
              -0.05598011905994227,
              -0.41664534144144616,
              -0.22112922444859828,
              -0.5064413336487381,
              0.37427251003621276,
              -0.1198444377164396,
              0.9562955499944437,
              0.7134074458230639,
              -0.6418026207420424,
              0.11700755689294251,
              -0.2889585364181704,
              -0.3964465800717294,
              0.8707675950855016,
              -0.8981725079744769,
              -0.5201396665295754,
              -0.9968130173116942,
              -0.4100393170060044,
              -0.2377126015012907,
              0.6414132765136173,
              -0.846639901012443,
              0.2554630330036356,
              0.9904514109378106,
              -0.3776061392957337,
              0.6691131212779249,
              -0.3331846682572821,
              0.3906063057733351,
              -0.6067247838199203,
              0.016763411682160445,
              -0.949348146170768,
              0.7300754953410666,
              -0.5170753376556689,
              0.6876601110692406,
              0.89605369354461,
              0.2899695744207995,
              -0.19138033761284934,
              -0.3397439598566887,
              -0.87358440076689,
              0.010852395184897556,
              0.5069035763838423,
              -0.8346960125989789,
              -0.75761037146254,
              -0.10890928456338278,
              0.07899278957867839,
              -0.034668062590234694,
              0.5074811397365044,
              0.8580437483487993,
              -0.9151778432874371,
              -0.2509882960563239,
              0.6816302484034966,
              0.5693180058460783,
              0.05328344586689715,
              -0.7844348636035301,
              -0.31339007339451364,
              -0.6406979718178114,
              0.8515182301690487,
              0.6621420001773735,
              0.6317887243446654,
              0.4245987627575798,
              -0.23843369898489009,
              -0.7371855946401475,
              -0.10351549232398938,
              -0.3702065955359841,
              -0.6194919800030219,
              0.8930361482187195,
              -0.7052975953793905,
              -0.4200777859842164,
              -0.5892114499183752,
              0.8059453933973755,
              -0.010596117482562839,
              -0.28490131992845,
              0.9373596008582528,
              0.749990161644948,
              -0.3583854231500405,
              -0.24833012691532197,
              0.5234469978018206,
              -0.4561401277613375,
              -0.3476620493976408,
              0.22788472431926765,
              -0.2631333016031321,
              0.48163818811441006,
              -0.12297811121538871,
              0.32514739646146484,
              0.482247720823767,
              0.4583854377062915,
              -0.04921782048258194,
              0.37398718819262644,
              -0.22191807807983643,
              -0.2427029425709324,
              -0.9694742584698268,
              0.5254156145872249,
              0.21551505092794132,
              0.6369013446503362,
              -0.918729645802908,
              -0.44002343512217434,
              -0.6298737397141321,
              0.2729140907692771,
              -0.3534970556918049,
              0.7874156932456136,
              0.30125065368800596,
              0.5635371844832657,
              0.45533075876952633,
              -0.6899470553827709,
              0.9131851549796832,
              -0.1770569335863117,
              0.5748769249670227,
              0.2110710691510569,
              0.24444113420904623,
              0.8865797745059214,
              0.9736407948395507,
              -0.009417157137785015,
              0.08816264749100311,
              0.016218307886628036,
              -0.42605153400857976,
              -0.3149990874972879,
              0.23746516037167886,
              0.04495340623945632,
              0.9095010618487267,
              -0.17424061334808494,
              0.6746493299042617,
              0.19875053368939577,
              0.16942007666303294,
              0.02365146809301777,
              -0.7037261062070161,
              -0.5144365789914089,
              -0.15755124597239867,
              -0.5554060825979459,
              -0.6509561295061523,
              0.20310720226783596,
              -0.08775460286917403,
              -0.5777300515333836,
              0.21746457273794118,
              -0.2746918264277487,
              0.23740480180518242,
              0.8015862937485863,
              -0.5201904799816477,
              0.32767825254236893,
              0.3273688000530135,
              -0.8871521202462369,
              0.40570838709942514,
              0.5594166233263334,
              0.9205096164823101,
              0.8249796069444817,
              -0.5265646612385049,
              -0.13896360956363552,
              -0.918811522350881,
              0.8817335035763221,
              0.05338439533004724,
              -0.7814670797428529,
              0.4468655342492882,
              0.1843705081694531,
              0.8841589831233518,
              -0.14742953818009985,
              0.40356714013717676,
              0.4566035401125177,
              0.6560234302664729,
              -0.026794520820740075,
              -0.8649637901814025,
              0.24877285275931094,
              -0.992396283906074,
              -0.19431782566432876,
              -0.9444783633179523,
              0.4779712819069082,
              -0.9036854157190777,
              0.7296379967302835,
              -0.5500334822090824,
              -0.8118548937125509,
              0.23098975480702943,
              -0.32462449386583137,
              0.025227709700292422,
              0.0503052670139974,
              0.012694004783543544,
              -0.5514457773089574,
              0.6366843805583087,
              0.05391285800820311,
              -0.06484812868847589,
              0.9902126648626903,
              -0.6428858391613552,
              0.3983258055268899,
              -0.6590956760664342,
              0.9852712535468022,
              0.3616831670519698,
              0.8565507532700658,
              0.7974145926475353,
              -0.6564586925410132,
              -0.870619760141699,
              -0.2513819810865807,
              0.021793321870319016,
              0.027011064334424795,
              -0.9161286441656342,
              -0.5736972858207774,
              -0.2720860681792536,
              0.10562154197059792,
              -0.4961665142049494,
              0.015205069398491311,
              -0.38874317620244847,
              -0.39813148918749386,
              -0.3303057776710703,
              -0.7255584912567752,
              0.9603824467865727,
              -0.9642465571019834,
              0.23573334985529293,
              -0.2573695891119634,
              0.033223915570140594,
              0.7661557772489647,
              0.7620579094855042,
              -0.6436450291490732,
              -0.8631092915851499,
              -0.5344372262517769,
              -0.9099955872537331,
              -0.8814702674752417,
              -0.6592143581075258,
              -0.12074064936368067,
              -0.43403313702208823,
              -0.9556394005667825,
              -0.8696535105033334,
              0.8995463731979934,
              0.9527563840510727,
              -0.9008815232895775,
              -0.4984334233341494,
              -0.3530884131386265,
              -0.1313637930063969,
              0.8093068727962454,
              0.5529951037012228,
              -0.10732994585716238,
              -0.49757828467739973,
              -0.9368044630955135,
              0.6168880569739779,
              0.3115228734095994,
              -0.6951876478729404,
              -0.024290086236707253,
              -0.4633295191383966,
              0.546178586362617,
              -0.33762736891899303,
              -0.05565849845365278,
              0.8431916313249705,
              0.4748417654033221,
              -0.7631186953213143,
              -0.9084080891466968,
              0.00020373913665361343,
              -0.004167095059670611,
              0.2264774752913925,
              -0.004235419730269641,
              0.42279342204767945,
              -0.8744660419708699,
              -0.008478022171839239,
              -0.7269264924857612,
              -0.23198824848725863,
              0.2708617211024409,
              0.551169283981352,
              -0.5772883943591194,
              -0.7192129584295373,
              -0.7525260349179845,
              0.13561234535081823,
              -0.4234616635492676,
              0.6732225130344189,
              -0.37204581712066664,
              0.3470013590261809,
              -0.297647241745302,
              -0.0015009842937967477,
              0.0978406876559279,
              -0.42799931521581724,
              -0.366611113814729,
              0.8196182004724188,
              -0.18117761367496454,
              0.08027954016043237,
              -0.010163936682151764,
              0.41933493404027855,
              0.8578204393286502,
              -0.6304598096379399,
              0.24635371681177487,
              0.8116301356342008,
              -0.5938791850873999,
              0.6136149108949893,
              -0.614499239742683,
              0.19193526309301978,
              -0.8291204123049822,
              0.1248328773570262,
              0.698649617377074,
              -0.3592850612757954,
              -0.6368306047366654,
              -0.9466369363724549,
              0.5417652276938814,
              -0.2873916692242604,
              0.9624538159337046,
              -0.35390778138097856,
              0.5746563502145094,
              -0.4236255131548048,
              0.9015236950134939,
              -0.8172823344980138,
              -0.08274571726756808,
              -0.29094338627210403,
              -0.10451086135377352,
              0.7475083512738321,
              -0.4057015483859163,
              0.36757174685218397,
              -0.9669211250149656,
              0.9760943974907992,
              0.935671086132503,
              0.8358909886472046,
              -0.2525021343413485,
              0.9921075000265573,
              0.5079695886699023,
              0.2647189203477778,
              -0.45974270582787735,
              -0.6119064277930848,
              0.5595478603066146,
              -0.34605270847172376,
              0.3378601411751121,
              0.5871752393109659,
              0.09401712961296349,
              0.4195213208753312,
              0.5333485419338024,
              0.9127714937167091,
              0.7950354070283714,
              0.5727958486042586,
              -0.41359582368458536,
              0.2921778274369209,
              -0.19360585169651845,
              -0.3616508928050126,
              -0.7016757171745502,
              -0.19562799329625902,
              -0.2091606479506405,
              0.30005720695898175,
              0.9843003148645058,
              0.378856103483344,
              0.2138955226072201,
              0.7577161735769056,
              -0.5221850180289946,
              0.39173416826205454,
              -0.14280199303283192,
              0.6553912391448184,
              -0.44608291701835245,
              -0.6602581211440737,
              -0.5925418570959575
            ],
            "bias": 646.7794093559205
          },
          {
            "weights": [
              -0.7752567742379868,
              0.8858277147040119,
              -0.8802988078229395,
              -0.9421074499594839,
              -0.7725362408700698,
              -0.339047489735115,
              -0.944835052969307,
              0.5515043648754334,
              -0.3996394980034368,
              -0.4040966651505542,
              -0.4677357122904433,
              -0.6618158265284904,
              -0.29239876821224264,
              0.8921046782329425,
              0.9042066022635078,
              0.35453514521122687,
              -0.7333322971048095,
              0.9733566089629608,
              -0.4374157017162168,
              -0.88340052002876,
              -0.42801440001342206,
              -0.5303669004350255,
              -0.5009259741444843,
              0.822561292052169,
              -0.7400749988716466,
              0.34054119053837484,
              -0.5104645093001077,
              -0.8821078559847515,
              0.6621172383005125,
              -0.5051952639969528,
              -0.4565051463961387,
              -0.7347598311473647,
              -0.10815236187389576,
              -0.24048737090797045,
              -0.282879662748293,
              0.7156214943317369,
              0.2331822184530039,
              -0.706792625249018,
              -0.6674880158858971,
              -0.9408595597146179,
              -0.5370434958968553,
              0.21854055693685082,
              0.32710633686050317,
              0.7899397806208324,
              0.07646693090697632,
              0.3421477294516446,
              -0.7321012019078186,
              0.07920221620123646,
              -0.6335479787438705,
              -0.05987171831171878,
              0.9248512534127813,
              0.3244907337091205,
              0.15397968793153405,
              0.8839768430625963,
              -0.960949605155974,
              -0.7576267675212569,
              0.45025435077086584,
              0.9988602231140327,
              -0.4672820505925248,
              -0.31645896374355464,
              -0.7227917115519937,
              0.9088086265668172,
              -0.1017223861281984,
              -0.850324714063424,
              -0.8725048319489321,
              -0.24422801168512276,
              -0.6268872333509288,
              0.2469613038612377,
              0.0753466170022623,
              -0.7287569816171424,
              -0.004830885771017535,
              0.30241959085104586,
              -0.3724742760948945,
              0.9894662584489762,
              0.18931208417047696,
              -0.27927440500749645,
              0.6506848222507613,
              0.8697017161806619,
              0.14587198723312023,
              0.9806715369041052,
              0.38281101361372016,
              0.05357650471893027,
              0.8672728728402288,
              0.011396385732972192,
              -0.08913156978372117,
              0.37765463303728275,
              -0.9326405972685712,
              -0.07352236028846137,
              -0.20406556991209612,
              -0.437960092480159,
              -0.5658623669543976,
              -0.26143946261372486,
              0.6326871104049223,
              -0.8083972752410982,
              0.7247079707944581,
              0.4970109473796329,
              0.800995590380118,
              0.5925520907913855,
              -0.4402210395818047,
              0.061923748163429604,
              -0.9482964792079418,
              0.6130928550981181,
              -0.041186349340090356,
              -0.6595984728985251,
              -0.4046114803512513,
              0.4081924968634909,
              -0.8826069605054698,
              -0.8632270291790611,
              0.6627784541284965,
              -0.01701742600047451,
              -0.6761389962309923,
              -0.9746395695707024,
              -0.1927443898801804,
              0.9134725744342056,
              -0.46338308581762444,
              -0.22243333135789278,
              -0.6022591054553299,
              0.6793403665846096,
              0.9564261068837103,
              0.10453454507040405,
              0.20749927298816084,
              0.6779239871397968,
              -0.5822727191633024,
              -0.19260262971532427,
              0.1524847444742896,
              0.25674972655464723,
              -0.7067363913848355,
              -0.3376383362941291,
              0.6795524136534419,
              0.9313505253729613,
              -0.0756684864346493,
              -0.1825578383838824,
              0.3929039869822195,
              0.6846009681427279,
              -0.3508167699640059,
              -0.44341065626351606,
              -0.11086618363324563,
              0.30286133863591846,
              0.8810270368487934,
              -0.5293595951495731,
              0.07290297447952865,
              0.156269849505982,
              0.38103285201596515,
              -0.2170042167148889,
              0.8345972941265876,
              -0.9234086277847102,
              -0.5155597609891625,
              0.521720754360051,
              -0.3079286381442983,
              0.013591748077010024,
              -0.0029722105072576,
              0.17100915467564315,
              0.07939135124204544,
              -0.7604922986883835,
              0.1398558676962014,
              -0.7136046377682193,
              -0.6671461066241049,
              0.2640315486519702,
              -0.4967180028105558,
              -0.03493258443827729,
              0.9556401361457136,
              0.5681111004386765,
              0.5651955647490441,
              0.36024890618536576,
              0.3784781260457608,
              0.8596464338187451,
              -0.46846482907266207,
              -0.2567176761426677,
              0.695909078584378,
              -0.05383014843639122,
              -0.7154122586112743,
              0.2955467712832447,
              0.14802051912230674,
              0.4881794850692396,
              -0.95370874116279,
              -0.3126061125738664,
              0.9795109370435591,
              0.8456279668248987,
              -0.5430181541759729,
              0.09827810096050671,
              0.8420258663254025,
              -0.4413936369757385,
              0.680352833045943,
              -0.7028921565528496,
              -0.40022515560805516,
              -0.8140132551657895,
              0.05662780817092994,
              -0.3215434411545064,
              -0.5667081825939575,
              0.4715013198586244,
              0.9160007422074639,
              -0.3657059721451983,
              0.7453091939417518,
              -0.6314176006146863,
              0.9861751703810877,
              0.9208159084478811,
              -0.11878881685205922,
              -0.49630872458364195,
              -0.20711710838155772,
              -0.2229724578445702,
              -0.1797594109998979,
              -0.26565496373747477,
              0.358947805956388,
              0.2381630673902806,
              -0.27046023934755015,
              0.061278077825301924,
              0.7592424612925108,
              -0.47632501234356006,
              -0.580741251264882,
              0.630675487942479,
              0.17652916987739964,
              0.6646063476175978,
              -0.802909890612836,
              -0.10800124612116724,
              0.7095326176245877,
              -0.36319282458062174,
              -0.07139134506455935,
              0.7223957151761922,
              -0.4600619311042955,
              -0.01853886794550208,
              0.070964737879327,
              0.611388740447524,
              -0.8641869595998641,
              0.22992928003392388,
              0.12802171882500613,
              0.8761239042451838,
              -0.2217330944083744,
              -0.37864663466292336,
              0.7032482518748804,
              0.9921780985053861,
              -0.39187029733938283,
              -0.7866093347199694,
              -0.34437931409102474,
              0.23999700777535127,
              -0.3119149372472698,
              -0.27073058187749055,
              0.8785298111998308,
              0.7441029126339447,
              0.18450178526447436,
              -0.19603367244356873,
              -0.04879318050987003,
              -0.618332886578147,
              0.2930495570693523,
              0.49906329947689176,
              -0.7472465038142104,
              0.5607711279459382,
              0.08179424185588635,
              0.3970548983262141,
              0.48920210325657676,
              0.15212174455902305,
              0.9264139120200383,
              -0.12749814217042843,
              0.00400354847088602,
              0.7878678221737636,
              0.9180702101236613,
              0.6257019661918903,
              -0.48583734157660174,
              0.37743288307524603,
              -0.6983639226922969,
              -0.27833866317391864,
              0.34272825854973776,
              0.48294739177447754,
              0.7071670808317552,
              0.5048822525650767,
              -0.00886240009052397,
              0.46855855230662513,
              0.38691367875344884,
              -0.3587111420958604,
              -0.18310264711775526,
              0.7657043488195319,
              0.4957967438430657,
              -0.4960591546011406,
              0.19236968122304132,
              0.1943432722050784,
              -0.987197637990028,
              -0.9799131388733557,
              -0.9700861062625594,
              0.46913056379300144,
              -0.14666920070110123,
              0.8122081305794824,
              -0.37235090388168723,
              0.5454693769351433,
              0.3385563625291157,
              -0.3983718412617514,
              0.2576129473221065,
              0.4210961761581533,
              0.8067773980916373,
              0.8408210810852736,
              0.6571653634571852,
              0.7875425839880528,
              0.3121384707425654,
              -0.2962151573039322,
              0.5028026612352083,
              -0.23041081769308214,
              0.38608859544060525,
              -0.30660149867068975,
              0.9564555166943918,
              -0.566696556500613,
              -0.0921935516280743,
              -0.14663056934426733,
              0.09008423624234263,
              0.6676505249751252,
              -0.7224967833808851,
              -0.5181968955091136,
              0.9627367563088156,
              0.20303388941303613,
              -0.1484855918389587,
              0.1731179329486774,
              0.9121920514322732,
              -0.14086817538717744,
              0.4516695164264517,
              0.0353759797182871,
              0.1947211444592032,
              0.3899600763079847,
              -0.9134411993490836,
              -0.1636833989865969,
              0.24478214851296798,
              -0.5540356693026047,
              0.292260889368654,
              0.9939690606337561,
              0.33509294434373604,
              0.23774502580846946,
              0.3488923907621566,
              0.0608457403318412,
              0.9809567035555014,
              -0.31342195228937353,
              -0.7448164777899255,
              0.8105452367377621,
              -0.552430519291708,
              -0.3162960987263186,
              0.9479300731207863,
              0.029153598616824983,
              -0.7685298174248802,
              0.6247059764028791,
              0.6490989071266084,
              0.6417018920611341,
              -0.15145577809845623,
              0.22178030360235734,
              -0.7834560662839416,
              -0.7317393791832809,
              0.12992391189830732,
              0.9439166305705067,
              -0.00779676992666678,
              -0.12473437720770164,
              0.003735441891774105,
              -0.23897559408560198,
              0.22840195807786356,
              -0.8387611180263925,
              0.5835381283933834,
              0.6166745316659723,
              0.5103885493196159,
              0.49795024574776336,
              -0.49792021632069927,
              0.5594599785160144,
              -0.2951772087380631,
              0.7882529946902026,
              -0.7325055198634449,
              0.5836376365793798,
              -0.6033083276236426,
              -0.2806477586209657,
              -0.6918079832802317,
              0.8794086355322603,
              0.9415057166721197,
              -0.0828861169576065,
              -0.5702703818344301,
              -0.24001154499299293,
              -0.3287248368850051,
              -0.17838708644875778,
              0.2673245810110614,
              -0.8153256533393929,
              -0.016567462978632097,
              -0.1547787259174247,
              -0.70231469991533,
              -0.018354829568512088,
              -0.9735444702641298,
              0.533081720367726,
              0.4548082461772007,
              0.7457591711441336,
              -0.25924699236045257,
              0.9843133693077784,
              -0.3251585315687402,
              -0.8966917211870546,
              -0.9051682022007914,
              0.7073235208036657,
              -0.03262655202077536,
              0.4108061573865802,
              -0.7644281064754739,
              -0.8020408609944507,
              -0.983733646300406,
              0.4831192809848659,
              0.3277886030402062,
              -0.1621423953308434,
              0.22489145816375622,
              -0.2906295369740115,
              0.6595959040465953,
              0.6104973376382508,
              0.01893427254491664,
              0.06074614698039804,
              0.4306563641020804,
              0.34178340329005064,
              0.42844659241042704,
              0.6518335992875777,
              0.2094439244783195,
              0.4487556921569773,
              0.32779917413216975,
              -0.634967389628553,
              0.11364700814763173,
              0.7227126392057048,
              -0.11820980577286866,
              0.19722845472416184,
              0.8258112123197598,
              0.22455271086612782,
              0.3795146933667146,
              -0.13270923236648713,
              -0.47385565398649154,
              0.9453883552364011,
              -0.5564686020217535,
              -0.8628149396340095,
              0.4542005290124389,
              0.5415055523161483,
              0.9596129816526422,
              -0.2320174712491445,
              0.2933679214685587,
              0.4104612299858128,
              0.639520342994599,
              -0.8819999662671876,
              -0.9681533994523899,
              -0.7407951593981119,
              -0.8076639195493862,
              -0.220618858755544,
              0.08913630511707682,
              0.5514341286284186,
              -0.4674930412412803,
              0.1311056258675678,
              -0.5570996267282347,
              0.8512652104019458,
              -0.20002957093996887,
              0.10562445458646152,
              -0.607509187655165,
              -0.42438152957671527,
              -0.20414881638385163,
              0.07580961047604085,
              0.3312207406222196,
              0.12508446830554965,
              0.9153429948438463,
              0.7039104837984156,
              0.30762473662017387,
              -0.4288185929339017,
              -0.8112114789200517,
              0.9455680960108697,
              -0.7958264891222737,
              0.2987371005677124,
              0.49346279556468753,
              0.6165434817856941,
              -0.27245674656570484,
              0.8088387627409923,
              -0.9431771024701261,
              -0.21991186385837036,
              0.4355535983925036,
              -0.13504454959539736,
              -0.6345499957352061,
              0.1015923816601525,
              0.5204674544855448,
              0.7765596963550663,
              0.6643332792031895,
              -0.7417633328284339,
              -0.8250579362124091,
              -0.29446830387113954,
              0.23901335238588706,
              -0.8644715128560865,
              0.38926667198962184,
              -0.20409864482352624,
              -0.8677195580762267,
              -0.3614886648030846,
              -0.27173945513142117,
              0.05640995920258707,
              -0.28752094684908247,
              0.27002863684887624,
              -0.153423783548563,
              -0.6734291647466937,
              -0.8124951435341932,
              -0.08037318830817464,
              0.25238555763432124,
              -0.9982259529240745,
              -0.47461149213598697,
              0.6146415299919687,
              -0.43929534425826233,
              -0.3369191045766713,
              -0.9761991424219092,
              -0.2315196212580073,
              0.790031792817929,
              0.5793697127934978,
              0.5342507665639031,
              -0.5190715150714382,
              0.7525947302319898,
              -0.41299901449756193,
              -0.9546226604420345,
              -0.8280504655087624,
              -0.6836630008156246,
              0.9567044187833553,
              0.6933159646053175,
              0.9792180292948993,
              -0.9681358085444316,
              -0.4993558460469023,
              0.22972896881478722,
              -0.49006870163674154,
              -0.32862846411908375,
              0.5543572054792123,
              0.5678695617148484,
              -0.04854299935016293,
