{"layers":[{"neurons":[{"weights":[-0.9686987260150182,0.6784042708452027,-0.9772968690690287,0.9413091687561668,-0.283449269435863,-0.6315562884411365,0.5560278067545203,-0.5022829101604258,0.10921440099159474,-0.022263007232270038,0.12335523952950433,0.06471715102149922,-0.8886151734248284,0.8052631293992496,-0.23195993447405616,0.7196039797634737,-0.1802327848702081,0.19342685521934433,0.9037848127066059,0.6154142379131535,-0.7471411803591921,0.5151952659404122,-0.7649420499609021,0.8601258849362146,0.6059365289378897,-0.29465352734780037,0.2679281170341876,0.7979241905500438,-0.5457334364488662,-0.11946763959960638,-0.5494744773326978,-0.21213949757398298,-0.39364567961607433,0.15085047288976483,0.17136596803819115,-0.5432170078912364,-0.8273777837461744,0.45077612896036134,-0.043999354877851005,0.37363193977443254,0.1746921185853445,-0.29282669806667405,-0.7030119208004395,0.9796625814532716,0.7196590793320654,-0.6259735418356516,0.6822880478193079,0.32454111077673176,0.7480981399773308,-0.18732498466881875,-0.8120514322896022,-0.3341571449654972,-0.16117359889795058,0.3003190921027432,0.15456410778964003,-0.3164713901557348,0.9889643751456711,0.3081450424413754,0.8381081221863216,0.043111275836953844,-0.7018905796472672,0.496161845607197,-0.7916088243093777,0.6977937404086068,0.8969951346836451,-0.5395806007193591,-0.5354978969168882,0.5725089801835281,0.18444584477820714,0.1229651585127538,0.902956761674941,-0.35678602873130183,0.9249082549383862,0.9423810646622504,0.6635108422186282,0.6217417828338876,0.2713012633733527,-0.6525534785144536,0.7449830513032443,0.6001848244627181,0.08891275197446014,0.9116690779339787,0.9187251122056534,-0.12216054306178492,0.9909733777776388,-0.24047108470918221,-0.2449612605103928,-0.7286392038177034,0.10908694815214304,-0.26223825390497213,-0.1714135006092281,-0.4211574193140164,0.311854190303988,-0.7406912467876312,0.5362132588075497,-0.7780293329859513,0.7268503815058023,0.24797150170624827,0.969533031412499,-0.2902703276818204,0.5223055779420966,0.144071660305495,0.8429739854828058,-0.47333665781854695,0.01140698455235345,-0.8573035718718334,-0.7659076288168403,0.6552876151698985,-0.22698887698845072,0.500387259071374,-0.937342202997216,0.1630316478026388,0.19730641475615363,-0.27932945802203646,0.7478443630686478,0.6598621184503148,-0.8928044929824903,-0.25116178393855515,0.24297748648285244,-0.5510883299358547,0.4120741889405921,-0.1781256009291381,-0.17712921581757746,-0.09737314206114434,-0.4322557103397875,0.17642745458166775,-0.5710956944281591,0.2781877563940105,0.5324059518489026,-0.9659143368635319,-0.3208487143257681,0.6636573089693165,0.5238636141995716,0.1325127768523875,0.5432526819676449,0.7374410113511845,0.02870854354953245,-0.48509278787854937,-0.8292812918316503,0.8250224434077866,-0.7352122569866473,0.09437629732134489,0.6656291392495661,0.14408643008725264,0.9802140258782943,0.778670918697407,-0.7125387783077075,0.3910401998217532,0.387855122222712,-0.8916266087397653,0.28661152072984875,0.9992989436378057,0.7328790413590642,0.5985360921948608,0.7889077538924263,-0.45808456203052916,0.3204887405563328,0.8889781371309811,0.16785733030384486,-0.9340636065650205,-0.5645725669841495,-0.1562809442100872,-0.502154814557727,0.8672821321728335,0.8579602946608493,-0.3934866616797068,-0.4069577045928998,-0.9737086265215078,-0.4021014159044869,0.03511695670288706,0.42568099270494075,-0.02760785051822312,-0.15271726960495347,0.1272631582025192,-0.731051444769399,0.12737965976486088,-0.4349019429895007,-0.5454791803727712,0.8241305848726701,-0.10194366425520496,0.750378204337939,-0.21305756951165122,0.18795631642119082,-0.2939091031756318,-0.26661143995614545,-0.1880628697147948,-0.3602017389585268,0.9813922826855008,-0.942755610018974,0.2361310602545248,0.6374273388031861,0.39954077919672093,0.2812827194819283,0.7069910382474607,0.41994059288363017,0.5036164902438456,0.6568626817816869,-0.6639069693216504,0.6503373343360881,-0.06705396484477344,-0.9474821978811852,-0.17068550532532623,0.3721928172000455,-0.08255190984560823,-0.2637645984609369,-0.807251079783069,-0.8079349108072735,-0.4808069686577934,0.07954034437681923,-0.8196337675448016,0.5534175042514597,0.019506505559540255,-0.6135490944032806,0.7582359265196872,0.13066503945008012,0.48440643174041,-0.5037896706531324,0.9175065871965957,0.7568866373262266,-0.7497190141277024,0.28073724840732117,-0.21756937760683126,-0.17362066212555716,-0.8118348768535983,0.2845489933911196,-0.8147078645966723,0.8115857799861961,0.6963095776265527,-0.6143690881902577,0.4872458260990742,-0.5359397325398594,-0.09994863535932819,0.8715847328781732,0.02330543817110753,0.4627987975992811,-0.4192695783654954,-0.4445358022694732,0.16697128492398194,-0.593762693011195,0.43648191504456246,0.1760322956610536,-0.43338097128635455,-0.9380354428686091,-0.5138810891190753,0.46739565481440426,-0.5093401105159754,0.7219776188853406,-0.8934198488363334,-0.8303288322020319,-0.46266499046634335,-0.36428192230831424,-0.27088515488560727,-0.5622307499991033,0.9233746129409361,-0.8843627726972936,0.5943999977777548,0.07814069197713236,0.8879694707848769,-0.7281414896595981,-0.05975358937833297,-0.8754691429122112,0.9514969251801517,-0.23524963078851258,-0.3169386252013311,-0.8389650288645543,0.35889004206076214,0.65297966777208,-0.14526358620318858,-0.6705247589495378,-0.44903887086297756,0.035664446659391835,-0.17019133133972275,0.6490631524983064,0.8123396519891437,-0.7908214309867136,-0.029574590299811465,-0.8991119064839395,-0.6606382355289688,-0.8387370175814062,-0.7223430259886117,0.7086978468004217,0.7349455760007113,-0.9898798366676456,-0.6663620527645855,-0.037440943107166724,-0.6932274835991374,0.7254642433561234,0.13621844910939584,-0.3906894893048105,-0.9571666219121346,-0.9609385255317093,-0.15141163787791712,-0.3504211075600576,0.4767221904804897,0.8975218635265434,0.5882395711458042,-0.10083589441436835,0.9582590635730326,-0.33574479165296145,-0.6220946874609559,0.8559291491827183,-0.8002761846662931,0.09097191932838511,-0.016476145726794122,0.7547795893015206,0.31510418378979965,-0.7948290852976072,-0.32325740705490214,0.06570393712498523,-0.49649502040379057,0.4871308288684286,-0.10183339910667843,-0.5974458497351378,0.8754878453268797,0.3753564185712599,-0.07162909861811295,0.09611089092672964,0.9934000959926697,0.5537633086374139,-0.005148480387452636,-0.6438571145702969,-0.5993090683766522,0.5379332864018305,0.7270586624655158,0.14537345966262816,0.8234910269611402,-0.69547389471672,0.9559270736384313,-0.5161102831036013,0.730066158489477,0.7243156995188942,-0.09954034920278998,-0.08381888253416125,0.8318043191839908,0.41693407536926497,0.4102280936742133,0.8049467380098578,0.6416377092755283,-0.4824608898016969,-0.6078527469052406,-0.2672573471908257,-0.9502499380477483,0.8772116356527584,0.433424243844613,0.34090588326311133,-0.27086899357680405,-0.4301415330007612,-0.30088745193175415,-0.2572024328838345,0.8041500727618072,-0.35411685030566176,-0.06721209106735593,-0.3377103411379889,-0.3122145597678241,-0.7967200024753285,-0.524478266202121,0.342255239546549,0.5178924023460301,0.4632758802229193,-0.5749975996671979,0.395556265984482,0.4292591176178342,0.6277655866241418,0.26561614257202626,-0.2959600809152563,-0.11936805723135802,-0.7806456076633932,-0.8211286890946474,0.9592375723036048,0.612374817270096,0.7402095968631257,-0.1394142254189239,-0.7219960778637611,-0.5487906817313322,-0.08137717487282403,0.5377174547973729,-0.08488145353873344,0.5664822860761101,-0.4329080719854148,-0.31876472670244116,0.9916026503304187,-0.5715939312833132,-0.7707550267859737,0.34700625955546327,0.17231655347758057,0.9894018318473123,-0.58625607858855,0.877075832276025,0.711697613128671,-0.12442314170683266,0.6699697368633601,0.20301909127125484,0.6090045112845437,-0.24680823639170235,-0.6069758812419592,0.5158442754595054,0.865656405512778,-0.8419304275658481,-0.4512052829590907,0.6091679058258208,0.1465692441789601,0.3400948852803851,-0.30971532859139295,-0.5263802254544547,0.19472438797542369,-0.34391313034286775,0.5350017128752746,0.8708642736213981,-0.039064690071221264,0.6529697848567642,0.7785098194303894,0.06832207340646335,0.9228242221831282,0.44956032124974543,0.08472637108282788,0.2396866885286184,0.00434008067272007,0.9515850351686774,0.12410258409166408,0.7060963475496993,-0.9328973914227601,-0.6666653158459379,0.028684767434010272,-0.9030416656141509,-0.6994596444171566,0.9408950524787851,0.09980088496213035,0.36926913919374416,0.4928303091598245,-0.07149694101033255,0.755056835462697,-0.52243449710712,-0.11998082643495644,-0.9424299493148371,0.2434415563772907,0.7442795858445699,-0.5681126048216973,0.699307797136703,-0.9791655826074721,0.08438244996101263,0.5199527112563391,-0.9503038562746471,0.999953333182606,0.362790185841142,0.9483109378673902,-0.4870133164559891,0.2516664616622184,-0.6572225856630696,0.41638519867779955,-0.15899636647963966,-0.25869224468796626,-0.5421069312984836,-0.47870476835745013,0.18741177201033343,0.07881816292735389,-0.32751241745160975,0.779492037631691,-0.47935526663547234,0.590587282402451,0.29176743926232884,0.267823154521202,0.004155520970863247,0.05402978396737623,-0.03486455357533558,-0.22801934280597713,-0.7314153366144542,0.7412116795217694,-0.508367187657706,-0.35121464124438084,-0.26333891703069856,-0.4679461109162548,0.062361508209335614,-0.15488596801661814,-0.40095652335718546,-0.3947006547494505,-0.4182588273074095,0.48217291546800123,-0.427142458542495,-0.7225860528623107,-0.6626394153798434,-0.7308327860852559,0.16999784568763854,-0.13265895258495375,-0.4115511310148503,0.24754339104695644,-0.4410378824488017,-0.8121543974193113,-0.7838743219328026,-0.709026540249984,0.5258966116514388,0.9051137196469048,0.4816931308189125,-0.05310158445236235,-0.11957091424629862,-0.9993059709271765,0.9196261408901516,0.8042846860577728,-0.04288086924417067,0.052514782188878506,0.8591368432012962,0.9219876667945406,-0.8499550923476593,0.11942447570468628,-0.35850646615088877,0.7461809241968047,-0.9952674915189741,0.35489975606615376,-0.5764399757241945,0.045968775675184315,0.417334468243753,0.44556700428714313,-0.5975708511850639,-0.828508476829013,0.009913056921360575,-0.13604354921500006,-0.11306131216176363,0.20431860391060352,0.27511155468344484,-0.17295207461136286,-0.09907336562446822,-0.6482716450529624,0.9115503448179698,0.9106783428140517,-0.1037586986082566,-0.635603826721451,0.667026143321821,0.33692958018691277,-0.316193701002347,0.6505146358400995,0.10385580402751238,0.562741740999368,-0.11877624533717945,-0.7195760232096782,-0.8220760016568458,0.2631835224141632,-0.19953131877392494,0.8528932702830017,0.7166454105520059,-0.03311073136643872,-0.17182498667902424,0.3312121842966733,0.9248958949940107,0.18226201507574835,-0.7438515438159792,0.018487447157760073,-0.6281559923540652,-0.33675486733482574,0.32596936001162113,0.5142054888382255,-0.3937489294440155,-0.3512041207655434,0.10640942514934215,0.2990840270465527,0.7867500527440843,0.48683774164764415,-0.4255837102947235,0.09831428211689364,-0.7217497577045213,0.6498882473753143,0.22178780270097365,0.4305051315896793,0.6279285600930593,0.8109411809597238,0.023591500743825655,0.8276044573322596,-0.9726298887345948,-0.7871377532599264,0.3900884267667366,0.9355269341801526,-0.625863574974165,-0.07144254112252924,0.49492182513071237,0.29472270498287223,0.5263924322163862,-0.1919040012269284,-0.6861005982020343,-0.2729690973131902,0.3182331492405521,0.2567799868400975,0.15717449185185917,0.3551571878134081,0.9402041164352055,-0.791000560993468,-0.9703264562180967,-0.2267836246213104,-0.8615254012043225,0.5406798806680659,0.8122479453641409,0.009052604293525945,0.13715935632782372,-0.6963026398697156,0.42621615345684294,0.5894193972451323,0.5724617970045722,-0.647166392027497,-0.38782264670844224,0.580017787388162,-0.8239650776806031,0.11613899371759473,-0.1814980714005272,-0.3025506768212467,-0.08998334713602008,0.63859266381845,0.4969146533982354,-0.6144818634826001,0.15780699238687168,0.9914805262064714,0.1444198749905672,-0.3808233092851703,-0.6796793095567337,-0.9197693282617583,0.3579342868976352,0.9171760865420904,-0.9957295991389548,-0.7437293722514742,-0.4610453623777473,-0.46560409820211657,0.11414255111052318,0.6919170764335676,-0.6816481036697724,0.361644943967498,-0.4640371611300069,-0.6439172332817886,-0.04993389050499575,-0.19141772223640263,0.8672661748780861,-0.5979539821952367,-0.5515801777050706,0.2540512047292194,-0.6155152404959123,-0.26207523326151305,0.833130544167886,0.908198957637238,0.6033809686668352,0.5238884264926402,-0.7329403740038694,-0.7060236441504562,0.7683015787909406,-0.4985102377630599,0.3968780491715007,0.7337599944172926,-0.7599778584259784,0.992943220437803,0.9840156666664126,0.6440921325844084,0.5226321156415716,-0.6597072458504325,-0.18439269612326115,0.8624477833093542,0.0633945476538833,0.5190252701637106,-0.5071728324079654,-0.22952029927149598,-0.6426114682255601,0.686351071524077,-0.5589175980815457,0.2789142748944671,0.171866428331799,-0.7158413744921219,0.94853649296559,-0.4191799779004137,0.35323718536324034,-0.7707035137248086,-0.9786003970645667,0.6837694732437352,0.8853676833664803,-0.18768196307160245,0.307808475497819,-0.9997262329525447,0.6453052778716342,-0.39340266854085293,-0.8306007065190797,-0.4038466171696333,0.7420191950471677,0.5659489070051427,0.1906806924295532,0.8886784581581804,0.17825382835310766,0.9518433739648398,0.8103932181806859,-0.5889715756805138,0.27905339288988706,0.7305891766749886,-0.8319414718836255,-0.8585173148130307,0.5257659404558703,0.20298192737975773,0.6405193751745228,-0.12457352362252427,0.8746775545601766,0.5374483370212437,0.49746108374381404,-0.8624965209636266,-0.3730089698009609,0.5038763279123875,0.16821487820238223,-0.4565209318828516,0.40957498772122225,-0.34743688281966945,-0.22564620253649936,-0.20725335820501645,-0.4030025678618725,0.4103674114298941,-0.07870889122169,0.7379150493351476,0.5513596771054994,-0.19243787855777272,0.1656674883961431,-0.33396915070473776,-0.8109733380885613,0.9876195722796908,-0.3412650658643792,-0.7533867872473117,-0.9351087175371213,-0.8093920492985784,-0.3792878997354072,-0.395761956646564,0.19009562714961792,0.26901759972030126,-0.6307141431031025,0.2761244831953906,-0.76229111999556,-0.25910630309238103,-0.2655903955844261,0.41647285693527136,0.10453673303313504,-0.9466391302086099,-0.32590529080790587,0.48284696152697837,0.41409903031141315,-0.146981856022665,0.6151252036083443,-0.35754539399450413,-0.446641506021475,-0.1693700632271642,-0.23490220433197884,0.871871718841458,0.733499723968742,0.6786634537461222,0.28386513644038214,0.246467989806324,0.5278102682954846,-0.9986977261184915,-0.07746439806060001,-0.38497528647626966,0.4603785877054758,-0.989783440752543,-0.1363013138702862,0.5534833189544313,0.3595569397407248,-0.11415183810788365,0.7863688160718691,-0.7584068093603391,0.11625728828947723,0.1859138469540933,0.5664052347642512,0.2838326588623237,-0.026230299798638335,0.5891519034686374,0.9319332554184552,-0.9158113394475165,-0.31713633826218635,-0.3484013012367462,0.9099120976642916,-0.08699486633643394,0.4088286698956165,0.6948159631987525,-0.50948997722345,0.40661077071624163,0.3577111343428512,-0.6977447629908675,-0.016722435392137136,-0.7652012611396475,0.6524448255928754,0.029733594363320126,-0.8497553779406473,-0.4842178422453638,0.8729490630722281,0.4069760065854968,-0.29402101754135,-0.38398943119741036,-0.18558513717942837,-0.154992382400009,0.17309011702147536],"bias":641.8304373918318},{"weights":[0.7718158783745777,-0.14116256373381164,0.6449275576644657,-0.9262625268530189,0.9214759463775288,-0.1993473388581095,0.22900082693390234,0.495930500609596,-0.3321820916912186,0.7859234091299618,0.7720197123153634,-0.7792261545792223,-0.9613860464175459,-0.7955382324390277,-0.6451304318835769,0.6633235814590726,0.3641555308883051,0.7348723427979942,0.7972967206523061,0.4785782855582439,-0.5701505850868216,-0.13731816983492395,0.775365037107997,-0.8804135046960915,-0.9007995452175961,0.22955265880655773,-0.02356003037880594,0.18938404912438322,0.8364671016375484,0.6461654885640717,-0.313055415166382,0.09030055324279251,-0.16770858791976417,-0.813199346362238,-0.41994545347083667,0.007753622962851647,0.0385622181936216,-0.47782093322070907,0.14074224057746987,-0.6335966847654837,-0.24778945024579402,0.8570395086254381,-0.7584984192096944,-0.21685409186548643,-0.9147030908520706,0.03289488424100773,0.4471084491898947,-0.4255676661045986,-0.9474040357430047,0.19648798399027356,-0.03972386938057326,0.4885709589671263,0.5052546375411682,-0.8115424096097379,-0.043918090228146855,-0.9489466232673522,0.7510527570622756,0.2123499501062196,-0.04233962584285411,-0.18598928224456301,0.8607258842243932,-0.9052306800244385,0.5142653296899193,-0.3391250602906162,0.04400133077732038,-0.2753281922689039,-0.17049394465779555,-0.08602086064463421,-0.6594201037016805,0.5217039692131458,-0.7963358117698656,0.7280770607158247,-0.9059147335400488,-0.03206406478757584,-0.11149978318821274,-0.21486885563117752,-0.0941048877617372,0.8230711869821081,-0.8299553083742928,-0.8231926144905697,0.5204946429230257,0.36836171171609244,-0.294090643586399,0.5314855360087924,-0.2738598348736181,-0.5612939285629546,-0.48285209345993163,-0.15181955950754533,-0.5707800239800656,0.4578430559550881,0.8270358082018392,-0.11242037840129537,0.28298971245998494,0.6183173987865747,-0.5924356311996211,0.3028426782468774,0.0732625333506034,0.5620426930381455,0.3772183555491515,-0.6602770646350429,-0.6503419149282559,-0.5317566820918245,0.3866420632701377,-0.8305305568707833,0.025358823905217154,-0.6069571887111644,-0.236620249087367,0.9236999265613983,-0.4521233295599272,-0.026021169454080617,0.06856270360702599,0.27509557091294257,-0.6381775849927944,-0.010317993714878959,0.9596200627834675,-0.822950996129626,0.5652577994588559,-0.8699266622952337,0.15953965491021904,-0.7039174097120466,-0.07318832723860513,-0.5236317677579958,-0.5690873665780445,0.36244770464800347,-0.1372578096246495,-0.40827909846266897,0.01244846630821872,-0.7329282658234586,-0.6101275256385215,-0.752808083851682,-0.4011019817175021,-0.4318099341961701,0.0854870253455875,0.0022518147289094514,0.22407396846408734,-0.3904715590644736,0.054734361814751775,-0.8770191434324204,-0.8037913916683834,-0.848055117458439,0.4100802534773038,0.08752534435285231,0.5442276447432084,0.9002155609853171,0.4574850653703715,0.15141826795901459,0.7802061709606041,-0.04478880928084772,-0.15866250638160073,-0.23958314478623688,-0.6271420059734965,-0.9986819203914847,0.34142187557699577,0.5997414921159416,0.9874699387685362,-0.5864501075960558,-0.2754140081131293,-0.8937399182580434,0.007069895280099825,-0.4458548656642458,-0.7869624864576203,-0.45332949240696996,0.32141458896736363,0.4794264755617266,0.016624344524601042,-0.6189385573892907,0.7005174605154925,-0.6284373936588667,0.03812801203392491,0.9878846046246657,-0.2777940905981322,-0.33055330316270837,0.4486545895171048,0.2617478938420241,0.9954638638919735,0.7723385013405251,0.5676965375896059,-0.6710807698541288,0.4085629964059416,0.06712674728374601,-0.9734090155943012,0.11893011506280571,-0.7894872250541316,0.48108427176827107,0.9287982152894587,0.42252360096474506,-0.6658836346568151,0.36051421365993885,-0.62147793827915,-0.6796542145604634,-0.9766099699540125,0.7905220912370532,0.9505210298044937,0.43452414312681453,-0.5242937831308545,0.01442146376791964,-0.869856341653179,0.3099247429669765,-0.7607275160739055,0.21597678367180695,-0.6406922806100548,-0.2556353009878567,-0.5444919554777701,0.9432925902545013,-0.052143040158100895,0.8483277663616144,0.6581932576374943,-0.08937059342704234,-0.6456580810127259,-0.11076908474513436,0.6658965224237448,-0.14108700779776795,0.17234539764777734,0.4121893767548821,0.8059961287874735,-0.9367265763517993,-0.24060136428465562,-0.35685652215841834,0.29066792617592796,-0.17511488874857184,0.421580506934657,0.1920597150386043,-0.595147442469103,0.18574022505213472,-0.9093611767686363,0.7763711058665455,0.3026769008136343,0.6754782617515307,0.07730074953583621,-0.5349291445204143,0.6424023204408069,0.5492694201422479,0.28356395914747834,-0.6424007867975914,-0.15471664230647963,0.8807393830232706,0.7448429527607514,0.7807710358377897,0.6264269227018779,-0.8035374650329787,-0.5253789584010371,0.32959974402082626,0.9252790293040403,0.812867306135205,0.7375118289478562,-0.14066236677693134,-0.28841812237587705,-0.6366373827078391,-0.23596750635340946,-0.14104301825067855,-0.735431993758763,0.6415367450181706,0.589293487415258,0.5429380273537427,0.20305034572452296,-0.18062986161532057,0.4042770616317224,0.6287948176874281,0.04802315920633182,0.8492219374097378,0.37542172853065825,-0.7039634257545107,-0.7053087781414629,-0.5841672253174286,0.46203818447356504,-0.14620997412681191,-0.3066589493705849,-0.1721454844007404,0.4273866143250089,0.6078814702934539,-0.28698215900954294,-0.4455656339032852,0.10361437003725671,-0.8459248938382697,0.0855019203746128,-0.1179072828293104,0.26409608712618926,-0.22891169929450905,-0.11991817980465891,-0.5340282438327049,0.9963461741230661,-0.49094401833106316,-0.8750873387955989,-0.008852678223789212,0.4174646680663927,-0.7508415798446069,-0.10501695967929203,0.6836601387346968,-0.0928883439046353,-0.4678953643051962,0.34816065605785607,-0.031550864236862264,-0.37991106425848375,-0.6206271360742606,-0.49877038620483916,0.3206332687954756,-0.11428379383998744,-0.316039489652292,-0.9918031509054335,-0.5056995389934626,-0.8780486139281614,-0.9677030640345126,-0.17036663798678475,-0.22336745287866044,0.10491786745827536,-0.04037223350717056,-0.7291303040586556,-0.29019736208639824,-0.8678544597320452,-0.9091475541652496,0.2005687670360632,0.541959828696414,0.6055260055285756,0.6567046154090295,0.3382978758604569,-0.5254298277073808,-0.3805723801850345,-0.4577094856120887,-0.37972990807205154,-0.5180906578316109,0.8141524891123555,-0.751734804063863,-0.4578681722783404,0.6117384068242879,-0.4170486284473096,-0.8457813189587293,0.17556137993025533,0.8635536300715585,-0.9215492719722098,-0.39641578318284765,-0.15061899393768474,0.5457310986591297,-0.883426805647126,-0.6714408750943655,0.23737609815311211,0.9690053964286687,-0.06551601888528324,-0.4146954578538118,0.5757703674923849,-0.811720531221213,-0.7042611037176258,-0.1260766707375538,-0.2080955793993926,0.27133698629292,0.666156210278253,0.9562160398559407,-0.031253425170076454,0.40580338589727827,0.20951477196532897,0.3984110181667475,0.6889221049156742,-0.31971306510704567,-0.7370646538936616,-0.298603881207971,-0.9793070694525108,0.14839603683812985,-0.5532075878743101,-0.6660705894659058,-0.7696461251123767,0.14621176979460548,-0.24556853110883514,-0.901753721019884,0.6376154127937501,-0.7621794635364552,-0.3758747521941359,-0.8379702855332121,-0.60574878875302,0.7276799165421277,0.019155490938949526,0.8799797805282696,-0.7833384337349663,0.7026217703864139,-0.2592714713793951,-0.04925636918338938,-0.3226079440994303,0.7107341270966185,-0.341891005825925,0.35164798710906187,0.23081048506649404,-0.5522109931727197,-0.7180069628284111,-0.9007850050388617,-0.13555586044498646,0.27739519160094694,-0.13835876666843028,-0.6278733247575352,-0.5094255198685929,0.6545285485581913,-0.2934067816467576,-0.10690475427771062,-0.5908620622174361,0.43285752745754014,0.46801095369383683,0.6803558433810939,0.20696022901155153,0.2363654179708674,-0.12989239227562432,-0.29416168514952545,0.49399156544874634,-0.6391706962659156,-0.07158206960450642,-0.875720917355411,-0.7405360999108392,-0.9376413728669752,-0.5186601388347936,0.7561241262558185,0.9703336749924327,0.1542843673535712,0.5744340953707492,-0.3097477884383526,-0.27566410638158967,0.08989671833607282,0.4684122855869375,-0.8060085733144655,-0.8862873804521163,0.6163035414184064,-0.4050713618575257,0.8597141308723786,-0.3259384017406224,-0.442660724356279,0.25886695013732064,0.2077948394391851,-0.5451305493790897,-0.849560610048806,0.20803445878911253,0.0046110188751957715,-0.16724790222021246,-0.42249527977085544,-0.3706143934027204,-0.36650569007365164,-0.58808429578511,-0.1177983744055191,-0.13299902403692965,-0.20170797222828085,-0.811768805762187,-0.8439058367196677,0.19437060013088203,-0.07116861772253635,-0.4000182287056071,0.6522243082860038,-0.26041942987020494,0.8154152326963522,-0.5210467106072687,-0.09216907571358979,0.5233486975760822,-0.012215064576714951,-0.5044809497153464,-0.7673487282562195,0.1517768024916495,0.37827246762100897,0.20604190462852667,0.7162366331931955,0.9580149570253322,0.8194261258948123,0.5445714474463026,0.331577927086391,0.8898148017070939,-0.1723707080161887,-0.52837063942926,0.2596887881384782,0.0673704391611265,0.6629631661351381,-0.27118848060117573,-0.10588620146363192,0.7870772366971366,0.4880227633267915,0.3332939569807305,0.017444535461959898,0.10952985112502223,0.3323765756320918,0.8909806864589953,0.26912875013313675,0.29516841420668927,-0.49318033889771584,-0.1206444092899499,-0.2793312799952363,-0.966410171176113,-0.4988068550380089,0.8761765522371241,-0.5473224019454466,0.27848568463547707,0.10074665962227547,0.6209609681865933,-0.4578743068390567,-0.5261631829588382,-0.13966953230547707,-0.6927123262914336,-0.32189926049857487,0.9360237839307799,-0.9368573026534732,0.6626179873052553,-0.7318804060324813,0.7622364706649791,-0.4578598665746867,-0.773425645552098,-0.0026637122153228,-0.5681078038718894,-0.9860855783317142,-0.6538372941801933,0.5213473143763481,0.3304226599568634,-0.8202230489562514,0.11242125117595947,-0.2830750716511261,-0.8071153784392853,0.3708682021048251,-0.7399323460252458,-0.5378249243861872,0.47557803131490184,-0.690260684368849,-0.24249822582683578,0.8731774769099232,0.580790593219568,-0.10527334346397055,0.6177082533836455,0.5082236840484073,-0.586179668331861,0.21560309819178958,-0.8504957997431157,-0.6464629645424989,0.19020403512111406,0.9713020795705978,-0.30270028909711,0.25550788109300315,0.8254477095854376,0.8378999586013189,0.9155993593609151,0.0721715663108684,-0.3629831768497769,0.39778398617720034,-0.584727606140115,0.8807988532591118,0.5993852762716578,-0.6872798949305694,-0.5899732814594487,-0.17357794724838937,0.9652259968074017,0.5898163242265531,-0.14855504410149,0.01396760152210641,-0.04333815602647029,0.710200574950667,-0.9811681207092002,-0.40144542179151,0.4118376995053752,0.8515075444707523,-0.9367922940520605,-0.34935409319222943,0.20147971001394271,-0.4366007109062018,0.24790309095471885,0.6522780772717391,-0.5289592506754204,0.35288888299964327,0.8999594471371544,-0.4682214218999379,-0.027224818550018348,0.6242271562468171,-0.10736552153973022,-0.6963986129583888,-0.25580130219301545,0.7670273916899761,-0.44963830488064227,0.5875870404885317,0.8943962334498674,-0.7439272298902262,-0.0715412559998132,0.9282136866264916,0.9711684004206269,0.2900558451619495,0.05164144014366956,-0.3400484046238619,0.4143683149990638,-0.36803175509999386,-0.36593714243610487,-0.6606843686545951,0.09826687740691131,0.5629836487925091,0.6643329536260456,0.10852404126652848,0.34528344098383723,-0.8693142441597779,-0.4316928080630009,0.3510799949036221,0.6816631368147084,-0.9081960636236799,0.15380779203162165,-0.7457185874398862,0.8199257661601105,-0.08650045718412347,-0.48307981423948343,0.4522174795291094,0.10853280846357594,-0.9950964584318669,0.8471600308650551,0.7318024699499195,0.5641817865541112,0.5918218804502109,-0.6743595232296244,-0.5976666030576054,-0.051923167905493894,0.6403854597662795,-0.9427555553062947,0.5420113633892192,0.8129087275069482,0.9525810016959682,0.8439824833165726,0.40839249052572013,-0.14015874616578206,-0.6890019684015658,0.83967925222401,-0.6824933589981805,-0.9958241509845513,0.8090743861282506,-0.9298534075322551,-0.23246675692829388,-0.1624682088807825,-0.8875763289307779,-0.9405442135573705,0.16889366427547792,-0.2891605402700397,0.9440762534746914,-0.76733219125992,0.33211551127811667,0.567171267372661,-0.2935482918002821,0.8638853766160999,-0.1802994471020316,0.5744825434602543,-0.5358417920805687,0.5205994111661907,-0.8975094471402145,0.28422632614484256,-0.37229294613776176,0.10689446156444893,0.8466484971266275,0.5937293554583349,-0.33649552822222084,-0.29182104691381916,0.8557998901733717,-0.07465669330582747,0.8776764759214801,-0.6037302982845429,0.7176808964507138,-0.9326522617616391,0.6889856285772722,-0.8957876576306663,0.46031057871416126,-0.9811174644800174,0.9341183439646108,0.7644248388185182,-0.2739847149160961,-0.3619072203730149,0.913208244491396,0.6828550830680644,-0.5240451427838182,-0.37967894596095597,0.2131279915746811,-0.1770791696474885,-0.726785583793915,-0.4415582584852986,-0.8451249445817286,0.0767984961510444,-0.9265493112000902,0.7944034560734887,-0.692685437448016,-0.0870520798479335,-0.8448769352849994,0.42702629609377585,-0.20647876898133743,-0.4478627656537353,-0.23934996637509354,0.13787687824742623,-0.8622691946219239,-0.11621000141705906,0.7971967416642682,-0.6156433217388759,0.6591378362685352,-0.763200649102167,-0.2041339575585095,0.8207148021910404,-0.22840615638124007,0.37392301102126346,-0.11174509152434098,0.03887539678893415,-0.8220863347756913,0.2795190968012524,-0.08431695010937457,0.3788638634782737,-0.5713407940363409,-0.04906987739485302,0.5574966642477253,-0.9504326116022623,0.4383207431445615,0.9207776135011922,0.5916248659127921,-0.7212806564621737,0.537939393196261,0.6576913138656688,0.19589134577757727,0.322024081827053,0.04394810241107949,-0.5220962465613987,-0.9518408510771845,0.8967243935084528,0.9945211216695409,0.44788654893769575,0.6717824844051288,0.41307870053229445,0.9806372849203493,-0.5018617916969266,-0.7398440539794509,-0.3600663362190648,-0.7504131889117858,0.20367531755427137,-0.5418216580658068,0.7292631219272847,0.7104510607720647,-0.1838785306029429,-0.40884869948034464,-0.5275448756163721,-0.9316618626059228,0.4864902468915755,-0.8484931863618175,-0.3282115452078149,0.23332557312786673,-0.7629034709585709,-0.8774760514186415,-0.0056987892246418426,-0.02378203341392604,0.8952817995088274,-0.36633509782765383,0.3093587314539903,-0.32523393790929456,-0.1591062036636175,0.4700904230330454,-0.8039219925484544,-0.8097382837934037,-0.28264263478231166,-0.49886846389541084,0.7583656346016849,0.44646499328797606,-0.3602260388901195,0.2038934281201863,-0.2718188803149628,0.4119605589603932,-0.15623042916705288,-0.693938866289439,0.9948014742384395,0.21065144822237736,-0.14004667153568384,-0.6714333781332864,-0.9345256823103667,-0.12975825086117299,-0.46716597326078224,0.6265627696848766,0.03865934047574893,-0.10560173166634712,-0.8529746825438487,0.5113271780013116,0.039945283127857056,-0.26684085113803224,-0.7415246409725298,-0.9308677338695204,-0.7085621917316582,-0.7270912692950104,0.8754524077227104,-0.7684027449549768,-0.3996736736069595,-0.8248746782662026,0.27042814409139426,0.09488630741010828,-0.12054692569458059,-0.6141039487257403,-0.9804382932922717,0.5378241567660811,-0.0316630062308314,-0.7342842548693125,0.3360481217343114,-0.7635265378234419,-0.3338835538055389,-0.6018097172881243,-0.592109290271162,-0.7531844723708843],"bias":551.1752013955281},{"weights":[-0.26997879138197955,-0.47349792868723917,0.640443705530314,-0.7850414590289869,0.3755174613682968,-0.16585814566758206,0.7477242639250865,-0.16827582382607176,0.6939135349727699,-0.28524236990985496,-0.9636980237029293,-0.5366319552949683,0.4830900487178287,-0.831403505377275,-0.389589522112058,0.0000018699550476952709,-0.40241815808467507,0.14938135075663705,0.6882821491874647,-0.031042043514574402,0.12051274863756811,-0.4320629501752671,0.19028702179313361,-0.4689614888347604,-0.5484172256725701,-0.8191945893491854,0.05924827174785552,0.10032751722117395,0.16841329563944196,0.09008610415676799,-0.9932346448348355,-0.06412148085768088,-0.7025836910946999,0.8988448293874756,0.5900049159069964,-0.24942648281384416,-0.046882606802435944,0.32629333111096903,0.007650688862644195,-0.5832637225263619,-0.17091472083180692,0.613231928750694,-0.04157711372524808,0.10926657070857448,0.2629801199198063,-0.47127835144771124,0.21172380246849354,-0.4664040068577533,0.5952064795759862,-0.7769392921342786,0.2813917880504908,-0.3698307996403618,0.2812495304832807,-0.8859384698237025,0.736269600179928,-0.4060787005411348,0.2193522896671216,0.5518375737866661,0.8966793484538997,0.48576368285872196,-0.07769234645912704,-0.9785171174461982,0.9940725756693771,0.5729792701432022,-0.7891077830487139,0.7389296140014947,0.7032981338620887,0.2930626497108282,0.6844763847809219,-0.7276439782562512,-0.5220024737327762,-0.6397983014578155,-0.8555210867571446,-0.4377280781023587,0.3500944250898419,0.7695852467070554,-0.9518521596895382,-0.6165907598929876,0.1388612662156543,-0.9413293918780363,0.1279534940650624,0.8864279601686218,-0.9037777554207471,-0.912766917972994,0.052893290903377466,0.1565837811338051,-0.7506545028611251,0.7382663865793124,-0.7869893604749683,-0.9767288049582072,-0.5411277216229116,-0.6488914444645131,-0.8270151126089424,-0.727906918258419,0.5783202060613073,-0.9172295290386301,0.3371327726773887,0.3217031899728582,-0.31378713124083024,-0.8303824295932616,0.31476525431006586,-0.965409431299892,0.10241242119877025,0.7786699648435236,0.34520495375559523,0.5593831523103767,0.31912555468883763,-0.11491475889146319,-0.06009073997050551,0.933650717461707,0.8057294884597153,0.04974757528175866,-0.11116286290050992,-0.9702641896443804,0.21297478496858657,-0.24236374150539008,0.6481556802535762,0.49067883560488745,-0.06452666579107591,-0.16228635711368344,-0.6507727702008816,0.6140465939156101,0.04885619380358053,-0.4745105367482001,-0.008777678853483017,-0.7734095746263652,-0.9714924314176763,-0.5569907002226722,-0.7785640655172803,0.9301471618909893,-0.16862140237259782,-0.16185999432172515,0.16223897316758729,-0.2953650166632724,0.0488447958809366,0.6533774508156278,0.9906953145870236,-0.8664886676000849,0.2850405132070075,0.9094676652015323,0.6247757651177013,0.5772582530324488,0.6960684397936894,-0.6608664703508027,-0.0007846751719657874,-0.8735095851861607,-0.8992351250431327,0.6301146336325245,-0.009535370269000865,0.40300178218858385,0.32792346099271663,-0.8157248144701974,0.8254112037032209,-0.13863073810817772,0.6406336605731995,0.9621316034081433,0.18884744385694097,-0.8568943811548695,-0.9876137643311269,-0.822332586959476,0.8104341808328206,-0.564892913089063,0.6984215784678387,-0.22937339207232954,0.6888085445198846,0.4924854712198057,-0.5733106507243213,-0.10733496051195024,-0.1621648835673959,-0.7432644157976984,-0.7813241843941889,-0.40789083959958994,0.8999385247407354,0.06739100843141799,0.6008529566603076,-0.24947514248288183,-0.318748171913831,-0.5382397828460221,0.9594798824193962,-0.8895671912902934,-0.04625948501703414,0.5511382481037517,0.44707898117079337,-0.2725140665450487,-0.327084375005525,-0.9293186508083702,-0.6870325963711386,0.985956579378509,-0.9734385426815715,0.9215190589639595,0.3458483857586927,0.43587351101170446,-0.2749924225541025,-0.7602137294222611,-0.18261990647100124,-0.23983904041761495,0.03202737839127945,0.3242336565704238,-0.7853658266218488,-0.08817029303470081,-0.9062472734759002,0.30366157248744274,-0.7438098161017108,-0.9152726031716418,-0.49104056586535716,-0.4599242400369121,-0.590683507548428,0.926700118601671,0.29123971598642173,0.5385174696180006,0.7142068753299773,0.7377727575363218,0.6711969738794799,-0.4479237654175474,0.13304600172655912,-0.6981971573426549,-0.6910140993166589,0.09082574453582426,0.2239959797963027,-0.160315192313087,0.3557889061892783,0.2682269473400969,0.8312775651419875,-0.7838773275204383,0.11044874548124195,-0.7872611677433508,0.2497031540443242,0.6240497120370896,-0.5628205399627855,0.8628689590491141,-0.6822017566233285,0.5521422721740237,0.5819230845207937,0.8520720106854429,-0.41825846418158585,0.9260293297278572,0.06841042062352942,-0.5333751943784555,-0.814889047503295,-0.4930840934031524,-0.8580505611003848,0.32984755358113826,0.19362187986799162,-0.9589647739613412,-0.9595533834578762,0.2209225621261326,-0.6642471140646875,0.866376547251698,0.33595800021379807,0.39740611005192195,0.3900262854591663,-0.7940092370830283,0.9285243590356314,0.264512725273768,-0.6042672474984618,0.9753151172561632,0.5966241392296303,0.14659160421496553,0.35853245011162826,0.7112093562158592,-0.15516084163603505,-0.24664656546774122,-0.1964746560696624,0.9056854405259833,0.016472144711654035,0.7979246702255294,-0.3003218286797429,-0.40486284122705474,-0.6828372038096342,-0.5285090481235262,-0.26934712769384994,-0.7345807563419142,-0.13610921217999694,-0.4823043523841122,0.7834925489075979,0.06660957931993128,0.978852174516335,-0.6664251616993444,0.861528693126782,0.9669204463122143,0.9042058422788681,-0.07035696400809677,0.387684742962521,-0.05769247027044022,0.5383815800117544,0.2684464694559785,0.7053291743200636,-0.7780509309860788,-0.4899570938045321,-0.3793547520984122,-0.05680856456404326,-0.5942670183981873,0.5133497748789497,-0.8234568803550628,-0.5978057088256588,0.622840561596151,-0.019318552528319266,-0.5865730147478421,-0.6262082871974441,0.6163468131307361,-0.3990770707230977,0.7533223917227287,-0.687877737426593,-0.5488978159398368,-0.5273405869194452,-0.3759425504002416,-0.9651733857632507,0.5302436189620603,-0.38660337001288747,0.7813350587590073,-0.9040685860825759,0.29295360004173654,-0.8326660942524615,-0.5790738561698063,0.2464190657894112,-0.9380424929509465,0.2010312598702484,-0.4415033279466005,0.8406017432111152,-0.4090660412889702,0.9436820654567937,0.08969070959163705,0.596589480745457,0.6222549845851,0.32630174913526977,-0.23744808468061374,0.5660198252459332,0.1274936876494399,0.080192860218117,0.16408791258835453,0.14506545117066683,0.9962613639615348,-0.8740946297710885,0.19384702217037164,-0.7349592514451966,0.3549523599090292,-0.78227101333874,-0.0656654881290133,0.09051536086557777,-0.02296289516665695,-0.6676966658322403,-0.6971514585574843,-0.7537529170032804,-0.9222282964184774,0.7125905558472976,-0.8858561023180407,-0.9826614692375681,-0.5470975010704606,-0.22203102054116242,-0.5031146645988622,-0.5185726580271655,0.9804370450628701,-0.9909925328149853,-0.2266417255843498,-0.3579578233137126,0.5250097011980577,0.09211000941752623,-0.793647153596905,-0.4579573769514611,0.30020486955594317,-0.974440780160243,0.9340339842309913,-0.3451602747789342,0.9992720681115634,0.07284001071006418,-0.44775980654706915,-0.6351445751092548,0.7689417986596512,0.7794111510565522,0.43469256866328454,0.9615983753844368,-0.7300223916156314,-0.16734559079503253,-0.6956272483781465,0.8507769539706262,-0.4295614685251685,-0.2506785326946783,-0.3324189776023436,-0.18216502431012493,-0.612499041726486,-0.23258736449785777,0.8828554709756546,0.07547495023138451,0.5965639876391751,-0.21119138423858708,-0.28754276157170366,0.6670013370863903,-0.9238892022940544,-0.7905451961671393,0.05047427074074484,-0.8863073939173316,0.994139300291188,0.43500118621436323,0.23303059215679234,-0.21794568552501925,-0.3534029819579856,0.07484693306084544,-0.2293205785388066,0.2721267236959397,-0.28493305612033737,0.5165402932357259,-0.2761168449908533,0.20460128986625659,-0.5380988100864834,-0.851890197909257,-0.7052952507202725,0.6844994461647422,-0.6089309428893208,-0.9636304125365065,-0.59041771545377,0.9569336971399571,-0.5109907164970049,-0.8007901427997237,0.4796128025021935,-0.7934743004496569,0.8981062146669796,-0.4477933204990201,-0.5436336879835335,0.8890476271920802,0.20886472969996728,-0.43566557864313094,0.6006617234366693,-0.014964796263480462,0.21494177412659665,0.33521950647092424,-0.049947169496599386,0.8532926083710493,-0.8303394061965728,-0.6620478551052442,0.9666657953771449,-0.5233050497605451,-0.5237154979123986,-0.7737492611106482,0.40763995640705364,0.11015724543924632,-0.2137367579244458,0.6114418430455459,-0.4999720067222162,-0.7377548721933378,0.5698320439883777,-0.4433940926118449,0.23973414535029391,0.08869016902464777,0.6681249397544504,0.48364579325697576,0.6723215713428461,0.8571825531105342,-0.6194041582428373,0.6852161094509612,0.7582020230062674,0.3448651730543255,0.9440634682427702,0.5874561115579029,-0.222252622136057,0.39731744065398233,-0.747252035791965,0.31693644348688155,0.8314022762345643,0.32507381818340564,0.35247002264989025,-0.43962127311873944,-0.8497928436504778,-0.013325054164972983,0.7608558123042894,-0.43516013305967194,0.6791990856373631,0.8811741760300569,0.4626414146232727,0.9090666393024689,-0.7123780115700429,-0.20953613943883642,-0.2605657281377276,0.011667602738721694,-0.9105081327590958,0.9114378534664671,0.8213620171230285,0.4778206249972228,-0.05378863697290015,0.4026620305070918,-0.36517285013512213,0.6166425768729766,-0.2555284125483288,0.06474233414692554,0.5623494774609012,0.2701815173073241,-0.018365420190405768,0.061696846118895365,0.05094039352120916,0.4272437644775895,0.2882381850043201,0.8090636815494019,0.8735125206882914,-0.2660385811591177,0.49829880717238595,-0.016151816031194866,0.9458388747318183,-0.4510616856554206,0.9654280388334731,-0.8633292565210304,0.13929760427651994,0.4139930378605401,0.2206202633720813,-0.5955339832688953,0.6811326106191036,-0.5814329202068604,-0.5710052018174148,0.4617544939303566,-0.8620782043610666,-0.6147463502976929,0.8395087970022166,-0.39321891738405457,-0.4524926200250041,0.07444190062643363,-0.3073284719654876,-0.6526575456222141,-0.03319438410078801,-0.0819381170661897,-0.6730521504302316,-0.3650125056417881,-0.5536112620683404,-0.057641609568006125,0.14791806257289997,0.18523252374804056,0.10411966499647862,-0.6559261642374659,-0.9877878134272606,-0.08270660012942121,0.654603690905772,0.14013038790232102,0.5510246989458989,-0.39518615896638076,0.5049184075110293,-0.3743024723412369,-0.7443202541210039,-0.7602226828656042,-0.8340250961717928,-0.7563280582016461,0.30189076665990644,0.7945294999650638,0.4232094456318185,-0.4275103887363554,0.8814000823578265,0.6326364818886177,0.7013499820448983,-0.7259525741132635,0.40651502087442726,0.9223485476868971,-0.372723099275309,0.891824457443088,-0.1655012760336656,-0.5961591673366913,0.4502193755277677,0.6072712589519376,-0.36200779660623716,0.3730543040716663,0.8759933516490648,0.6890474371784943,0.35672468485113695,0.5809824455797026,-0.399920479185639,-0.20996842311366137,0.5709353847043852,-0.5416591803000488,-0.40815595481210387,0.8779924217752599,-0.006929327355443604,0.2861647487233885,0.9806420574845469,0.13716551137460797,0.34427974717478405,-0.3654172933974307,0.7242875361766057,-0.4532421230706438,-0.049533144357667425,0.8875635306332121,0.4655832560148778,-0.29354991008667275,-0.23955202482432636,-0.1954277436191152,-0.37981710946058245,-0.6743420715117296,-0.27015769659433575,-0.0470884551966515,-0.2694968500384487,-0.9105204055106975,-0.6772786545635334,0.7375697892378295,0.9129359137809088,0.4468844875974254,0.027134125402368703,0.14646892765262987,-0.694159534487043,0.9795521250585733,0.2672684701778887,-0.44656631388239987,-0.373560238485223,-0.025158661010185046,0.3248559297228657,0.3760910356251541,-0.2482902354342933,-0.9612741733779822,0.14147854794622194,0.7146938606218183,-0.9900228163786253,-0.8271026494215166,-0.5391434054728261,-0.9019149280145116,-0.8001993397482163,-0.35764532951175676,-0.7834170790492072,0.8259560179019485,0.09387284864953838,0.6608744108623807,-0.3009959292753517,0.5132293167516444,0.6597770645099912,0.8685672227143453,-0.9356655644720493,0.4881232463768841,0.6797302724439049,0.5757635983634763,-0.45337187007486257,-0.08777045414512363,0.8280425734031716,-0.15440966319629634,0.2602586438585335,0.842962570229254,0.507174122029157,0.6146414330218195,0.6315039090155494,0.8353576469594994,0.7957009827426083,0.6562578380421331,0.2847943852490178,-0.9331063352953395,-0.8227728926969435,-0.5642481648999387,0.883444917157389,0.5692831987307474,0.18621224388242563,-0.4083267399569559,0.9836364010716978,-0.07130212576100137,-0.9665008961962607,0.5622116794531515,-0.2251401295799056,-0.555991025512208,-0.928901327287075,0.20184499778764442,-0.4824089586302809,-0.779008491288665,-0.9858905843433976,0.6823437386311682,-0.8903908244618428,0.5663102997452811,0.04142565503256357,0.9804226731946639,-0.3910245201401392,-0.13241697458847668,0.638168228865144,0.2877097696507178,-0.45902361480726084,-0.7087274878438587,-0.004992547387062896,0.7765291869595816,-0.37542525997588294,-0.9353158990478363,0.6805624554387286,0.3321019118272206,0.2193572008878122,0.7889204152469351,0.19859038031242315,-0.868221315204202,0.0271670993141071,0.017336860877851468,-0.5716689312175429,0.2268395584769185,0.25240546313808254,-0.4075553059703916,-0.6128760669316233,0.2749393523093886,-0.8235255277210398,0.4131593098242927,0.7019575107440144,-0.9647244533551533,-0.6375649036057256,0.4832307284987807,-0.44979195978865105,0.690440575349506,-0.4062929849730832,-0.9939198677846353,0.5917980466362964,0.18956763817213007,0.7846660836117763,-0.9746710789989406,-0.03204521358639534,-0.057813641178900976,-0.868335289458503,-0.7812856432761475,-0.07562853778962131,0.2605870583229062,0.0845949292634871,-0.4441514535812141,0.5541174257633772,-0.13781092699229314,0.4355364016815355,-0.2086277328631061,-0.689056279041731,0.33629403883010145,-0.37819615835030973,0.4424876961013098,0.3576284066111106,-0.0462626277994973,0.06809335842374997,0.4871576559926112,0.6489947723486833,-0.31274979972448946,0.6695772304275955,0.9769436139728991,-0.13102232509781153,-0.4474501452297681,-0.06740697948816399,-0.598031541048603,-0.28781309537867195,0.9762424344768386,0.5393325207787218,-0.7127998739825703,0.23549348326805797,-0.8472407876843651,0.9473758952446798,-0.8756067940582279,0.283487393968604,0.945427505219353,-0.17468331267363624,-0.39064649112206196,-0.056563066237024895,0.09571090204576471,0.4632010818019845,-0.49364663667588715,0.07937479256392876,0.1473437956160124,-0.9613540372552567,0.19931741745272546,-0.19854669341430675,0.5206306159884626,0.1546424113998235,0.023459240229561473,0.8411452879131014,-0.6062337692081297,0.5998889359251738,-0.7152389132655155,0.5914739204056594,0.3363738158942451,0.08606497185949546,-0.0975206989928763,-0.8914484489444501,-0.5264810636778798,0.6592117163987079,0.27955581092474224,0.9518673774141964,-0.025474749997699053,-0.17375066287124952,0.4525484491413132,-0.10005024208004354,-0.8612035420176674,0.5366140854415224,-0.3897630368208733,0.8290517569986582,0.42344143391903355,-0.3886543555031041,-0.6626890743005056,0.4013838388837585,-0.4668017305437222,0.7564969484055988,-0.7135881242731661,0.30862853380084987,-0.00907039622136585,-0.02419010686001366,-0.47823029576747444,-0.9616059626803248,-0.13650052084431286,-0.4971266244633976,-0.7855870199574309,0.16515821454308277],"bias":-466.1297830541669},{"weights":[0.7926438234858453,-0.5552467159446333,0.33627645753039914,-0.39219256418262205,0.7825290591614511,-0.3419856418686562,0.2645187794619206,-0.35205865348265775,-0.480096206063914,0.4160191371546702,-0.5670743582747177,0.43728357160391695,-0.8120037082777656,-0.15564799071967794,0.7780757951923638,0.8797414950411637,0.040693620701391264,0.9321650560983419,0.9308174904398556,-0.6647288981243578,-0.52361081803932,-0.8878076034485751,-0.7729380806250377,-0.9648435674271898,0.3033197516351205,0.09957120463309099,-0.7238474526890148,-0.6626245526021637,0.37177906731315247,0.8344727689595928,-0.1422870916212653,0.4234885340773267,-0.9267268772360922,-0.0918736701748557,0.8594919410439545,-0.3397019451329708,-0.08403919660573544,-0.14536075000274362,0.38569168336445037,0.5437413479915683,0.4938807140251109,0.5148255334490774,-0.0856028674343996,-0.15735740602539394,0.8011691406736667,-0.4365510813350415,-0.35135818659162066,0.7806915862694912,-0.45234293336694353,-0.31094265629917395,-0.22469635226831564,0.5328340028189484,0.8138648197033915,0.49395694118599165,0.7361825588642446,0.23278295488336598,-0.31460252246891107,-0.8535209607908727,0.5992739395803257,0.8937651909592774,-0.5097322140515175,-0.5205117302133537,0.5829552882255249,0.19506173987792108,-0.6215217698861979,-0.60876761802594,-0.7323805968786083,-0.604525147004555,0.15519655188900217,0.9988063906727103,0.05002234590944976,0.786508472398117,-0.427448918206605,-0.1572656740642433,-0.07293789658485128,0.40667550844540434,0.09580417172284994,0.2503684104135524,0.2919212409271452,0.5519408612294661,0.05986563246255017,-0.8934577255009466,0.49941650668582316,0.24730325926489272,0.32179897051686845,0.776420076482943,-0.3727472712856357,-0.9414934792604375,-0.9340619338855771,-0.1827081658216798,0.9797256874358142,-0.7768005314474489,0.6690184421610414,-0.3361549159381285,-0.48479837679483895,0.3824259545208699,0.11396328106034392,-0.18015492354248863,-0.48863440129434244,-0.5591495918747209,-0.18187246665402634,0.8389862117244027,-0.9695314207270527,-0.3391197251586928,0.9504451092540775,-0.9837242071417158,0.24364794479554908,-0.7021439749304719,0.5156139770014607,0.04422440240934167,-0.6108528333776766,0.33841514215042734,0.3265262035566314,0.2185988022866754,0.3165025055942938,0.5457188452554034,-0.8108255901281742,0.12736552679009572,-0.5992233089502625,0.7997975959099413,0.9663981722812545,0.4463432158615377,0.8881626560799942,-0.7721927501177515,0.7425574214563402,-0.3566222533651584,-0.2121330498007059,0.7800768168515524,0.9677435174338984,0.2102168746916404,0.7599338826615036,-0.6834333151213756,-0.8796912820441785,-0.31269085184555934,0.2590644072862549,-0.04609097340634527,0.29579810365373804,0.40079370540453985,-0.4989627816414175,0.3261109269918663,0.007421530382211383,0.8608219912704382,-0.01722596086547412,0.7477076798318096,0.42094595417534375,-0.7349583572835154,0.2190544755744659,-0.043053151411594826,0.05434139661174342,0.5169590016953105,-0.7429944052200934,0.8776005343110009,-0.23589908001971427,0.4272044183215229,-0.3555457586676307,0.1368086310380603,-0.21405597746295246,-0.8263931814170324,-0.4715799426196443,0.42751658931325665,0.6244533314130134,-0.9307775717086755,-0.9683338984465482,-0.6790869721403991,0.4940167884460407,-0.6446429673464582,-0.7432755912975981,0.0543087580912025,-0.019266867131962684,-0.10518444210995659,-0.09335031161069329,0.14458979656080784,-0.5299740171414395,-0.08818752186491796,0.3436363865024985,0.5069682163470328,-0.7110941226719558,0.012695399046524614,-0.27901626159300097,0.9822978673794238,0.054303865890232395,-0.7001732633464739,0.5053391762425594,-0.9976271202130187,-0.7286109623902086,-0.3454512771760383,0.335375402562593,0.12611054125531362,0.9896344341339822,0.12769648125222988,0.06417677496841812,-0.14355910761382518,-0.2226527908729703,-0.6145625783045316,0.18287958883717703,-0.3323545564465564,-0.234749883209052,-0.5305742438932213,0.20022553049149439,-0.46769766996441486,-0.975568150359575,0.7824070224816322,-0.15642677457020815,-0.890409567275972,-0.9880116879529219,0.028174270528027456,-0.44373720443901865,0.17871217529675842,-0.7133360375201208,0.5784433527840518,-0.7425021047338238,0.2781540674540719,-0.2721585229673602,0.8569627266267887,-0.18300009588603494,0.5127182663518832,-0.9452239503684985,0.3491968252508957,0.7334970398056266,0.9138137682991236,-0.353601896689562,0.16374050003997231,0.8508545117511939,0.7311259563931229,-0.4723728471926427,0.9146512625699303,0.1407878235755633,0.49740001720005544,-0.9415858603889933,-0.1759410280057483,0.15001315755524347,0.5529881887927797,-0.406618250549061,-0.062451108191973415,0.5193969234046247,-0.016238854223439514,0.8071345775081546,0.11256740068557525,-0.9133271263625744,0.4120246699792238,-0.3256074951160137,-0.7495705290320003,-0.6580493792010063,-0.6492281506216186,0.04952680952077726,0.14228205979008068,0.612350430137623,0.8750021953892482,-0.14547735748882662,-0.2905711570499374,0.6169617700270278,-0.8252047631800705,-0.6572124649453213,0.2108863711299267,0.7155563725392389,0.27591285001496013,-0.5368219727905705,-0.5506099875120096,0.8148690659602993,-0.8790866353001898,0.08143632871515916,0.23301741816659938,-0.33598811137706575,-0.8836573746495495,0.44468855738170365,-0.6169885382213227,0.6009290915537808,-0.49193840737964667,0.17326196890438972,0.056832389321136656,0.3377403602341804,-0.654501119326099,0.08001025971013753,-0.9676319007070937,-0.9949129932916208,0.8302397907369268,0.16975435942980344,0.14446591360313565,-0.37277965048511064,0.2400073747964604,-0.35009712532645887,-0.8617426436052695,-0.14356194532898314,-0.03606674099885465,-0.922848219247629,0.813876803564443,-0.5932534497991817,-0.29667471333322615,0.7564258797035541,0.16377948866128111,0.9434501134372706,-0.4538776585949109,0.8163513199361501,0.4501404391522188,0.16588681606439737,-0.6580830673283344,0.5260089748328016,0.8240178118981998,0.9372897906615165,0.18016276402786513,0.9463008281973502,-0.4929494573286193,-0.5330905843772253,-0.6522826353117765,-0.6035088969991924,0.7753353371693255,0.28436376775345007,-0.6628421394766297,0.45290956252240955,-0.5854697619555256,0.5113454515538671,-0.04851599753721425,-0.5577786407274452,0.04050247217526515,0.4916771492408363,-0.24775092043203273,0.4734964673053179,-0.811076926401654,-0.6967848932178367,0.9817094948307181,-0.586316196198819,0.45214473181975245,0.5904897541937411,0.39121762279671657,-0.1450868769537066,-0.20554621440276621,0.6980201674519386,-0.09744668232625475,-0.5075735036538487,-0.11967412379523479,0.769310873184283,-0.7376910305364568,-0.2382530839929209,-0.5583188402089476,-0.7213265157926378,0.10003175987878699,0.5419599094321108,0.2791396808652187,-0.759740054279856,-0.5577722206539106,-0.1499355837820402,0.9650714925158268,0.9686497642533447,-0.1702714999830337,-0.41239759067207915,0.22300500098690001,-0.6459650102929557,0.2596399888973089,0.6506011162935859,-0.5119464221593528,-0.16649126493683708,-0.4224605194517732,-0.9567748662718034,-0.3433419826065882,0.13080590352009924,-0.5020666153564957,0.586321207216872,0.8639706725483389,-0.09698395518406766,-0.23321965783516063,-0.5219503209669933,-0.021882093125138447,0.9687710424082487,0.9721294685773891,0.6835334671960971,-0.1690004931327138,0.22013132801425517,0.19321068853182544,-0.7770695391460603,-0.9970530261900414,0.6304154578474663,0.6112155952846585,0.7528814414223266,-0.49874210235555516,-0.6072296864894189,0.19183387493138326,0.473027372018501,0.7668430181793959,-0.8620674150673064,0.8460727401948414,-0.05490692731833002,0.49320727472319614,0.6729930483146611,0.3843990443327514,0.7784121225560416,-0.24125824904252857,-0.7577614438873388,-0.4780749020505266,0.9546136052182161,0.5659175067894031,0.2896425069518669,-0.49899807922478256,0.4927383301633075,-0.7284376886369035,0.0017230905060050539,0.04171487297962484,0.19853028009481744,0.3295842784502061,0.4811811308990044,0.37134382424328827,0.42372294525029286,-0.6321085894990679,0.5911381991306257,-0.950508945266427,0.03395550750298648,-0.6442050129856423,0.4691378304305065,-0.19761923900397127,-0.8441198078930148,0.3706481456102666,0.9641891441586798,-0.9088827915196429,-0.7956578635424854,0.01778377864284053,0.29810328160684163,-0.7994348933337583,0.7837888147176257,0.6608991681290917,0.005080862849655254,-0.533414740240413,0.6311054987585933,0.2050423569219384,-0.15624627408972014,0.5049826959600954,0.21942310806742293,-0.9926486961900225,-0.2622563904271997,0.9666117705535271,0.23840356604639812,-0.5111679592242191,0.8792078949784261,-0.6067625317860244,0.5550707600100488,-0.8704684928555899,-0.1452415246506793,-0.3650718778742661,-0.3661278603436826,-0.9011113449755324,-0.03640383064327146,-0.8572479814757661,-0.6937419336773498,0.8737319397804009,-0.11631448642540443,0.8581138585212167,-0.564785538369279,0.4812174062219947,-0.38969404458541046,-0.13111969919371091,-0.9129723697512304,-0.4930726781834611,0.47365390687081366,0.12018440373861461,-0.4131511387279998,0.8056459903886082,0.9915989963520611,-0.8330762308594597,-0.163263406387113,0.08539275746263808,0.86411173145936,0.10231618050844471,0.0924244288422722,-0.9375700869538446,-0.804995927580122,0.22494588245647051,-0.03808904044699579,0.22912484333639682,0.43287764020839825,-0.34624511694961724,-0.20644859499148938,0.41110554443987635,-0.7608967584174451,-0.23732589796901715,0.4351896131257553,-0.15851450708530423,0.35698581317340805,-0.9520903007870092,-0.02233150042418508,-0.8250741126540788,-0.1446736291393611,0.10415545726368647,0.03260048960901596,0.1657179323283855,0.9270372786130063,-0.5270946270989896,0.3010790667039087,0.7059081058804075,0.6182226224928575,-0.9298913705062137,0.5977078877996633,-0.07133319014165584,0.2752759422079971,-0.627595192160828,-0.5211157965443785,-0.7948933959709432,-0.6713198623875507,0.3033344369187616,0.8440290505881176,-0.5179534627345896,-0.40143872770233235,0.5625478630228211,-0.17486093884853426,0.40263439618153685,0.2947764736190801,0.823330158718814,0.001825633561627349,0.14978146627492528,0.3922306597681797,-0.6400832388945408,-0.6908629742796242,-0.9666073802558084,0.35241313222043313,-0.40856701970719245,-0.6000815283827237,-0.648246464278349,-0.9427591423822288,-0.9849379543568779,0.26007684532622477,0.8933704916856158,-0.6480819816902916,0.6526897800217966,-0.6134403734839498,-0.3548293316919162,-0.3154898565766189,0.09439635915575462,0.12114388780441931,-0.6740476832073252,0.5295718418364412,-0.41544155399833427,-0.7853437475819001,-0.40356529646865225,-0.5448806845956047,-0.760234642866672,0.3846116460524329,-0.8451052910786925,0.9630044971337219,0.9925153489315983,0.03910553328302191,-0.3377801846988704,0.2819559152761739,-0.3177425354275272,0.9782498528152539,-0.647195227974239,-0.9209933586000107,0.21321207328732195,0.2472183547912672,0.5737507831307616,-0.7374186657571591,-0.4181304424413632,-0.42011966561082703,0.021052243993789244,-0.8783526033721261,0.5888528286679224,-0.8171176181794144,0.6023176966583521,-0.010578920767818634,0.3801980019642741,-0.9279990610914761,0.9129623390358361,0.38191242936073433,-0.9719028214206791,0.9327049070829685,-0.7653026842635402,0.2347961762139925,-0.09223865652631291,-0.3123112951980218,0.5566699530907311,0.24578158559173202,0.03314729881441103,-0.29890429723971135,-0.21654858163952495,-0.47685021876329614,0.49799719574858603,0.713534622471157,0.40337362414177624,-0.07643833726804239,0.3873136160438717,-0.6562924265453547,-0.23280961202427353,-0.48505396957896973,-0.7738992524410295,0.5176088435164692,0.43817455422349827,-0.9222418468351514,-0.39531040044781296,0.3155606729785485,-0.18782444071758286,0.3110742336875445,0.2798837115975008,0.737885202371745,-0.8545402981552161,0.7880623767462036,-0.5531884798181288,0.6235331274244031,0.15214037670094882,0.04630488149508727,-0.626155195747574,0.799215972960579,0.6301617889196338,0.8930649692335035,-0.7119543626235547,-0.3601879783803512,-0.26494022043586307,0.8420526677526361,0.07371259154482335,0.9767421217985706,0.10200283633301988,-0.7562538836764476,-0.5377794317523557,-0.1285819298731874,0.6241156139102948,0.21229270407032352,0.39956708767104576,-0.8318228707209983,-0.02684149422035853,0.020165178853712273,-0.44098455076620136,0.3067109837933386,-0.30646158201039597,-0.37317272986259864,0.983094713311961,-0.9748574182967107,-0.9262418238127723,-0.19915617144587783,0.5663885926075061,-0.18462917712597493,-0.016349824568948623,-0.8992237984240323,-0.5271937096152595,-0.23246963501487095,-0.8224187328116743,-0.7663543416962781,-0.12649140653483837,-0.6700331805613797,0.4224355127439594,-0.5501135132038728,-0.9193531783431226,-0.5065986280845909,-0.502613555181751,0.6896936093728918,-0.6671449086506676,0.379717080957771,0.8066627654032255,-0.26340794169230275,0.5579009475163628,0.3294339783701812,-0.48367371700140405,0.8072147827045146,0.32153915796328114,0.46528269548683543,0.5275584253427241,0.6581243777923858,0.2289475162562904,-0.0897318302927057,-0.8781189541263559,-0.041403745111559864,-0.7837638126792288,-0.37067745348488934,-0.34878614231671,0.15897359164784897,-0.34455678934426937,-0.1516443588201999,-0.3851267804683096,-0.39001295852479556,0.5531226735736325,-0.656095312610435,0.81080186035702,0.05438000721304714,0.68116419648796,0.24584798015578535,0.447799514466269,0.7424665120091278,-0.5646853583952898,-0.4999686077932224,0.1969193071316373,-0.401377218418562,-0.683012825557396,-0.1739119202649695,-0.04876432214200266,-0.8124849717517928,0.017355233452589935,0.6110958090971343,0.41057106186959835,-0.7972848001639945,-0.05119880671956878,0.16085511613698822,0.5187683500174853,-0.14929956330183547,0.4430470900599359,0.9246651920501567,-0.19479657976810083,-0.8825820330750531,-0.3112275126365578,-0.5160251046059199,-0.9252701113704123,0.1879849855001079,0.7707049463523457,0.7450200806101162,0.040750668880719765,-0.30317837788442903,-0.43699203652539254,-0.9329269255897388,-0.33398831675003793,0.009717746105267988,-0.6486136939467246,-0.4524508505735585,0.04563822476996782,-0.11058788354181948,0.05060923400719464,0.2577808823515255,-0.9651306066621426,-0.22119784283794708,-0.7678728734411631,-0.097710727089523,-0.45350267355904883,-0.533104170393131,-0.16562437656211193,-0.7481210366365652,0.7176947846640958,0.27307222252751107,0.808763061763119,0.9413660941992568,0.25528468144819483,0.92098872593807,-0.44035361824542685,-0.7207986032192291,-0.9856504018125665,0.3703649513000231,-0.7249497278969024,0.765902121186977,-0.6870013845309728,0.22780545272467334,0.5284026083597819,0.4851693722367143,0.40634578383390396,0.37101381200829264,-0.06574451864500297,0.6372189406376223,-0.21443935191153862,0.9648398507400473,-0.3815190329592766,-0.42864204603728995,-0.8446166885662167,-0.2823859558386368,0.7082516383243047,-0.8385089206369307,-0.11229330640825452,-0.8272822034190068,0.040178745187381626,0.030516169536014992,-0.4381694135619747,0.41840074478030154,-0.7968426565975948,0.8237336871766567,0.10899421466660542,-0.6780487217241769,-0.932310960485605,0.6190505237468376,0.5940906962374526,0.572862084154623,0.8100686268391386,0.17990889617085193,-0.19139844915289084,-0.10350057086251896,-0.5784560093391509,0.5850889746573746,0.34091662558389624,-0.4899291092160678,0.6327059895657472,-0.08244028712893225,-0.18582579697478385,-0.8178282068492364,0.8567324213512997,-0.2247495483635853,-0.522815652054426,0.6984164727070157,-0.7184876293743492,0.5888234337264788,-0.3822125466554551,0.9331042935018519,-0.38771567304444865,0.4744587241014231,0.46879272619436474,-0.6806942766900677,-0.06340813029983217],"bias":-629.452696451285},{"weights":[-0.8259388347399481,-0.006013516206954339,-0.05848719508690792,0.4527958002546537,-0.039903830594900214,0.6363468274154696,0.5507046392281851,-0.6078750482281787,0.9496391911418285,-0.6962667391738795,0.06366499865680719,-0.11572600919288645,-0.3587066241227155,0.6026024127474248,-0.15535743382508294,-0.3500321706556284,0.5387615321539165,-0.6456466303972674,-0.33076019539632595,0.31400192126069726,0.900378854686481,0.30619224546384594,-0.15208662758695635,0.5340852970069263,-0.0008925539632467228,-0.10227983114556904,-0.35788520863940265,0.42861386416174696,0.4164629430685931,-0.6906413565547229,-0.15139747788012503,0.9772649744212898,0.7825917351679954,0.39814244001726395,-0.14459350675534832,0.7214901129588509,-0.8786071193824037,0.36250031822014117,0.3853597823013115,0.3682946401383185,-0.00978363219909717,-0.8731649517961197,0.46201091832313823,0.32634544511338115,-0.7350803189647048,0.9459031809622704,0.7849784016094117,0.48633871859897493,-0.06891515547613913,-0.735545002530456,-0.9775918964191024,0.3610785477251084,0.6914433454093878,0.17873863511297516,-0.06028235702994955,-0.4468478240281195,-0.24019398294651806,0.18095226121094887,-0.8562922216869384,-0.2864749123164354,-0.19047090594547722,0.5120256469585787,0.16351252423548246,0.5456812355781575,-0.781203040592275,0.6740583220594529,0.08086665006957938,-0.563842174327807,0.8948194410550028,0.36371158250891167,-0.06445210883707775,-0.6836639355588989,0.653335299556614,0.8477089958122646,-0.5880532036550803,0.8213109071473799,0.7333965631618296,0.527787368692135,0.982714374971509,0.9014435499349278,0.09137285794686889,-0.7442161079366887,0.12020206698597136,-0.41889803927712244,-0.4686526819200689,-0.9834108345952983,-0.7653859574128252,-0.3253681001713522,-0.6281576520428063,0.4319190738115526,-0.8068092886934553,-0.8565200724664481,-0.3958957614969374,-0.1505005478999215,-0.010861784349519343,0.32974586433622566,-0.38728622029538595,0.5060105601781446,-0.10363769685129931,0.07658941390996077,-0.9727585127353948,0.6518244072801753,-0.3018931081368077,-0.11266394106886102,0.22179114049999793,-0.6014549765601593,-0.042317588643754345,0.8670283169812061,-0.5361232217460081,0.44238864435250447,0.8315876531900126,-0.79333784058606,0.028243622404480195,0.6622659310773904,0.45187489378198276,-0.6694609407500609,-0.9272023531179583,0.6725685819734077,-0.7459400737539661,0.8440660520233583,0.8775496233402036,0.9612600860636737,0.6820464663165287,0.5058519594901845,-0.10688676442809486,0.21770474427914976,-0.4151107981660269,-0.6013375452376186,-0.1737474207308134,0.9212266779089888,0.7221225054752507,0.6953486924702448,0.9059497894868365,0.09021960288557951,0.15635514197833578,0.3122757893741466,-0.7253117142876717,0.4768052577932167,-0.29322058281099306,0.6697629204066193,-0.7352224174412996,0.4896773177892024,0.0513714777073484,0.9972595490397969,-0.20636414348390764,0.5163926703745885,0.2762488853018015,0.39119071724945753,-0.49075798638242807,0.505467241755968,-0.3396486895979214,0.17862176983961353,0.27701220106667535,-0.04605476244443629,0.16399389766811812,0.5173557697510223,0.705946402420818,0.3844102584657585,0.39560912180997976,-0.7532841814453999,0.692971791871281,0.43710612930068526,0.7845175278987453,-0.27344910762046837,-0.46541286518848857,-0.8956765739326178,0.9528941350542568,-0.9943473705071755,0.6826446503712851,0.42156598090843955,0.4467286116660407,0.30118163937149633,-0.5389414600730067,-0.017464418869924447,-0.183852701659442,0.4307168268275441,0.010031036603498134,0.11425119782500337,-0.1681014005952015,-0.8100755824140324,-0.23106653776341624,0.08871811397210072,-0.3805039189515407,-0.795077490790637,0.4569621501563832,-0.751937510776556,-0.4733800566049706,-0.3504505668542772,-0.014853378101518988,-0.7863371221958588,-0.976527127263898,-0.028019822935241745,-0.9424625845474499,0.8282195557279741,-0.3792723319533313,0.3036931132826921,-0.6912590148014237,-0.1894633994036261,-0.25299719025705336,0.23725398180759383,0.7282816469320577,0.4499775157259287,0.48690846063513327,0.7924006298252175,-0.9718398105354069,-0.5975394352175774,-0.31760079464550284,-0.5082497673438042,0.06245963220103601,0.6694012521866508,0.9132520664560029,0.11068739481514855,-0.2143738707051015,-0.9914043514510822,0.9496542500116019,0.29980237599244486,0.5102923059422091,0.39431522349497605,-0.3079524690524922,0.41849141107088794,0.31315700208007824,0.6256847666453798,0.20146334694012857,-0.22024854585240572,0.3644556758591153,-0.18183633220492412,0.2092280140680174,-0.08958905484693824,0.09199051893239574,-0.832497832939604,-0.35375609207512415,-0.6514661154718677,0.0020726854735353406,-0.3129184355671839,-0.9002975609269481,-0.8253259940204352,0.3970299170318419,-0.24468380535849832,-0.06843227488899783,0.68530899901504,0.6227053907383779,-0.004125481494540395,-0.18315380232208955,-0.34724419385636507,-0.24477328430262046,-0.5985333671041575,0.2729031597150935,-0.00024826542986078337,-0.29440414586346364,-0.46096374887884517,-0.1324907577014165,-0.9495427996757342,-0.9116006929988054,-0.6169921988216953,0.7371920991524394,0.24188448409653995,-0.8189273132017054,0.4596912305007317,0.6517363327501435,-0.23123552132328618,0.36589619174705,0.6893383995528253,-0.41011389597593517,-0.17980195658792386,-0.29204779572818307,0.36724680681866184,-0.9012491079377458,-0.4615983494259739,-0.5772664580242446,0.41829482667495776,0.3716162783149146,-0.4950949043526567,-0.5691243725228516,-0.600969142493903,0.3260144451297031,-0.6140199325204176,-0.7983630729264508,-0.8164999606860621,0.1877106691546091,-0.4838199018012852,-0.08462650490651269,-0.5372853382122904,-0.6064209012461328,-0.620269978881018,-0.7002890507041584,-0.1352616676522307,-0.16277454742898945,-0.09855594607278961,0.18586267533816514,-0.8815054453759701,-0.651545902975819,-0.11289910922931501,0.44701660189576886,0.516281388780917,-0.10811206805866247,0.8533983845539899,-0.27746442276473937,-0.5826035255542261,-0.19461264120064126,-0.4477810668868387,0.7979564690215386,-0.26276666508691804,-0.0836243629508302,0.02178232406229652,0.8069825684375536,-0.8473308530129846,-0.27751775064613593,-0.021283313064179854,-0.9223146350656704,-0.4805692008313538,0.43647324920001607,0.11138143629598618,0.5611525042258387,-0.7115722452117854,0.054125464791456857,0.7798415435539194,0.37010572073692183,-0.05206443371080205,0.6534829064420342,-0.3864877307577066,0.0945625408026709,0.6722790089879815,-0.0930885352978934,0.02567394674684742,-0.916068309400933,0.2560748673062738,-0.10917045453336893,-0.9197619193606412,0.4182259679211686,-0.22589714570224606,-0.6551333701041324,0.04776495508449763,-0.010936529829761898,0.8945193659336717,-0.5576228521160513,-0.9284618529563935,-0.6057778319871812,0.8249743551840716,-0.168288547573598,0.9999598228402253,0.8097261620513296,0.2842979975079314,0.722529205068875,0.09607021355999867,-0.9682758898097843,0.9552198678405244,-0.42612509289134426,-0.7149807962085504,0.6822135487924696,-0.3228931111869082,0.14650552150028062,-0.8847215371278678,0.5775812451643136,-0.7160112034309876,-0.22787019184315982,0.686513930792322,0.350761793640638,0.06853334616695639,-0.559802621878422,0.3543572411476261,-0.5003095378141627,-0.4964614355385182,0.8590908218843869,-0.3859731252049454,0.857476845166453,-0.9369257460584675,-0.7643721298800106,0.883861747676808,0.2552915033952843,0.9153583698384753,-0.9555465691474203,0.6549443686054182,0.9386054938720951,-0.4406307280231574,-0.5839538805505922,0.7274947286214668,-0.24418728730350736,0.24345603332596122,-0.46863867221316013,0.6325426737601769,-0.545531826127934,0.8849529073607076,-0.42758117914796134,-0.8707638471701813,-0.9744418484063746,0.6010427873185873,0.3008964376622978,0.15497681009788566,-0.28852953025776973,-0.5006629181872304,-0.1697076615609583,0.18672139728126957,0.13408770965370964,-0.7697491996500014,0.7204035426315434,0.010273414201281028,0.46676870390913416,-0.6709945065139409,-0.6246934760539591,0.525898157085972,0.11263090001050102,0.5311605966887156,-0.10060781044932687,-0.4078275240171685,0.305573300644443,-0.30799484188881676,0.28408479107452944,0.35002824890141504,0.6518071489666752,-0.4766462111614982,-0.6405482912860578,0.4668750281111569,0.22045133903985503,0.8205064921648155,0.9303058166570985,0.005659471831457541,-0.5510255555020396,0.2057596753238191,-0.6519626935000842,0.20440745902846302,0.4896923447059218,0.94267122188056,0.23351588585773397,-0.2550280704513268,0.29672619757534546,-0.420001030292358,0.971380523614835,-0.7157486792865577,0.49143729717131857,0.8348598949181287,-0.36660820680356654,-0.7197741830300415,0.5321023420721334,-0.5234840817621205,0.1975593281567649,0.10561459877805657,0.3277328960825452,0.9173328293461265,0.7424445326313194,0.782562017178789,-0.11753829766937418,-0.06457449021379835,0.8962700221203916,0.6960600713300016,0.9300210635912571,-0.6439064045789249,-0.08139986074046224,0.7954431505947865,0.8872123994683201,0.5683187859933261,0.32260696916451215,0.8381056864291025,-0.6924615161610994,-0.5915015121852605,0.6664487768392449,-0.11472515972804853,-0.4824260942359402,-0.9601167146332203,-0.843845231467578,0.09551823358826672,-0.8305684042975359,0.9856048735941005,0.9767913599225588,0.2862418548494787,0.8240895664880274,-0.2662790918983675,-0.1385347824033878,0.1898127983082487,0.9027438834343484,-0.17441581277049956,-0.8630562798684771,0.28100452801813214,0.34320453644283466,0.2559515446384073,-0.5216766116168512,-0.3630788889046275,-0.21267443019315602,-0.8241751159502533,0.9539472493832273,-0.004772528240305274,0.5882881323101157,0.4820928740148056,0.4816388460149499,0.04307043384253628,-0.6592351130594682,-0.3097450295661033,-0.012323332838547696,0.007299572104333407,0.040949467047074695,-0.8178699116228993,0.5630604565941746,0.3988580711758756,0.8856031802776889,0.5729156647702198,-0.6467728137180284,-0.8469998080796746,-0.6079343039413638,-0.7090046437306974,-0.2612386773002795,0.33454932109909663,-0.7804139072875791,-0.04622012911358153,0.23991316580019584,0.3645852621474086,0.23667372621006644,-0.3568834355137165,-0.07176867647022966,-0.4855258729232541,-0.9835163992241305,-0.3310815460482841,0.6163479054908434,0.9950367450252924,0.06025044067347585,0.2809199952071868,0.14617621093798006,0.013593820718564409,-0.27538825513492515,0.5632267108210316,0.3131134768044017,0.9567867332796149,0.3301698210224009,0.6691819172791389,-0.5326590126002326,0.9430460677338215,0.8479513645421752,0.7795214502789181,0.13846829362169633,0.9766340985181401,0.9559758822358209,-0.4505594327639062,-0.1642134454261739,0.11632956215405033,0.98015172266085,0.5905796628887638,0.9419453656160077,0.17754569825514022,0.7823632565837304,0.8132691793993421,0.4629209555496687,0.8833783531164721,-0.8490788659142332,-0.2519559314745341,-0.7521066891789108,-0.2376767056561535,0.40689881357328384,-0.8156972588470288,-0.4242529551761032,0.6687833952558409,-0.32725353349281594,0.44059292041026055,-0.9651882966212249,0.6728678975680293,-0.9751908301270218,-0.36205127491245026,-0.9088255729821961,-0.7195779203180259,0.4471833441666173,-0.1719805822352347,0.47068669237625027,-0.588964442351851,-0.6832676128083404,-0.7587105512649632,-0.514750189463189,-0.5955398207197686,0.35087401590720857,0.4015839627856317,0.4905498733734728,-0.1631645794437615,0.41753458649884045,0.011601736917032035,-0.35470975795476267,-0.7511631166991752,0.5144488298953758,0.5277965950897148,0.6658025192420385,0.008344391854621325,-0.020832733333277176,0.34950671880431017,0.3461445823723692,0.20738881239122708,-0.9387943566089199,-0.4828857614843094,-0.22451775000584595,-0.5729520507300099,-0.4670492544272622,-0.6461776731867794,0.281757352279949,-0.12153552986169425,0.17467137655302878,-0.4990184345641602,0.7453787977332249,0.643708539786874,0.47075575184741325,0.4503294397062909,-0.6702580648064513,-0.5174663199300569,0.6896995898785541,-0.8704517227692166,0.9278410098967811,0.8455269336177622,-0.4930450488598761,0.7809580430309215,0.03258070787151146,0.6722661810168638,0.5561541226440494,0.8844711727031207,0.15172469002299893,-0.7170463793808155,0.6188254909453534,0.370435714235001,0.6026734932791182,0.1053345364369922,-0.3677343217941922,-0.7116301950501911,0.3916413397048846,0.23675133637740187,-0.9845509874977063,-0.7862653033988516,-0.23731440610781762,-0.038813658108685534,0.145896552933789,-0.5859774060963061,0.28317904400562055,-0.30258248233339735,0.6067027149948006,-0.4915849604722067,0.4761687932346321,-0.04877424907419803,-0.45386994921828583,0.6997142858618028,-0.08123936928433384,0.1191437112455156,0.2645677302229461,0.16068493791073868,0.7604636951855444,0.2842001095510889,-0.7893473767771,0.6279367403555534,-0.5989042499205777,-0.69070249348714,0.05080529599903949,-0.8292637489258787,0.8459058273210918,0.02011896870839225,0.8761259606747585,-0.06884217721958619,0.12578654938772216,-0.2826765260878328,0.6728970971302695,-0.33793428368112055,0.5479936086234063,-0.9015107235246544,0.6538299128365481,0.13408808861425925,-0.9589085086583062,-0.05266526105527669,0.5664037892581884,0.8912870059069866,0.60944109078339,0.8255436611219227,0.35060150859108896,-0.7754368569460715,-0.034119930140619203,0.034629311737178536,-0.48294597411201057,0.8467515224599875,0.2663162102390477,0.550644797734309,-0.1618470506536216,-0.9447913401057035,-0.6305965313002271,-0.4919500269800534,-0.09375474806862583,0.2689281544563418,0.7191718967049447,0.3354843328215229,0.06715637772035477,-0.2086235001584984,-0.23568188193675654,-0.6213250702037914,0.2368168408130238,-0.7413329265854891,-0.597970884143586,-0.7083988087735693,0.9544809284915607,0.6416826294396314,0.16109484813357255,0.3549714250488303,-0.07530018663518367,-0.8637884771353366,0.3168083556533894,0.8518257339055255,-0.7498788487456243,-0.26787690541994413,-0.9134564589975311,-0.2459600748784858,0.058493445158660506,-0.6544668960272761,-0.4581319436815492,0.9188305982548561,0.5316638577083479,0.3613308980808898,-0.012155259040953936,-0.34594357651122554,-0.7707889035408821,0.5018643418010758,-0.01030763281914071,-0.48099934431662605,-0.889197543056889,0.28620124201579156,0.15077566524731312,0.34224182531799086,-0.38619775507883825,-0.16277352616115248,0.41153392976117154,-0.9898627181547002,-0.793067883355111,0.12446081043466029,-0.688854413704111,0.9479446686593254,0.23786572788415095,-0.5639588429499751,0.36167641771730485,0.069830128673952,-0.5745333978619596,-0.21244651729812158,0.5507792654001262,-0.3421153830614152,0.6706865643417097,-0.18071607372005571,0.33387376726619955,0.902659948405335,0.6469427183103726,-0.20358814532821334,-0.6781966403926463,-0.5702310873186178,0.3871120879003822,-0.8488910523772875,-0.0648205028957256,0.018450466268499444,-0.5982568674830655,-0.7718557816522233,-0.6063674036476225,0.35175720843432323,-0.6315134325013632,-0.12460984707792022,-0.7900603124130439,-0.34463892337146484,-0.03039997278153539,0.843868067482171,0.9237707794896375,0.17301239393812207,0.45909955412624326,-0.6710100121240608,0.13003709546961684,-0.7509358790091385,-0.7664082822164091,-0.3042905534317626,0.8579856403204613,0.9321263739977197,-0.6911444346305484,-0.9234856621113607,0.10276093579151269,0.4537459973122475,-0.23622674483797823,-0.08675254935667587,0.0015406567294067308,0.5636284590260643,-0.6041600556813274,-0.2583084889873706,-0.8360627084689658,-0.1131667514507444,0.5939831544212177,-0.4332897254703778,0.3843823593370441,-0.34918666983216085,0.9916421484525961,-0.10404532524114574,-0.1283888749918236,-0.6488960568325002,0.3856081718760347,0.3583546071650936,-0.43173621224910574,0.2225625564270004],"bias":83.02671678957984},{"weights":[0.8239922638043926,0.680777914099532,-0.2397607975581777,0.08124923852805699,0.6724015043411482,-0.040946677020266886,0.07024004372949433,-0.3395267165578275,-0.6488345441401688,-0.5443786744984296,0.4376782973525182,0.830717964418477,0.5465373318845708,-0.6220992397892715,0.504752460484299,0.5121229452129494,0.7937689138567308,0.9082839935331863,-0.45418792009672426,0.5010108131929312,-0.8963292995901786,0.9746301908172916,-0.6718239247593076,0.7080682919299104,0.4650285297580288,0.2057179735547865,0.6594691144354341,0.5812790550618532,0.5907406366349628,0.8581347241407844,-0.9228267901277967,0.018028585715260448,-0.5958451541182641,-0.21705038973118862,-0.5280659267152186,-0.9971038327996933,-0.8616204951135824,-0.5102430121254837,0.9181930378868937,0.8971807613504179,0.6124336504098427,-0.2526341704602113,-0.01780168023996831,0.9553623273497527,0.5306602719028066,0.5545957035904014,-0.06422103019598158,0.37682795879644093,0.7245945044391444,0.12612143806471643,-0.18818940607724288,-0.5153849479971289,0.06474225757113361,0.6198648180930655,0.4694803792621851,0.7324287867876351,-0.6925725906670492,-0.07540698771980514,-0.688101556261969,-0.5105830664729152,0.8198129371768896,0.08450005296239516,0.4730529584428198,0.029455708838733052,-0.7913783424808338,0.5769514292330391,-0.44544042040358667,0.4147543474181479,-0.32373812677252367,-0.2564938689917198,0.06937706626606,-0.3283442989051122,0.767943547640475,0.9271422851412119,-0.18839153287913746,-0.7836696183897653,-0.881886387487619,-0.7331565143458785,-0.7414426921652626,-0.4674487757589878,-0.5665064273680032,-0.04633226566602344,-0.43324711170167207,-0.9823936948925929,-0.9189058106678725,-0.3836170028145047,-0.416542297985234,0.471539433232552,-0.3535477823222841,-0.11762824520712112,-0.5066356952573705,0.9696236473792679,0.6766937059635358,0.9981289828737032,-0.2542975391665636,0.612467956277404,0.6702860871020628,0.17849721709805388,-0.3254848584239656,-0.7819105966191877,0.8237788363907179,-0.9482841262013282,-0.23686915573294964,-0.8010327210541122,0.20346376736431715,-0.43304986531614986,0.9937968098357146,0.5119535843568541,-0.7184411110508657,0.010095387501952047,0.8991671763653222,0.08525010935994892,-0.9769791529015301,0.9497596063831577,0.9191834983499909,-0.8421294287147738,-0.755767344427777,-0.12311998016885184,-0.6034426423015087,0.5407848282123289,0.7036888983902863,-0.575550764246255,-0.4928620674630291,0.30961617703988686,0.18153800366325035,0.1595960635437148,-0.8428950095994394,-0.797570086584301,-0.931258670833301,-0.46035439498564035,0.5168501093094084,-0.5793541012611692,-0.7273906636343037,-0.890123457117999,-0.4572445059836543,-0.10436601440586246,-0.3610461156729379,-0.9277410310295364,-0.18429772342287531,0.6465202859939021,0.1353762545891284,-0.22808321465782733,-0.9586307129264076,0.26786280120483097,0.27612255979207045,-0.17042104228065025,0.8534840660834209,-0.34593702728099895,-0.7295536588208908,-0.2774449672285013,0.8032430784570557,0.45878292881650706,0.3924845963425434,0.5009083359226838,-0.21739586493449536,0.4020714799509362,0.9152516618018547,0.7804013224447459,-0.13001477136248374,0.46831624635247415,-0.7913928666109222,-0.9795434101800025,0.7776870731765446,-0.0013659969079382606,0.04707982070381833,0.3948128963893809,0.401121976847854,-0.16863501574387163,-0.18806079127773323,0.10936527016876196,-0.07992093467077188,0.9597606518166852,0.6026925236162697,-0.23530922796877407,-0.29924624878903705,0.44244593639604357,0.08830254123191406,-0.27998484045437744,0.6514072314866022,-0.6414172156317512,-0.859844534141303,0.7747530895861807,0.4847810467558502,-0.5604018921652796,0.0794114890288915,-0.9517662065028212,0.6896499725092906,0.10780447792865644,0.5375101711508643,-0.7323179404097377,-0.8273626041410602,-0.011689021043402192,-0.44554850930905987,0.9903383712134337,0.8943228107935224,0.16278347825734185,-0.46483926884788795,-0.7771526699245164,0.664743427110734,0.7759602500490161,0.32389894015058385,0.7471592508697755,-0.4932016928239298,-0.13092293030402002,-0.24079967900832377,-0.5070242999630228,-0.37985025366567715,-0.8321823851719077,-0.31708915298588947,-0.6788604230012965,0.8835415485053084,-0.491702672477377,0.057282516361899294,0.40537182556750784,0.8909481364723999,-0.18318791488147923,-0.3178198635472853,-0.524458357962533,-0.8458905574978468,0.6139516885537408,-0.5613542815737063,-0.2033002490260447,0.6009717821411273,-0.9213399403347244,-0.1569735569143984,0.06790992045546229,-0.917921045699909,-0.4300948858702047,-0.27799940445224625,-0.7544973447571817,0.5359853563092836,0.6333092063170005,-0.6937973399596817,-0.5847064595442033,-0.783261992420023,0.9696943740346193,-0.5894773738938026,-0.09240073435993335,0.447194225916133,0.5909315445781211,0.7284483534755273,0.9453201525182702,-0.3240559709013531,0.49919745337970856,-0.17027783461668733,0.1893724898688629,0.9141309801497384,0.3015758280997556,-0.6721243199813709,0.6320417277190491,-0.962408658056876,-0.18918567408529396,-0.9657591266499086,0.6036028471525756,0.8937879065180279,-0.4369550070100865,0.24248887083266357,0.6948593696247127,-0.25165530749704734,-0.6635108868778379,-0.3324800830775443,-0.0443568030046082,0.9194710693399828,-0.9000846288190365,0.11080205562365286,-0.6638883455231306,0.6771777265431469,-0.18673391214077117,0.11778402341182836,0.7672889861898873,-0.9074345312249692,0.2628432304533215,0.4133041268697748,0.07946838088211283,-0.6164850332810246,-0.0020478571768363096,-0.1944189328828636,-0.913134069342938,0.7040919632283602,0.42390758707568654,-0.5457592986286302,-0.9764848967856925,-0.5533059733697296,0.8611941872259736,-0.584091542255158,-0.21851923956700858,-0.997291967623958,-0.628606459081483,-0.5449125364866645,0.9812574781240477,0.7641331923683938,0.7395171403174858,0.3907522135040771,-0.15645172167265953,0.6437804318259253,-0.5990714220558417,0.0021630260263858503,0.11444610987199111,-0.2676912387165751,0.8593321119137736,-0.5876807049967852,-0.5040869513666162,-0.8289054722239766,-0.2891911050334617,0.34206757771721863,-0.9643758098262514,-0.839615052029854,-0.5486319807473765,0.24378097985709202,0.6630824932926491,0.22520242993238604,0.2549154694901872,-0.7820026510132605,0.4277370600715247,0.31594811103464204,-0.622814362393155,-0.8760232132075303,-0.594311857728774,0.8531696271132803,0.7718946307912593,-0.40996375001853513,-0.5488914743048965,0.8205292127853703,-0.24720032818046134,0.15701011183423974,-0.3061646916519267,-0.21055969588124235,-0.10448780295156856,0.48959367537698206,0.3271453128994182,-0.30618407104310696,-0.8296422043491081,0.4472239036369201,-0.4749862188672842,-0.8098234435670837,-0.9327438590232693,0.4989093088039436,-0.20930651016689028,0.6922361342758956,0.24398914693044782,0.5176127083551525,0.3085528574543299,-0.5239509722096374,-0.6037856653331852,-0.4512769411832531,0.6045527136173008,-0.016949627523424216,-0.6176213004569391,-0.24706164465709568,0.776246506642877,-0.9523921652582108,0.9954241173146641,0.7611003180618585,0.5963779372399101,-0.8262831310852774,0.7386314106435066,0.23094724425546254,0.402053587267599,-0.022469739463226723,-0.4509671874929708,-0.19119337385010482,0.9842420528974611,0.13388420285142066,0.809673256510695,0.5043843995461139,0.58902455938677,0.15073503076144146,-0.9554058822068834,0.5262812810047288,0.7022517684268057,0.10365317961848719,0.6003365423248854,0.09616142879658618,0.5596404093343046,0.10346714464669526,0.876573818026896,0.7709618806967362,0.26518054606953223,0.9537097898215547,-0.8486732882428503,-0.28580397193195006,-0.4064977201298525,0.5723111851454341,0.5913611148814364,0.07717359474492413,-0.59579051787889,0.573461262256791,-0.720180376966947,-0.6410230742181331,0.3906392134923009,0.860464297737928,0.1423714977100956,-0.5724280895623362,-0.9979607521127036,-0.10406533376136329,-0.3055498040800311,0.8025190828458393,-0.07721021437824493,-0.6381863700939876,-0.7369371142451167,0.8211677195189258,-0.20253345343921403,0.7086480442192218,-0.16284156449417253,-0.5378195258407446,-0.7070816309661137,-0.27454863027769116,-0.8377344939973397,0.8688321534524484,0.4652390781207396,-0.7415951067074289,-0.8611631820974828,0.05808917423220272,-0.4014199158978884,0.2215153986217855,-0.6195548556196351,0.8217904495565778,-0.254072333176075,0.8939591648275145,-0.9507960267607882,-0.7039368220317757,0.8334769477141211,0.9389335333505247,-0.621905586283011,0.07878557750903603,0.7129112453444084,0.1843644897004224,-0.203963471294053,0.9974134165363111,0.18899250371405873,0.875899189121863,0.3656990128596478,-0.5415369237549377,0.6275364760721924,-0.40613068227163307,-0.3842368429680021,0.5541681646843433,0.9450164998525783,0.521053931898162,-0.5701872903748773,0.7886160478938784,0.563661126595635,0.6883687804442054,-0.9276263841670405,-0.5941267554342593,0.43959484087303347,-0.6383991819841346,0.8657752204188962,0.7317515891678279,0.48057965825587257,0.7996184848067727,0.6208328826226039,-0.8534249721399387,0.6187223311865977,0.7460814105947828,-0.33663136528155624,0.19663825340853958,-0.8304317154437859,0.8639348564954576,0.16291670933097713,0.7204622469362687,-0.4029221553561486,-0.6136661188561412,0.45030774434900955,0.9132112032886113,0.7691381760598932,-0.8558993061477018,0.4818638163602955,-0.8772066481873795,0.41578468674833857,0.32595896627301757,0.25535304284766047,-0.2587843345078471,0.6995675317433667,-0.26842293279412965,-0.6683532239509726,-0.8647707133759321,0.03885281556067355,0.5941447044755201,-0.5432348101931748,-0.406496087445702,-0.9155111136365952,0.37786866653883955,-0.5588594461252376,0.3054278807073567,-0.7432215400890718,-0.5798314242116063,0.7986895577143729,0.6244441567938304,0.5546583826109361,0.6505379321423588,0.5007868499853867,0.09554168152984532,-0.8805976554706731,0.9386836320488432,0.12049875419062994,0.43154243181521723,-0.7373232927041586,-0.8126951959721298,-0.055396681079402654,0.85154876918069,-0.24877621097972868,0.43810885757415496,-0.700910852180745,0.4595705139023636,-0.8375436054337118,0.8999365894349673,0.3883650539269037,0.057423508336865936,0.6090929492198103,-0.32035015709311265,-0.631936212879352,-0.25544417097366745,0.49568544503975076,0.04464574630710905,-0.036449863719203,-0.11932980502097612,0.0169695853526175,-0.14280828458671202,0.28747873697303694,-0.44488026216755827,-0.054272630916939235,0.3433457681218228,-0.19688227521497081,-0.027455355462771003,-0.7502253149520648,0.960106644235359,0.6300213271012418,0.39828796140047373,0.39265735253210554,0.8655315456126647,-0.013894737594745799,-0.9499229118363544,0.16673446778878143,-0.05429791932595451,-0.3108068811995506,-0.4457783047099513,-0.10729610919391419,-0.4115261720582426,-0.6833641138742261,-0.4775259868920245,0.5257755283984928,-0.7370060981059221,0.9001090925370274,-0.22962461489104014,0.6326405715377161,-0.11600303534976453,-0.543464061847752,-0.8439710611941122,0.5026095182530215,-0.5683835816101999,-0.49391845998605444,-0.5240618445617731,0.29472561479342874,-0.7103043251238268,0.6891728562160289,0.12180325773679801,-0.8158694813200804,-0.14068152981289606,-0.8195649962848006,-0.8415740313832645,-0.5888285845887169,0.41760028607145916,-0.04591702839258893,0.6849920577884228,0.7671393108767566,0.34870710982113007,0.8323276372228405,-0.8451101847166393,0.547414920127061,-0.6455012339649411,0.27576381374446735,0.8130384247656695,0.4772630815593031,0.24774211035346028,-0.4341401171953838,-0.7531732347418272,0.3734822087140457,-0.4589639245024877,-0.1050849345865843,0.9049103515342667,0.3155936558579988,0.4380371622735795,0.31781300272729807,-0.310198449445092,0.2594811507644543,0.31793925254370015,-0.0829826462978085,0.7987745042881267,0.19349101915405642,-0.717275042574594,-0.6967965640982694,0.898698639534266,0.027337479184559754,-0.0017854956549867573,-0.35053737543632923,0.27924822994772036,-0.0625536620334266,-0.9298976123715468,-0.5932047024744076,-0.5564286932637761,-0.8483543504235218,0.779295861950974,-0.3185032576235973,-0.6919528951664926,0.7351494269730425,0.257924043181855,0.43765778064431116,0.24646032445458843,0.5659415389865385,-0.5790519614777585,-0.44536636109738614,0.23171872974120156,0.8408640837177077,-0.9449352692075768,-0.7503707416592804,0.262553384754848,0.09768371552664856,0.07268491231573293,-0.07090484288700649,0.9566311729209835,-0.37117572374028773,0.541574342658603,-0.40881285944137824,-0.026206998049416175,-0.5921251832466399,-0.7562083800259622,0.5868584775557859,-0.8739099135911652,-0.013126421494810803,0.6047660431336448,0.399163682758505,-0.4116128903780587,0.7039585689758159,-0.05476926021908701,0.8387221560990428,-0.4519311663709433,-0.6233620366983574,-0.7469965985226792,-0.5955094746781571,-0.5472377802431683,0.4853047771947754,0.6404805618924576,0.787694410040372,0.9057397580261015,0.3636595317074147,-0.29957663575209637,0.9644394641372549,0.2528967866863221,0.18418140690797813,0.04110323006468786,0.5102408134593834,-0.26738896906993315,0.02007827703547127,0.026454363441586803,-0.5778029411449905,0.5876290594532767,-0.12042430528913162,-0.17178481365848963,0.38185911647061266,0.3294640486404119,0.6901719303254659,0.43220887713195344,0.6995211063567743,0.05507687230176783,-0.7318996275145508,0.6178008938187971,0.4189619882976383,-0.5249528711865685,-0.5367904272602355,-0.5637151566166896,0.47518867150086797,0.8493074572364505,0.2706405091585271,-0.6970280236203914,-0.8894883309710027,0.026338845540860856,0.3672131786147106,0.5958041227209074,-0.10825911925386045,0.8474259958022832,0.9267994061642577,-0.04604514100469537,0.4060468259103769,0.7557677742094122,0.01145830554288274,-0.8609944653040387,-0.9978166736841687,0.6241717498124402,-0.9786778042387376,0.8899552161156836,-0.4759856090337746,-0.7237989459078347,-0.3653954127641059,0.5889725959437029,0.4302372136556385,-0.746237460738504,0.6792911427888901,0.8140350085121648,0.37047633479526887,0.8880758839316978,-0.5793109067263429,0.7869683228112239,0.7531657980808624,0.4591369085419106,-0.4532272485307227,0.03451681580821786,0.6597178981426555,0.3119895210771997,0.3084695488635525,0.27949115543757985,-0.568056526769023,-0.09336212746521477,-0.5247147092774753,-0.21622564992958138,0.7710474135583851,0.2655154839985543,0.3007447545786506,0.8412294162693938,0.7337456542081484,0.48258981961056824,0.5564417913080462,0.41035476762056255,-0.41850374040301386,-0.13511952523046977,-0.48150289873821217,0.06694678953966271,-0.031500169576928805,-0.5046253912863574,0.6116814541474276,-0.5386617862872445,-0.027474656438668532,0.16907350350312722,0.9168462505030752,-0.9944197213122425,0.38289437067500476,0.4859339138693404,-0.5516517600768687,-0.1731251301881187,-0.2692820567236791,0.9972746207921257,-0.7583073435298417,0.7052244609000988,0.04847197143620807,-0.2369367609758788,-0.41709365173286184,-0.945143014066359,0.4927649251973887,-0.15379934606600631,0.5584840862718874,0.9430966039263775,-0.7360670117663295,0.8014215845923434,0.7104064427934915,0.8875460668798123,-0.9322886380069071,0.8339397568520579,0.006535388319200308,-0.6199633160327682,-0.582017547917244,0.6879115848351955,-0.7139340515311106,-0.5242786868492741,-0.4080054041984127,0.24579998336402875,-0.25341654341050246,0.10038428738463745,-0.47745017070379214,-0.4188391091876493,-0.7911329388441204,-0.20936195468135477,0.16501754161540205,-0.8459890164503658,-0.6270092253767121,0.08744393705263498,0.8371687105484726,-0.7424959557911839,0.05234203643273805,0.7050854044620745,0.27471526521480705,0.7930794321772208,0.4165131032300744,0.12023919970466146,-0.9919933892866646],"bias":566.01456054047},{"weights":[0.009781745349929594,-0.6289781495658437,0.7173152385491881,-0.19110380490064038,-0.9939935924830134,-0.9913667178476326,0.9091224730753296,-0.39305455207352447,0.012471732839035798,-0.15156274388094326,0.25308953454004834,-0.15109150934921356,-0.9441183157925872,0.45002004369258364,0.16927746240986252,-0.4323238250246404,-0.5861016497843092,-0.0007781806132269864,0.8344129030078324,-0.2763478349468218,0.6338926246533401,-0.7792671365650987,-0.6471591253798352,-0.8941078172161987,-0.12488792813485494,-0.30349400023155315,0.4992571681357867,-0.32092784120127105,-0.057159449290334674,0.5154806066211162,-0.571833597690858,-0.6513195687703957,0.7102819945768064,0.8734508150913887,0.8773424317682399,-0.8859219370610574,0.05823104670046009,-0.74333014507393,0.8894706757913569,-0.9748780863282875,0.5512533858473829,-0.48352086325135657,0.6392708323629237,0.4915888766246135,-0.7551472578585003,0.9261764137756026,0.30387921452400946,0.16773972846922103,-0.15825200625352887,0.6366422148106632,0.6412692304928904,0.2807267663881836,-0.38560092344163444,-0.8862573241282821,-0.15121383929879384,-0.5021869857650629,0.8605129466101307,-0.2603631780712723,-0.8266788409103567,0.7265410739507105,0.9813590495165965,-0.8363912220553757,-0.8845684768916389,0.8189499163405558,-0.8388104737155055,-0.5709237665671574,0.1428571814342976,-0.7187652046342299,0.6563624748960879,-0.8352527299142918,0.7396243882569831,-0.6994482086815181,-0.7441566841664446,-0.5900707194841996,-0.6935696478632289,0.33817162369739995,0.5529668992163228,0.20040023179579425,-0.2449628178932386,0.565910094787327,0.5589027725296023,-0.7542383982401595,-0.10856136678565464,-0.8146046999691614,0.22721695213776272,-0.3949995226056191,0.807382043077963,-0.14441941116500168,0.4597546340886671,0.02909856211271533,0.016553946757225102,0.6807141671074013,0.49333009774322845,-0.9000616429733639,-0.6871237694679415,0.6424911507904394,0.07024737745450294,-0.2768593731969471,0.27987431153108044,-0.9214133657890242,0.9445527606382407,-0.6869478935443185,0.6885046119403806,0.5172932313450609,0.1717505119046634,-0.5534139648304222,-0.44726142652319467,0.2987517038447516,0.7441564792684963,0.236458626920367,-0.25815353297163,-0.5750790748629488,0.5792192666563114,0.3404354701933734,0.8415877727034995,0.3877068563896642,-0.9722862903786318,-0.7853116511952214,-0.6281344695139581,0.5139133196340979,-0.40146094807091437,0.34508019408859525,0.080748845826081,-0.10310088688417363,-0.8199830844066804,0.7891370622930967,-0.05029703520724249,-0.4143890232960592,0.9644744200299193,-0.22678048614364155,-0.29369430211122793,-0.785160038436862,0.8957738368133885,0.5458367309806302,-0.5900647339071003,0.5906058262315352,-0.4427882578214799,0.26796862731016713,0.8380030192849359,0.21858576843963773,0.4817687989343482,-0.793137423542142,-0.7734178869867181,0.7916391188478578,0.4534137772138682,0.07653135757611906,-0.8141618748364183,0.2879023443000377,0.3668866373847113,0.8463692370270808,-0.45152283427715956,0.8486835551990515,0.16540221663977484,-0.12760334785412164,-0.9386938377427305,0.3982600806950174,0.4037172693597877,0.21003968146822416,0.9232603410390414,-0.18068651979183503,-0.026026718028093754,-0.656698483762705,0.33192324778094884,0.9482146251668513,0.9857790903121058,0.30063084450326505,-0.6334649357398336,-0.4926145280530374,-0.1917422617243396,0.5394464914022179,-0.7933572004144724,0.587758438620654,-0.3326586206108657,-0.13455202603870298,-0.7929434882527429,0.2845647422947577,-0.38353683834654495,-0.29304476379639377,-0.7205932838202127,0.911044666573007,-0.7197003858406137,-0.08515101004407777,-0.2422702184802925,-0.9669993147780227,0.2939450720845387,-0.7624207758031414,-0.8931371188186157,-0.9824500631627209,0.7511954054107699,0.31222261883141655,0.7174637168499451,-0.9243634700250798,0.05010740915139822,0.2597727491377171,-0.7111435022447887,-0.5273123955437455,0.736622038815784,0.6571804435743536,0.13424956230789764,0.9311637248806148,0.9407752873456703,0.08388722418312167,0.360000340165084,-0.5484287575988649,0.4015050927802104,0.7247844855511345,0.07739385490092765,-0.20782812972845255,-0.9857063787543257,-0.8414844207278525,-0.3849573965080406,-0.24989812760345398,0.7119706144296889,0.48065131275249984,0.3859966227856715,-0.15703828951863796,-0.28058751970913454,-0.0654607916629466,-0.26764076906884204,0.5352641680150705,-0.32715331649803137,-0.8209892948510222,-0.37139119653157726,-0.306937669523502,0.23945609453253258,0.3063759498765575,0.71977337484606,0.24633630179635668,0.1789654315091953,-0.448476801118888,-0.052894641788281405,-0.8347384860560658,-0.8780859574583637,-0.5400342384678667,-0.4016546829318659,0.11234531882054322,0.01739137974923688,0.4918511310304292,0.36663974870573535,0.9102132346824274,0.677491260860601,-0.9118775845913945,0.22323415481039177,0.6979007656750871,-0.3035578461388768,-0.6631618590383184,0.5010464058231161,-0.8915506596341465,-0.5498802817061894,0.7931398851656657,-0.2012895340337728,-0.14749442032728366,0.6260371697195541,-0.5800831816736398,0.15975778425137221,0.053886393302270186,0.9646477563955349,0.871287476844425,-0.5445419028382861,-0.48586321693625667,-0.5853013176104533,0.1163241576135099,-0.1059877458234113,-0.34730063217801677,0.09852405192906488,-0.43752478137937256,0.4701156606301451,0.5021725470242306,0.03624164961544851,0.21428592417021308,0.9430670839771995,-0.5767910203676809,-0.3732092517669998,0.5465177720493242,0.8297670035687217,-0.8859503450344302,0.0619053081525589,-0.6542379093553272,0.04018017609623481,-0.34234738601276016,0.8604193017918091,0.5959929905817427,0.4723188596929866,0.4700929396167135,-0.6222037554196667,0.8290943275709228,0.055900438349147485,-0.1415645686366518,-0.7184460772406922,0.8143141707968002,0.5759655865507249,-0.9125939269363044,0.6658500550358424,0.7900234776943473,0.19278340676084182,0.9196661158865953,-0.1691413124355936,-0.2181177250212265,0.7045514311772485,0.3466372964139315,0.6658141658202834,0.9700533348719094,0.019983942886167227,0.34945055291308336,0.9135424766636344,0.04244464908837209,-0.45981091872646784,0.47538089968470665,0.6531460582449715,0.7915183447750636,0.6843080024905954,0.7718114694988651,0.6150188026396015,-0.908746841297309,-0.9183093778054268,0.42898254635452515,0.07018615940008921,0.5079417069101329,0.3972612706019474,-0.7841602041589639,-0.5280327313193274,-0.7622125092005914,0.4789879082241373,-0.5279937094285407,0.9000357578057945,0.7705001794891406,-0.8744733008844872,0.6431306321648202,-0.7603249186790899,-0.5886061429856375,-0.004774281311112016,-0.0200467544064038,0.8823766907831199,0.6888276908191275,0.8233146659340407,0.36767210914117765,-0.2388845445932759,-0.42947615695230423,0.808809282710985,-0.9589431677653715,0.7100361061092011,0.5264589612422559,