{"layers":[{"neurons":[{"weights":[-0.8975514197994525,-0.7288891629861358,0.09693561750530355,0.42297751737967193,0.08191148270193871,0.1857078701494448,-0.07508953405740693,-0.1388653367738959,0.8961763275608621,0.7520323794642687,-0.09493458102057728,0.3854202905417332,-0.4179237242407332,-0.40132696924619315,-0.5976542987532825,0.5023550211456551,0.3149390029434378,-0.5080274694007003,-0.28647667949578315,-0.7149169506717437,-0.5663238912989557,0.10225164165646694,-0.4313738414188628,0.07654089587853985,0.052057449937565003,0.8168482971142259,-0.4834231431654956,-0.4317409899652498,0.19265813377173835,-0.3941898279904201,0.6323570377729348,-0.48257082713690114,0.9058729407305441,-0.52315628974161,0.06297034306370497,0.9353045004741958,-0.2857818268638015,-0.14569328949529892,0.4264903963623565,-0.16383484123709202,0.6941428566326127,-0.834669934075218,0.1357115960851658,-0.7665697672069718,0.19646836521907263,-0.934395902905516,-0.4242462567973262,0.9099874127850351,-0.9452593702948535,0.861392076441279,0.43079750309691667,-0.26471338925945886,0.41597367529760554,0.12763554812842504,-0.9985131918883119,-0.8341309122633755,0.3957494227047258,-0.28441055751430566,-0.40435770414452366,0.4595407897330923,-0.19113809282902716,0.5210698197346657,0.8785136446937529,0.6086200406173767,0.6612875525534907,0.11569298454696098,0.4859066250622739,0.7709254688488056,-0.7862987614626924,-0.9223313580942203,-0.14781176896798476,0.9948538285055721,0.9626759438944443,0.6689331894004287,0.3827714522306227,-0.3894032487468593,0.770050457379186,-0.18458725690542455,-0.16230013085613182,0.7930550333086765,0.12987939742513444,-0.7923849942348427,-0.09473278262094853,-0.20268688121393996,0.48028927410302247,0.2745381028560452,-0.6806693695032537,0.13929531763809644,0.46494115871289576,-0.19987992336216953,-0.7498410893714453,0.43466878830780686,0.12524166573900342,-0.35013734831760734,0.26972869193366567,0.5088148893102549,0.9465091486069417,0.33477605074252503,-0.8464555504808242,-0.8749703982440451,-0.3267305396633198,-0.8983765257239198,-0.9452031349004115,-0.8373439399182359,-0.4049454371879908,0.42573082686273134,-0.8685828673952734,0.8419481227331342,0.924436362475165,-0.30330617740836363,-0.14018918170764705,-0.5002337162756572,0.7435986828879946,-0.6093117226299243,-0.902796218308707,-0.8776698385583921,-0.7363658256083929,-0.605402316136014,0.1135259890536422,-0.2161481181342153,-0.731279005993192,0.3095774373235187,0.9328535621805902,0.022533600588400482,0.3764144601186947,0.0349818476146484,-0.29228795547196684,0.3874589691938164,-0.6061951134566219,-0.76557645008879,-0.30142693429076495,-0.47070480139384774,-0.6262623611064497,0.933649077700486,-0.4002088202804521,0.5222079008980045,0.2721375105636801,0.0871536010311158,-0.2622841564243785,0.2620751115484783,0.6747110879125788,0.7022349031106794,0.8945802063563515,0.7092927199761716,0.5054337699808138,-0.11544097519432839,0.028135381925809888,0.957722696999582,0.2512354649396724,-0.21640259313633559,0.4513325516514728,-0.7916887676478845,-0.3053393457558422,0.20784695953444743,-0.05080968876308978,0.778503637683547,0.5533076768573988,0.3364417006499396,-0.9421524703233413,-0.2881586574796735,0.5718983533339461,-0.5409090333019395,-0.0824606461718318,0.14559521803966424,-0.32637413901928136,-0.8213650571517173,-0.3454209428823072,-0.916687778623734,0.2401702765159519,0.7327804034193841,-0.8184886328743826,0.8616522427119921,0.46073338297390665,-0.8420511984797701,0.6306339587719183,-0.10811014761728455,-0.2234184177006,-0.3681541994700379,0.755030140122551,0.11374520961655499,-0.15066129483569624,0.032429271947422844,-0.29437952777906595,-0.24389942158850353,0.7126068797254503,-0.9409073693819776,-0.6671584054319082,0.5628760074163144,-0.8446080403205558,0.943890196926231,0.24456209335252543,0.5489943361306073,-0.1606056075040514,0.5773011826298049,-0.16052744819415832,-0.30125706302371347,-0.27863822829751284,0.5892519319889011,0.5253346258755909,0.4696194457282883,0.7570915380947261,-0.7192106314473152,-0.48203372974529257,-0.8866228905367599,-0.35725342406696114,-0.6532309065141981,-0.14926068251778224,-0.8347203658728217,-0.20721930429004232,0.9184278615338757,0.6119681000098005,0.9242870466513651,-0.27414826575876905,-0.7278869767140845,0.324987174654638,0.4995238491466596,-0.13761683548946424,-0.9936975554953573,0.4082188361311432,-0.5216747451095878,0.049555059001947566,0.49464952167184695,0.40269434474142907,-0.34261128454653544,-0.7277058356825523,0.07094699080699485,0.5764154234579673,0.14624668640118,0.35415385102059904,0.20283615296580448,0.05282177517290032,-0.6030717572279296,0.11979433798799954,0.4416038206473636,-0.4101310054355034,0.3012893321851644,0.6258169441297508,-0.5903900087134706,0.9722503359547785,-0.057318856039726196,-0.4715465981794864,-0.795821352635957,0.1130135624835491,-0.344135248990884,0.9128618096636854,0.1898145520999619,0.46234872337523125,0.3575030738931697,-0.6809024469441849,0.43418928073575724,-0.7466219474784577,0.7181976585171208,0.02135378139073385,0.8065666517421461,0.9829951734331055,0.7541831021007583,0.07416023866195864,-0.8633691014313993,0.13832329455829573,0.22376730441357306,-0.7792641677197043,-0.7308796347769557,0.37363590190406093,-0.17232933778975346,0.4407577544698347,-0.10869290935873854,-0.7753968906378348,0.1942584764335571,0.21780422475919625,0.16896595695077377,-0.5406928668420319,-0.10438926748852229,0.8423176320226511,0.854033330750747,0.07701813778036382,0.9534782489850708,-0.11023926983287202,0.6848160338321545,0.4532772267917826,0.4110559677528993,-0.34556028035272446,-0.6799281674773301,-0.49196566716077994,0.1890245712615215,0.21125111966706633,0.8801505742290967,0.5291201401934553,0.8194912407976931,-0.7699701866310118,-0.6088392656924313,-0.8049504531175558,0.9292034352046423,0.1395157096743853,-0.20935825908403682,-0.9935996936211886,0.3569929429122647,0.12055589466729533,0.319471764474601,-0.8860426020250247,0.18007986434947343,0.43774379519991236,-0.04223319994109964,0.02532464681431268,-0.05388699121297513,-0.6733017607119112,0.6361129644323906,-0.04416887456809038,0.7060534492974155,0.9314400192860166,-0.9137172540139882,0.7177195130035257,0.27630427596548524,0.42445137082872764,0.4166322640249427,-0.14764927104308834,-0.11402709304387537,0.7240659707079327,-0.05291581628228981,0.13704084494419222,-0.38915392398358506,0.4403304808209558,-0.4365501085761996,-0.9825175811784095,0.6214377721808524,0.11834091404276492,0.8062710072398884,0.7494033648418084,-0.3988416335960254,-0.2425584871115567,-0.12154813599226033,-0.2948336078886675,-0.44007703859785785,0.8441152557889322,0.7803296418678527,-0.7172725987700561,-0.2899200075852977,0.13451000816438796,0.980043895773516,-0.2603461648283303,-0.002003635441966356,-0.40347627533320374,-0.5020803338245639,-0.6079945029685088,-0.9564096824630095,0.14891010047772157,-0.8007813552503822,0.7821151941141675,0.564786424928629,0.08643207542410414,-0.44040333606785165,0.3980842082954501,-0.7612610581022965,-0.8561510042541443,-0.23399911085856617,0.1862873295634544,0.8695225039533203,-0.4866635557456789,-0.1980153546169383,-0.48381516962710247,0.4244379148186246,-0.491550731200336,-0.3774009358972341,-0.954385891409411,0.5774693297738711,-0.1632785998532631,-0.18065873790829157,0.34041933720975237,-0.6466009697306458,-0.981103274263706,-0.548153720251745,0.8215453164079167,-0.15117186498012636,0.9700796830842511,0.2474595872631613,-0.44770393331665304,-0.06493075626518907,-0.12708061899982104,0.2566391464990967,-0.6371576814333229,-0.7428790202337905,0.4783427014896744,-0.916323798065199,-0.4196252569227581,-0.7875991546692283,-0.5237353729228467,-0.2908709759969166,-0.6977713052301144,-0.5206486458923232,-0.02975807285943155,0.2982503445552229,0.38265882197904855,-0.1779617336740551,0.4261584282199111,-0.20077482808706515,-0.3635381795613597,0.9567251321593933,-0.9017108371296114,0.018444676255835457,-0.8437696994116299,-0.09219983383834851,0.0291749945820845,-0.7633969609762246,0.20039462983844114,0.6516889589769717,-0.19600882664691976,0.5947287335726621,-0.06521464049671843,-0.4135211412231179,0.815869825900247,0.3734712855423643,-0.4296809197843934,-0.429528725801664,-0.3450352489679531,0.3607507706021327,0.44419464971230305,0.9714919529664203,0.21581663900509263,-0.6478948283654518,0.3846528162127387,0.3104984464842566,0.46146088990832723,0.6643634445881248,-0.6030192281551239,0.034316323277657546,0.5804132190337934,0.4088674660023477,-0.03463519116048008,0.5760800826618695,-0.7336633380675877,-0.8929460707887569,0.30016106064961434,0.6222694414675547,-0.12429208073237152,-0.2436476338578224,0.9965187905808324,-0.6422768534600864,-0.9231162917789306,0.6238565322095737,0.7173674434997399,-0.25554551810762227,-0.2110143072722166,0.1376455827225791,0.07098902030791043,-0.3897980005270787,0.18539183227286715,-0.022587612931082912,-0.6493585754058686,0.722093803542001,0.9773620215515599,0.050944953744496146,-0.4177839136460144,-0.6235924836598961,0.7221924447746599,0.9240792347200317,0.23428404966455885,-0.8672640824446871,-0.3365296426030939,-0.6007382721196035,-0.12005296217425077,0.8882868731535845,-0.28636287315489684,0.8799530392914638,-0.044604267614503534,0.20587562400073978,0.8039710319613711,0.902594899631723,0.517739821231519,0.5835406750003327,0.5301451036291169,-0.23907994959234458,-0.12105616187488888,0.052654363649775604,-0.22048600725894607,0.7769432032125758,0.7458060730200966,-0.8000288807004803,-0.10670558153555909,0.8555675516025829,0.8007734900848331,0.4871695706154693,-0.22574878881518412,-0.43692597394079824,-0.295316557692463,0.8624570669813454,-0.6937428534990002,0.17499908588198343,0.8617702734325747,0.03813122833799154,0.2856206786776281,-0.19340985499247365,0.41281076119768967,0.728149070587456,-0.22942673580336148,-0.7519955320756009,-0.5591446090276886,0.24076807235486442,0.13671341245424262,0.9560426773460389,-0.6809924231347977,0.1423303754615035,-0.8533793484129535,0.5187992437517175,-0.7330523596379237,-0.6170544739062418,-0.7675723865850705,0.058667218063452875,0.9923237224747781,0.20354792295834923,-0.5802719188535668,-0.03272303640007879,-0.3970036438085689,0.38951995904426173,0.10726215685260376,-0.6140816764124604,0.9272663106384713,0.4229683681689993,0.7973058467111516,0.6156856131531687,-0.4867860325250035,0.9731313049666088,0.4878518470248161,-0.7522046283227173,-0.7868714281822315,0.7415692573725652,-0.6419835437560009,-0.7855969108945366,-0.16774069604901642,-0.5883622424132575,0.7226236037018494,0.8639720197184784,0.0710696433840532,-0.33505339518216326,-0.6396392339403465,-0.9811484552058931,-0.6050437409709519,-0.09449737536121727,-0.11044771463391001,0.4025640860846105,0.2558682224924218,0.5656316072596241,-0.0669710437283455,0.4821815343261058,0.2169281588390355,-0.9501766382546393,0.538135842529921,-0.29278853861838794,-0.17277740013582532,-0.18723447252240843,0.5569387099398861,0.8294428625065327,-0.6802649468003472,-0.7959281319294824,-0.15140868113945016,-0.37667107243108067,-0.7142872149845458,0.543880213032681,-0.14346699439680233,-0.613015510720178,0.731032338841874,0.030562194107460527,0.42545531732156716,-0.20694679831592655,0.6618560885713762,-0.9678348139871598,-0.9606699449091414,-0.39634092021871936,0.04374450478719227,-0.21116633399168316,0.9592373090626065,0.5355784415947471,-0.10502606223859301,-0.4886544889802802,-0.570740677800246,0.11224700946908461,-0.015440743721092609,-0.28920016305802765,-0.49563565192778825,0.012233114756552421,0.19235793743406493,-0.642113065387663,0.26167749793515105,-0.9268215553612507,-0.2874874915129433,0.7421490094360772,-0.033220531729062586,0.7094678233706055,-0.7113096123098326,-0.6659248216882148,-0.5303525483271909,0.2488797767146167,-0.5311134125631267,0.9937103068916273,-0.4379288008044879,0.19473784171774566,-0.4204447353748857,0.4222319164021,-0.3930394926595251,-0.7652231524558251,0.05264079963193069,0.3727003710354011,-0.6065138401753885,-0.0383521056589613,-0.0983145661985323,-0.5775563142192426,0.8358741185349747,-0.26489554094439827,-0.8561159102175271,0.9751536274770376,-0.8549118454344149,-0.5652876209130357,0.9613946152290347,-0.2851823383797236,0.6731060297715361,-0.44351823666741375,0.9002836393688809,0.9527019644823542,-0.25654611660818416,0.8296503176793188,0.5611249737673836,0.945751691770079,0.8099601295922025,-0.23645941853280528,-0.7257294237984531,0.07695765530079957,0.03294846441040855,0.3348980687020138,-0.29179163058125646,0.5052058582560335,-0.48184533786458683,0.600270203103189,-0.45446307639107664,0.6696771734424778,-0.9027022020464397,0.1448344812354776,0.27961466187630224,0.6849088003738353,-0.16961441030869162,0.10069943153964012,-0.07349857092393686,-0.3976641484256338,0.8622682517838514,-0.9336880471564712,-0.48040278446045903,0.9687566185314429,0.3666038427362328,0.726893924758135,0.8152852167656826,0.6305275347209212,-0.5720161079725878,0.909832342027634,-0.8457840462998472,-0.31061202838219515,-0.5621302204071394,0.07878369356970394,-0.758195214223087,0.15072846908778637,-0.9812869160791404,0.9062124520738926,-0.4791117147437167,0.2231430339519802,0.9127406395531183,0.8774117016518561,-0.24939450548656072,0.8836213302330367,0.9439135714682036,0.21678458308962023,0.22868846992645508,-0.16856776825239628,0.0950286968904348,0.8455290379455791,0.5498152855824996,0.8176872852553547,0.8534665140292739,-0.6985664675434684,-0.7479314523101768,-0.6369212073681876,0.7165414647332415,0.8999063447064888,-0.6629453164099393,-0.836629125995759,0.6782076325791984,-0.029254604519884708,0.47567618917222987,0.11351565177427414,0.5540893173191654,0.8348926229074531,0.17254959065330855,-0.17631977463751047,-0.5972967422528375,0.42371728303351075,-0.972508313252185,-0.5782024660603207,-0.8443360004930884,-0.4656745668214417,0.8246383039627254,-0.9903351358177495,0.2758699519149883,0.24097894944126041,-0.8938076049872548,-0.38685848848696347,-0.02899724415042515,0.8443260763571088,-0.3517766247631333,-0.09298345651960194,-0.6420945849271114,-0.20225723472396684,0.9746819130240367,-0.00011130911543189015,0.37237735858072174,-0.7034897971908158,-0.4947040848206834,-0.16058106341602807,0.7782637421570486,-0.730607125511864,0.8972684344097472,-0.23009953985246234,0.006684288890877799,0.7243710184215386,-0.9245844664870377,-0.5110616861597888,-0.16681986155074924,-0.280650097203917,0.10379043212805739,-0.0003576623157113268,0.8682174754604324,-0.49552242143472514,-0.5943395785255197,0.46647328872712013,-0.9817024500787861,0.5452660309312609,0.7457194032960079,-0.17163987203026654,0.5432313069287051,-0.5747719591075406,0.6539059014523851,-0.6783052405318859,-0.12265614046678142,0.9675195889140551,-0.45337050501731424,-0.0505458891460413,0.6985014144753388,0.4542810539989346,-0.42566262999797644,-0.6048560986321898,0.34933169843709777,-0.11807438885389754,-0.4447804653027667,0.5491130869294438,0.6306601382914754,0.14593997172656614,0.46503496735469874,0.39668501338160356,-0.3648587087952353,-0.4759460428492721,0.09651706498159918,-0.7204298743443802,-0.8010531712526321,0.14393012856310605,0.2572300990840266,0.022026666824582097,0.12561855578728043,0.40226017982331497,-0.8916607029858028,0.14961002390298583,0.27668115963173534,0.33315363305452195,0.8280689919953286,-0.5325987345418479,-0.8506091322428562,-0.3170233919407548,0.6928118718382077,-0.7824765160549778,0.2768728417842943,-0.21178784767077818,0.24898264116484592,0.37909639477267776,0.8885845220891615,0.15748657151958678,0.45938337889980785,-0.017833208704125525,-0.8981173712758705,-0.9228843683415144,0.7181325220611949,0.94991735480823],"bias":456.67165389040247},{"weights":[-0.10577788319789239,0.6132014075418311,-0.15976665338173346,-0.9427790700156313,0.03172615697739056,0.36936063110497663,0.4505564199198768,-0.782677540568439,-0.8872654857703743,-0.04877722149965891,0.9718190007864917,0.10741038453497653,-0.543728688370452,0.07946899825527876,0.7459274101127367,0.7616306362718173,-0.7130614340707062,0.8828059762896583,0.886447357353696,0.6789161887076776,-0.9341648559393239,0.36261571131847736,-0.7882103080796314,0.4842897834987099,-0.8576905616709589,0.8214768003636346,-0.7478784782254166,0.06019656473943735,-0.16434382859875596,0.5730620397636219,-0.7148333243257374,0.4860623738302472,0.3705074673116058,0.38685887976914834,-0.04410899233494847,-0.42854106326946173,0.28533336005483756,0.23563623042647697,0.9288499438670623,-0.9806610616663267,0.4341827120549451,-0.9126518760209321,-0.33415841876911223,0.2882271966067034,0.47522058202443684,0.22141206597085406,-0.8146224715429384,-0.8169797459273949,-0.28169874370235215,-0.7283034625896874,-0.7478311261703658,-0.11265574576992954,-0.30103848677682654,0.6601383794247,0.746817436826746,0.6452727845987729,0.5723414855609703,0.7437613421634115,0.44493618707362304,-0.6233707472511498,0.8338705070571755,-0.3414484741026991,0.06297687197928337,0.08642380690305806,0.1009548926966537,-0.28314692474737946,0.9524438196660698,0.598097847284778,0.47991194872909526,-0.8496427797006847,-0.9142944101314328,0.21162882651971726,-0.5411192745363249,-0.839639556050277,0.5681201959108577,0.40338993334374607,-0.5289732538599847,0.30821225636886407,0.029656436377318407,-0.1967946410992072,0.06455746206446822,0.06124988776679263,-0.3067498859254121,0.4274964746938763,0.6521967807044917,-0.6600246315541645,0.6932443347878641,0.5885374827476606,0.017564132251556508,0.8098928502753684,-0.24232984503128874,0.49662165977575645,-0.21318793892721732,-0.6028199998168025,0.8464995340606221,0.5768546577849647,0.8851390031945314,-0.7036328288909957,0.46357778216189605,0.8267915570267754,-0.9759041623965192,0.9101853648187834,0.3449435844008488,0.17688963297348215,0.8440930853364188,-0.8250815270721965,0.33231890533534303,0.7313475415017106,0.4317022584987633,0.5291024869427186,0.5573729919804582,-0.525747004245336,0.8144506367542634,0.23744874365462154,-0.01614595348661796,-0.5669091576709628,-0.4370004090304769,-0.03698530637933173,-0.08158451284862167,0.9397094253599887,0.3353416043712403,-0.5813733334431697,-0.3163659070941689,0.690413288457544,0.37791741756539077,0.9052734603055583,-0.28271351300978154,0.5495236797713363,0.808463925396631,-0.1203130343342762,-0.9428867047876763,0.31281065108576733,-0.7817519659052437,-0.7462156614068052,-0.49083334041768234,0.34220754109556184,0.2438428934832535,-0.20428381673642582,0.19450123896478289,0.12310680840711052,0.3712914615730436,-0.73637557338076,0.1836593369031312,0.6100929567793991,0.9009173507531965,-0.7480346193008525,0.47263774785155377,-0.4252710743673451,-0.1462330698016312,0.6621406528588456,-0.39331366984412597,-0.5724474758814226,-0.5761843723924165,0.5698044468936905,-0.8293417653314687,-0.027279298246306816,0.7898877872469172,-0.23319124527889779,-0.8366120727900812,0.5008831106223055,-0.534146680767642,0.6625778938124713,-0.8534478002304855,0.6812409394735379,-0.6101676365676023,0.1471856003480121,-0.8720048260839741,0.4884262657201788,-0.5092799866079432,0.07825695681176992,0.36667045941641074,-0.2809919826775471,-0.9963051201759581,0.43344258256912394,0.610161983752278,-0.005690252845122146,-0.3701590596415345,0.6165957461450469,-0.23735591494750707,0.028761226079745406,0.35481034411017376,-0.4674356842589704,-0.5609346989381656,-0.44741032313301154,-0.8007724172088984,0.8644166210878033,0.7622347043355986,0.3188220459016171,-0.6441133317565599,-0.08031247846026979,0.150586296080919,0.46262443240537054,-0.07822787233136275,0.8897072497689984,-0.17798063915139606,-0.5453982967086164,-0.9159808842944783,0.3699717779899574,0.06342735519485965,-0.901123841232113,-0.4020690285216326,0.05499893366606434,-0.757742371823904,-0.30945366135201446,0.03563816210102422,0.3917993321172628,-0.6117405903419746,0.5743811070469462,0.22746624316690633,-0.61191645244371,0.6539407423356765,-0.3684465992169872,0.10113669917952883,0.5781997659868168,-0.3695528237061536,0.10673429855247418,0.7193947761347013,-0.6120757137006687,0.4487916510941563,0.3497806517333881,-0.08355963114069143,-0.3874880065906785,0.851936591729606,-0.12058834883570757,-0.08869172218500632,-0.199837117610437,0.8225264140102029,-0.8102735356007869,-0.7595069557847927,0.10679899582139196,-0.10892320867478311,0.1093120951969846,-0.9580231049813359,-0.7446932017469385,-0.563725433276848,-0.8168365993863951,-0.8945227097390682,-0.8786255940947618,-0.8329944236788083,0.11898125557678219,0.7007037718642302,-0.6576531799033307,-0.8503457860682717,-0.6903441506202506,0.12528860016576004,0.7774142099963357,0.24233995722454527,-0.290653552559061,-0.9599793588914021,0.7532655558815269,-0.27955591215804265,0.5492242114745882,0.5821893546155241,-0.4037436761362785,-0.36557940730490035,0.43006406693647126,0.4382392892582212,-0.9334740637862531,0.09497590536848577,0.9854935388431585,0.4419454927075166,-0.1102339424827723,0.7171865038752729,0.9666699045987839,-0.9730012184940025,0.6255224113619802,0.9185009229267962,0.5464814641772349,0.5625338695970541,-0.44499993817547745,0.0319782165175293,0.8823223963244082,-0.2848308230874288,-0.9577789015103622,-0.2114062901485787,-0.6458632789851615,-0.6950148001280776,0.9777200613987995,-0.5490273013713063,0.16758469301676993,-0.10734895950004786,-0.9174079475235004,-0.007247652221439527,-0.8448981359824455,0.15714192120574033,-0.8625506014074298,-0.8118577859888632,-0.027048441759732533,0.45718376784052683,-0.7561744041366811,0.5722597444890325,-0.24919016791684045,0.043107350920756016,0.39877616392823123,-0.09932309194043931,-0.9866260883347087,0.9187475697829752,-0.7432048519556509,0.3633432943224668,0.1620216628959379,0.6746754826064154,0.6389224808045566,0.12460742979750572,0.41069556235288474,0.1815611215989814,-0.29129985580845785,0.03684610164000768,0.4958177422182537,0.30201889809903726,-0.4008044233630854,-0.10431628150045036,0.8181534365455234,0.8923367243040987,0.4723158890773944,0.2578118324258494,0.38013838221426033,-0.36312360543765765,0.7845955488343406,-0.31985025344627305,0.5682792955238303,0.8338103522045541,-0.24246853899301835,-0.44187380208634597,-0.07056365779274998,-0.3184481180990688,0.6603407777568204,-0.9728840836443928,-0.07914888230938866,-0.8614863439788172,0.030312531508124962,0.4213413539459938,-0.6857348558879668,0.563514034645801,0.45050271409983944,0.9697437051448676,0.27597919504951296,-0.7012830924386453,-0.6606522706589892,0.916705590319022,-0.28743113142827204,0.9486397859827136,0.8163654078300548,-0.8927569642756907,-0.9188487613357825,-0.02443658632355028,-0.21577261318477703,-0.6460684752995496,0.12125938541401471,-0.5858722204387621,-0.023231474714449085,0.9629696153044089,-0.4422211285437081,0.8495475307988953,0.7089592851056978,0.8747069817160531,-0.8718464326627342,0.08332459894965405,-0.2297296338825161,-0.8957436806445656,0.032448955257846634,-0.6225594816533522,0.17637872173045688,-0.8552373261345316,-0.8815112905603719,0.8002219098086081,-0.1471108588187442,-0.9323772201992586,-0.3998831941605676,0.5519210195852393,0.537077495310855,-0.5198215813865721,0.23688992171169287,-0.43877247973323463,0.5074687829387936,-0.6434901179559853,0.6615431702287844,0.427135959905923,-0.35302342369808537,0.6825947139477733,-0.6806134804320441,-0.7420256326603885,-0.46795172625653425,-0.8764169075076915,0.6829337733925831,0.7878739797015535,0.6775548989620068,0.7192823793468222,0.4104465581732111,-0.0034228681412038497,0.04559046664475819,-0.2080129125521033,0.35116081078677963,0.9427913565478532,0.920805471239178,0.5292728847087367,0.5651979452788285,-0.035541894168400034,0.9930378752482922,-0.7266573029731895,0.4436356150955145,-0.6641030452729151,0.8638314075908489,0.08966067034453884,-0.72664248164183,-0.2801548808168466,-0.007851298780901406,-0.7580241046989515,0.1342790582190876,0.44832557285696684,0.4474049603821353,0.04201159234724239,-0.2432340864566438,-0.8252465173617805,0.9942688421914925,-0.3314703435304378,-0.5637863655079429,0.25371175459464546,-0.9949392286544456,-0.6594340392326195,-0.21988623565192356,0.5053321216994693,0.624778875704386,0.6267797357438933,-0.10787143011271949,0.30887338051446234,-0.036331350493551184,0.25402669737543393,-0.8560204311414452,0.14696290827109415,0.2949548008254088,0.4142529095889351,-0.9044930895047658,0.860053671810197,0.044851207105054414,-0.14974616018313958,0.20596633609810144,-0.7483391519835858,-0.6384371827494069,-0.9632406969079437,0.8121711967805836,0.9833271768061289,-0.8912534638785088,-0.11908803179271965,-0.129721153860749,-0.48972673212093154,0.21445838647346616,0.8846279249502507,-0.20744238328350484,0.8669275059317898,-0.2830421188186536,-0.3092946783966446,0.945276736987497,-0.464835576588543,0.8207775021178172,0.08203123259640233,-0.6667028559712538,0.873387831973695,0.49973152358823736,0.6910445677614256,0.46793143385075586,-0.7540797477342354,0.9535135442291605,0.9513966767386774,-0.28551159038322727,-0.20943808239867012,0.5256989718935019,0.5825845214707415,-0.3969192144368545,0.7637424798216856,0.46496132604039486,-0.009264390603490824,-0.9799471506649136,0.36573572111188746,0.9767008506478367,0.3068074359415083,-0.09463335484542412,0.42621210855064895,-0.28406444635191397,-0.3235306222086751,-0.5171087407823296,0.331445872645201,0.2619642560499771,-0.5203285856748163,0.36109589299917255,0.12486723581770631,0.6961784440565815,-0.27538468390690163,-0.3752625736869786,0.16800674762450463,-0.48298407745483996,0.818999820667742,0.3435552140635503,0.8079398558977129,0.35252298665569715,-0.018136533800464427,0.7502651410286645,0.1253364341857206,0.6568994226382858,-0.7339094625661882,0.2633930836051719,-0.15253989081569408,-0.6761850437076986,0.4847547976710316,-0.5471409918468724,-0.5773866818032052,-0.004438523040855014,0.2188207317870785,0.3346295805431492,-0.16068718417982542,-0.4426957885063283,-0.9224998468604584,0.3214456995969539,0.6720376678945561,0.029147613742960488,-0.2868856652012237,0.6603393463998852,0.7010124600133465,-0.7612129284950409,-0.2665661104501291,0.1047986600032198,-0.2017218708084676,0.8882118682131792,-0.26597862173052533,0.6711746250005994,-0.5893332259887578,0.806173049174093,0.3545229371337437,-0.035510116026777006,-0.5232754777834252,0.5984132156102211,0.3722048076113498,0.8261766327652813,-0.8009485323631678,0.11684884920573602,0.31391712455188214,-0.8923621641229946,-0.5138990823733431,0.8409056077225907,0.5994500847670343,0.004420671392433295,-0.4235903275478292,0.08243912022081368,-0.1466877668737152,0.6498011230824883,0.583458331918489,0.5899042284127343,0.5779227691079103,0.10249494524069425,0.10077303072739596,0.5688146883507166,0.8894693168124466,0.25658735937898447,-0.9452236543226977,-0.017055786184574817,0.7090908608540896,0.6443034033786263,-0.8736155237922425,0.6565121569206518,-0.4770170505216451,-0.11930466183805688,-0.6513392948866294,0.527829372830869,0.5611451179128655,-0.21178116234242417,-0.7070466790799359,-0.1690903551205425,-0.4130619119314942,0.7030842232713446,0.02068807079240953,0.3351805170022266,0.47963907654615623,0.2829018754030521,0.3495375645400247,-0.9395613643904772,0.9969893195531045,0.6982574811810616,0.05980841253753111,0.5995623777285957,-0.1872948661116589,0.4536888384765021,-0.2885091213805038,0.42870118018871306,-0.9063089638910711,0.2620524802909294,-0.7353800606750469,0.732677908323697,-0.8690513533782682,-0.9449400156755772,-0.3056336432935933,-0.3913312077807558,0.07903541324347962,-0.24163176761238958,-0.5768367363692355,-0.330894831640002,0.8955410261102008,-0.6192294859320011,0.893557228543437,-0.9117554404952526,0.4527139916677716,-0.579686512752688,-0.6303999927357795,-0.056105248179589395,-0.8941606826963158,0.7409450590139848,-0.9000570123433835,0.21580206111624456,-0.4329293386203239,0.023289404052955653,-0.7511432488277965,-0.3848083545382104,0.9899413700697877,-0.21042673800238543,-0.24712157591388717,-0.7981584988651953,0.410377984879263,0.24292851259525783,-0.4773568100497392,-0.3561077546428941,0.4818431554839604,-0.022400993707950345,-0.40478863040031987,-0.6521139483923242,-0.7485629922662476,-0.35193458097288666,0.2113986222423878,-0.8655423457798146,-0.39308064763053485,0.7578228358607384,0.6917026495358818,-0.036588544043299365,0.09529044914831086,0.29741374927088415,-0.7985956635499933,0.7404040267394696,-0.18271330694511256,0.45669792471212567,0.12378126114310772,-0.6338499540239124,-0.3939023765977545,0.5278355829246988,-0.3664731645883026,-0.20331887807492288,0.3449413639652099,0.792140809588624,0.9596977793416164,0.4592557573861482,-0.10219030103619353,0.904250812448562,0.6040567403620267,0.39432474329036227,-0.9096533699353513,-0.6534147687626679,-0.8090100495184926,0.5007056799706717,-0.17310005383441807,-0.6350425348937843,-0.4737290145576032,-0.4391135421751242,-0.714356803959705,-0.46503177852474575,0.7481543442809651,0.06168057923959447,0.5898487856287509,-0.9431019352299947,0.5775224139300046,-0.1880358131600368,-0.04779723297319771,0.26137484319274273,0.9579716169679497,0.6273321149503879,-0.26945868736063483,-0.13424041765285022,-0.36513549031988557,-0.2646671501407627,0.7558684229253845,0.8915654588774244,0.3475864804410538,-0.9573198357501247,-0.806214392137401,-0.7116968408588598,-0.49725050168136686,0.9793804027591331,0.03495269000031698,0.9003640548518255,0.37804490267555524,0.2137301904420683,0.9374313215968408,-0.6033932953118457,-0.23270505421887533,-0.3041367716698886,-0.00697118808411501,0.679735970883713,0.3582180115198921,0.6560349539531742,0.13210396013696357,-0.7703407714855062,0.3504802329012455,0.31349564218947634,-0.1271447054625634,0.8806480426435268,-0.8820194035777478,0.21382320243290165,-0.17356625684267613,0.1842506064006173,0.9291711787919774,-0.06602238883571543,0.09902763127970315,0.04856862290182651,0.7549324301820106,0.6891196929137093,-0.8787663064605575,-0.6874196699490089,0.8995880738340558,-0.6416173905965135,0.9841470008476909,-0.7801338036219958,-0.3886029000088147,-0.49574373991569365,0.937314145629728,-0.4623307120968998,0.18051785982923008,-0.10071608271366861,0.2783078744571448,-0.5328962895009388,0.012970250215315282,0.17723314822105074,0.3953587107445973,0.7474350306204438,0.8919717604112463,-0.8695561832074432,0.09071057598574139,0.017921696218563987,0.07566987294238459,0.3235166995147889,0.9801499550224428,0.8000644279790938,0.24988441803175743,-0.8101347980060472,0.30457430032166544,0.8128763375434107,-0.7297473232230138,0.2846556526048296,0.8598631434424129,0.06380623680365938,-0.6205886935967531,0.007593817990602769,-0.25022365127893975,-0.07846482501693508,0.9890506649658959,-0.724276680408904,-0.2787759766021707,0.5173825134805345,0.8405476839395036,0.007955755093021821,0.4376868871697188,0.5538685132310261,-0.1253257104297707,0.23661778963455582,0.36253893615124433,-0.25831537373585745,-0.7219487530137374,-0.016927586434750452,-0.03370478272884281,-0.4128628477859162,0.023039975628460052,-0.08672418060690568,-0.26652746013523343,-0.1962870870221507,0.11093817422864571,0.07408013208557884,0.20105632897743675,0.5593951438245512,0.123211957663651,0.8974229508345068,0.08051153822309765,-0.6783045635247329,-0.913113942889153,-0.8442358530972291,0.8910480552818218,-0.4109562755607019,0.12195592878442163,0.8633092921516874,0.7420524355723725,0.9636126084353758],"bias":249.8887913099711},{"weights":[-0.2858914323636834,-0.784116362983609,-0.07852857051414697,-0.8247517939205538,-0.018446237643616303,0.36293929140082737,0.8116655998709175,0.04176099476028616,-0.6189957730214743,0.08665487082782519,-0.49800084898531605,0.34476281685295485,0.9031938403019919,0.16335125649778526,0.030924828407225213,0.2254131611087251,0.18902147033570893,-0.974830854123065,0.31020898122320917,0.047782632373656764,0.9800245439366155,0.6481367585773534,-0.04992589229339206,0.5866326885896904,0.9970123051394659,-0.2100742305667871,-0.4113001600066899,-0.373534819858492,-0.14608372239314038,0.9973697945571192,0.19785737606808995,-0.30450504664380196,0.8591344114281059,0.6607673744806726,-0.6144623269584661,-0.6204024407984057,-0.27444621338160236,0.17161044040531737,0.43504321746547436,-0.9023063343679385,0.5638500905947526,-0.38608536652419145,0.29001773156516597,0.7560198909365718,-0.6764979799861108,0.33496317802563524,-0.096969827791062,0.6947724974653373,0.5775593242850601,-0.06722276467088006,-0.5447420017707132,-0.032662447951766094,0.2221600089561786,0.6887600502136326,-0.9268818963738878,0.8416014527462057,-0.5136210357430877,0.20412273566310457,-0.9065588863219269,-0.6549402758034741,0.5022790721560564,0.11707782622648066,0.01641194350296571,-0.09206116301968592,0.5511047328555359,-0.04653339431421699,0.3282258550900399,0.026264734239490384,-0.24298228673840283,-0.5708340037542738,-0.23195419965609343,-0.24896250257230212,-0.5682920102836255,0.4933192544388154,0.12160467372977735,-0.5165673613848045,-0.3212373600881757,-0.26701693770416046,-0.5307927592316477,0.9829429154567872,-0.09726540290232144,0.42467683369672526,0.4945353266395589,0.6236256981983317,0.6626359815127416,0.22912421989317622,-0.42213427493210487,-0.9777681390510562,-0.6595216458836655,-0.9488945315976705,0.8579403989798369,-0.8109896362973017,0.5128922981709705,-0.0012782379234366203,-0.8022716831643106,-0.6716696735241818,0.50918327461115,0.12077046016141857,-0.16978135100263092,-0.8902720947833611,-0.17726867405755709,-0.827447244794886,0.5438096749032946,0.7591560387494574,-0.7598308020825595,-0.5499174199280099,-0.9704656546059796,0.6501796299075053,-0.4158231050310257,-0.9836031645718664,-0.6059538096976298,0.3939334283884244,-0.36363086835207525,-0.4656620843368269,0.07766234526376614,-0.05026511184277371,0.476622412400983,-0.738429875896371,-0.5789123026974856,-0.03481816922040881,0.312556152123205,0.9248477876007017,0.33130707045195873,-0.9244189102328724,-0.8654548712997778,-0.3136804558913213,-0.10687585101182995,0.028945363052735207,0.7697084409634081,0.5235529757299013,-0.6591939450526443,-0.4671430993320511,0.32710872369919164,-0.957776761079784,-0.33667372578942834,0.13117164725155606,0.13128717054036843,0.25469460359442353,-0.37714785955425567,0.8114419662949852,0.20266199645543326,0.07693298882766797,-0.927677847999345,-0.8456915441232136,-0.12253964316896004,-0.24658918135549346,0.3033264330647252,0.6893333596521503,0.02178473879198828,-0.6567469856617727,0.9458041935292898,0.07769828755865671,-0.4296635059325018,0.17314912628955437,0.8611470178760414,0.47713420333192635,0.6563608675464248,0.6577548473386736,0.3616313206051385,-0.7316905937516265,0.7936960582472561,-0.012844501306100042,0.3116521727684267,0.3131068951036653,0.8204883092396869,-0.9497936333496564,-0.2049323456632206,-0.08380959101685992,-0.3407741357235543,0.7333512326418998,-0.5978018445032318,-0.2356071324785174,-0.33964774754838345,0.4313372912205016,0.9467872575896243,0.40896021287900286,-0.5161088718740494,0.08450651485607441,-0.17726239416562484,0.580364202682436,-0.40749290108552216,-0.973321316936893,0.9505061497147693,0.951111313432353,0.5377759342445452,0.3643495182925771,-0.11084400325158539,-0.11938923948060731,0.10727795191056444,-0.006765035671843833,0.907590859605039,0.9683779443373228,0.5261748421130474,0.7515949983103054,-0.7781303457878304,-0.6926393750872584,0.9808389706273659,-0.6849473223258613,0.330386278024994,-0.896374333452925,-0.3019156502014404,0.7216712068546385,-0.5889537221212704,0.6275352158226695,0.7853756718223543,0.5937933294144213,0.38723703787054564,0.055870229911842983,0.9704534808666652,0.3519761075704917,-0.296250228688165,-0.5693031493535803,-0.615198161840286,-0.6939587092568504,0.75832042584695,0.9666240765165215,0.5474751983576298,0.050087872983598736,-0.29213062394060874,0.9597780966713341,0.9502600764432372,-0.4495142190614576,0.49057494249719635,-0.20476316290932406,-0.8345134985290756,-0.009290705917318842,-0.5309767233328673,0.9194586858208025,-0.8608349877991008,0.5439494968267531,-0.5920761843292182,0.22293738820138254,-0.3956695020490901,0.4750900395236384,-0.9534905220820655,-0.14242032253217918,-0.36802901262700916,0.6378257728329682,0.2069569490733265,0.8282723659452995,-0.49211307795726045,-0.19011845051254017,0.11051914797199824,0.7153244888645607,-0.017422625056814134,0.4983608511603519,-0.891443796489289,-0.026946589921859943,0.4879872304639785,-0.7364734155910333,0.8859486697406544,-0.8807356973503642,-0.2563556785688572,-0.5011203093159895,0.4319572865932444,0.6596647794731187,-0.6580598318064248,0.4654057978515085,-0.5971327730653058,-0.20511344517116514,0.3206892687811238,-0.17409274117984186,-0.9635723231944651,0.09335542818713227,-0.3061799855866747,-0.2821487285443216,-0.18600860108875983,-0.3889952300724864,-0.43652590445456774,0.1918668630278515,0.8462184863416784,0.9138660780900327,-0.6459706755637811,0.2189217465805835,-0.6024117996272018,0.12385965103209484,0.383728578652649,0.037219316500064714,-0.34089743856383903,0.7977796277261553,-0.7688697842100356,0.5844272178350813,0.10399964425051333,0.16963346747620411,-0.7399261245401987,-0.06169847644657178,0.9138942924103284,-0.1952993879448508,-0.7861537700687755,-0.9444849106871192,0.6515099286371622,0.02150572973267595,-0.25849457282007426,-0.18737114636557406,-0.6889667180683547,-0.06632486727564624,0.16662926285341095,-0.6630213141738057,0.15202403218551064,0.24436655928611772,-0.5479835042849919,0.606178986293672,-0.1582952210321782,-0.17337422887378118,0.31318275031359244,-0.7773653524204627,-0.061600684026377195,-0.24480699882369095,-0.8672818916759915,0.267534479042534,0.14361977556340344,-0.9325437168744202,0.6588802023328348,-0.787583959763579,0.8551770123041083,0.41606002419803234,0.8148264658093218,-0.5839085603410519,0.3720278472571992,-0.12285270573854312,0.10127681168741187,0.905406980399146,-0.525372904148647,0.4137066942875438,0.2168252713697334,-0.2180668228543028,-0.37594736761809155,0.26285569135188025,0.9021853480517188,-0.8173466392802,-0.4652343031059374,0.3223488575580209,0.9371641792294638,-0.6805785011007832,-0.1634525909417408,0.30114062483172255,0.048459214816959584,-0.0361141267443732,-0.6534023843324888,0.9585211793066044,0.43844889665973286,0.3643388608505016,-0.19947566392192195,0.44098235078496506,-0.801579776546161,0.5463975947366837,0.9484656639509064,0.10644951488585175,-0.8221133983591176,-0.3782657911141363,-0.7310238617972118,0.6653315984082204,-0.08799064216851615,0.7348874953197324,0.09513094157281365,-0.0924815918035149,0.520761303611379,-0.16639640796142663,0.972263179077181,-0.8818436784345587,-0.49095709202041116,0.46288191807864276,-0.562684592076502,-0.4011303936944022,-0.9092213113743748,-0.6742213820364946,0.4961419422127755,-0.9749114264043026,0.5521134065065145,-0.23125007720039203,0.8880760511660633,0.39924188145218986,0.16708589004709662,-0.9669325036229228,0.16345641779261477,-0.5511144638039518,0.11208555811498622,-0.422167755639693,-0.10026124465438357,0.168226699556568,0.4012648022839098,-0.9384915950924686,0.023347124894598892,0.49344533248932,0.709732497558432,0.7267931110532664,-0.15616501990143794,-0.1057586934807846,0.8201417643606304,-0.035888900445441685,-0.4753984647753726,-0.33478750196145945,0.7624305669077343,0.09083414089142705,-0.053718021121513804,-0.5627618691624354,-0.10336832855697509,-0.18493176820669,0.27568752992233314,-0.2722067536100221,0.792614356746693,-0.9432853466249829,0.2853950284051776,-0.8979932478587198,-0.6793865510108388,-0.7642474163436437,-0.5500351790902256,0.16895570922795322,0.4969602738445489,-0.4698844188995386,0.29020950384487865,-0.6496793473925435,-0.09689225412199676,0.9599503764724715,-0.13285859831274216,0.5085830289168891,-0.4301495435972491,0.3346146072527292,0.550053216160229,0.5547797425602368,0.8824932702611568,0.6752300700266356,-0.2653495441174454,-0.2925962949166312,0.5889895136020598,-0.3412701701253389,-0.8483604168626129,-0.13961751696913582,-0.8810796307678666,-0.64241312110381,0.02470671641686284,0.704581864533175,-0.39643525313015004,0.21450549041402356,0.35324892682606057,-0.7407638899164377,-0.4559221464960235,-0.41626301509638575,-0.9338009287673854,-0.6650403624323822,0.5431258377997064,0.6466438117051019,0.014591342279108854,0.7385673051044885,-0.4164703300294037,-0.8530144022741037,0.33194712294755657,0.525798477388745,0.35158572719064196,-0.4947730676839366,0.8053142295783631,-0.9154585285576302,0.5738629455844264,0.6529880873053839,0.3776434006708782,0.6976461525421609,0.03195320699434001,-0.3306314204360983,0.16434675593081138,0.8050734150729943,0.44864878535213615,0.20078319740884876,-0.0509151045858971,-0.4550906758924351,0.9762815962460376,0.05688075857306307,0.749577898073849,0.9654189628146206,-0.05866298252953239,0.6080745589510306,0.5267275364631647,0.21254852974126903,0.650263786066918,0.3934768404049196,-0.8745470818049657,-0.9398242399305801,-0.6032031421002997,-0.12988305866160887,0.7898596758610492,-0.5661423769622389,0.5790443967970491,0.8095129031429664,-0.011999995445518774,0.6220805142708472,-0.6653102565080311,0.7167035321453326,-0.7367276112329022,0.7881743097845062,-0.4311753548864017,-0.7275779833676506,-0.8616601714435768,0.12462749541652096,0.5479329204111933,0.4662252664397397,0.9399995876195542,-0.48188448023603714,0.032056753331143995,0.6256016349708062,0.9144596368514821,0.7961702941839826,0.9604323026120185,0.18772254489709495,0.15859484084412756,0.15124788124467647,-0.7989022439578681,-0.5591672539306161,0.2532287899170216,-0.2069706923085044,-0.8677137430191855,0.6183684406257495,-0.6625806256494058,-0.4213965134823341,0.7533468556860261,-0.30861885602622063,-0.9885422519663183,0.46414541035892043,-0.5040985254971333,0.675244134390788,-0.09383705813628396,-0.14531611463008565,0.26065309401084047,0.108919231908426,-0.6035924915517707,-0.5911156086330838,-0.5907592249911295,-0.4132380054734921,-0.8434374319572329,-0.16259213101521075,0.3327878775883648,-0.8744622370517208,0.22908420305442911,0.15852928899701713,0.5150521006338855,-0.0006908905024776146,0.8013522276396605,0.305178824793896,0.8597245366830828,0.9684343730434191,0.007166645061977395,0.1424828128248241,0.3776198350500235,0.15679658647045214,0.9908366141387486,0.785547860370162,0.02417483893255179,-0.7513088037697391,0.842443802699242,-0.8943300905301266,-0.9890728305624119,0.31858284060082553,0.040556878717764366,0.5371649648686634,-0.7906190866137095,0.020912689868903378,0.6419490776211836,-0.4399836296048871,-0.6449807321115273,0.799479248085452,-0.18853707294204414,0.04481334498936462,0.49907293655137197,0.703942982952861,-0.96538330361316,-0.8719169785031773,-0.32163266901931475,0.5843645396737882,-0.5139487805258143,0.7100489296737935,-0.4233118171401795,0.42484117369262586,0.357787189576273,0.4464074939201583,0.7123559880459256,0.8864376150785085,0.7651229433136102,-0.9171843199097398,-0.33904343700525796,0.887466809238366,0.4736487554689206,-0.7552146507147213,0.030247594286447743,0.5479547046754729,-0.7698162430978632,0.3854847788903095,-0.531289252600831,-0.9071894888743723,0.6768488513800324,0.7403352200295417,0.22693327388621443,-0.5952266409478564,0.1323385462304456,0.8315079929886857,0.20435064414030712,0.7364073232588288,0.46392954175244583,-0.0040295445555385,0.5761711529833264,-0.9044325940176883,-0.22661164605300055,0.5821463582260891,0.2372165723877684,-0.1559976323154162,0.5889520638647849,0.5313283136061475,0.5774929128526658,-0.10264457571733576,0.21056746262582893,0.9765915436167671,0.9544936009555678,0.5912671192525054,0.7034079955473338,-0.224212784624088,-0.6689140106022031,-0.27317177367353196,-0.31021115783191977,-0.11743462480968203,0.5582689546545878,-0.4955358113982542,-0.4806550238885752,0.3607903250310631,-0.3911695821498786,-0.2750826484109874,0.696843431458384,-0.012925626807608115,-0.2602557584225047,0.39787576337500763,0.49622277219276967,-0.553898620933543,0.9458814873516155,-0.5347522575117298,0.5788391892015152,-0.7736321808074251,0.23082953369975145,0.9600242464904576,0.26545567334447995,0.8028857113778134,0.5652862750864851,0.1188012208473328,-0.5307716036351784,-0.20582538191592148,0.1747914977505438,-0.2259088225914736,-0.013421612994113374,0.5140400757546186,-0.4112167399297224,-0.5213707238099858,0.5762831218708819,-0.8351191172489414,0.8838730513177322,0.8256504379268499,-0.9447135752245677,0.5697468052132253,0.8294899230511312,-0.34494994475153096,-0.31273724289789806,-0.09256605942224327,0.26401696261460783,0.511703986580911,0.08957867106970818,-0.8328278509801033,-0.4150063406726252,0.46747840505272764,-0.06022384880889664,0.19402888506208082,0.5848495083925811,0.4415093698523438,-0.015396342304689892,0.7497627487396374,0.8073357214701735,-0.9658651360835191,-0.3232202888923892,0.42187039021816064,0.6753586485435124,0.00838199144958729,-0.20084017888817174,-0.04065380240218719,0.23094403498600746,0.7139048057564197,0.956667955560643,0.8577144592966137,0.7799613949856825,-0.8262850916655675,-0.7409067247575529,-0.5810273669156611,-0.0781261623478735,-0.7674720015432386,0.38227700660684194,0.3404856144361377,-0.9985291888762764,0.07825417773383636,-0.3854949034910238,0.6293488360422277,0.7750875675176192,-0.936594257133522,0.3308861298948189,-0.4646512562559386,0.9685867164171045,-0.5305541758328172,-0.2082247442408085,-0.5464885414016125,0.02739319345444402,0.43471897862031694,0.2746755339755991,-0.1303483229910518,-0.7292033979472743,0.6959748429391488,0.026544881547865273,-0.09342019843980331,0.15945426565232168,-0.12212375992281332,-0.36967636835675055,-0.3279679629499723,-0.6035059910574607,-0.7545692389751082,0.6072067914304142,0.45116522049616226,0.9581392836594076,-0.4619209789770502,-0.14156726256336594,0.784200125392406,-0.15421609706734074,0.08062386414377087,-0.214150478430978,0.36071475406157605,-0.4357710539447601,-0.09144706212769149,0.6278809642434031,0.13952241070111215,0.08598168156662966,-0.946693870738458,0.2243969122392664,-0.7896601253804558,-0.8297759089309911,-0.5444893222594875,0.8541487959674532,0.22021102042163898,0.814485727819938,-0.3461916366234927,-0.14681243750910467,0.6273744775104557,-0.15505645121905642,-0.6619041985964564,0.840349951718415,0.9650884214836348,0.7435200642309958,-0.6877682834885119,-0.3796417368324865,-0.7464161157384281,-0.02057419161197238,-0.6082375478687769,0.016172340773845217,0.8265629821498539,-0.5662668497921199,0.4578833367000943,-0.925390587903602,-0.6440841811139579,0.6889015304285624,-0.22991136593422068,0.49895030543806085,-0.11403181059464806,-0.11288804019633591,0.772389401004153,-0.18278289716395824,-0.9035371341461178,0.7678427099696044,0.7358875215785616,0.9207680153075932,0.39398987264675966,0.5418107427036789,-0.4051746842972328,0.9768188924946415,-0.8114968321983183,0.526087681706441,0.019047539795819635,0.6923117473486524,-0.5801939074335616,0.09853867569819519,0.20964901915404033,-0.1232030684484724,0.46848534620732263,0.4149058048075469,0.9213499979988145,0.26481476396199843,-0.545763866043738],"bias":682.4083944265333},{"weights":[0.4995868177056515,-0.46788752060758343,-0.14524721413776343,-0.9786843443170272,-0.16818375423036436,0.7215008037839037,-0.8493894029483156,-0.6977718039865373,-0.36420422887284243,-0.8812229927565065,-0.43977199547969903,0.6777144983270191,0.17516855161698786,-0.18278973921474417,-0.9231608581775776,0.34303500103562534,-0.8824061245144077,0.861420403430678,-0.89200503892984,0.12149225635040795,0.5174678007820233,-0.7756640663610814,0.23082560963871668,0.9862002174358873,-0.5958449406144419,-0.5486836499122729,0.020233261911957623,-0.23710682344623368,0.9709327533526939,-0.2834936999973743,0.49370810112113706,-0.9534850508537782,-0.0726922322130088,-0.2013762116262856,-0.30970606062043693,-0.08094323340194576,-0.0029348224864000905,0.9464254583482874,-0.4952349042706716,0.5857897944023014,0.09186029575512134,-0.44199574813218234,-0.145080868747975,0.15063391971641016,0.782314003489387,0.227452708115627,-0.48036188421077064,0.8583350722684826,0.5393767534202483,-0.11648300165523562,-0.0961791661357374,-0.10533295423073419,-0.6141107536676467,-0.5916796884965088,-0.7412361834876307,-0.5525485927248197,-0.7645156320462312,0.5448431628312438,-0.11020665723041478,-0.910910160496476,0.8253552155348753,-0.5596310575216106,-0.6701230167612025,0.5987399490407319,-0.6437818425706263,0.9733471078202856,-0.878986650962132,-0.06667247920669439,-0.6441025143937811,-0.5529881598562145,-0.6149086650882021,0.37157169801155776,0.30497434083081476,-0.37661615866881437,0.04876252720157659,0.9234358624478212,-0.4210421765942418,0.3358484890412252,-0.21371075936638206,0.9638244591459921,0.6665055179376975,-0.2633355798195489,0.14099453820343744,-0.678858303145363,-0.5478533452831886,0.8608380894615961,-0.8190538067479056,-0.25757700924037064,-0.6689788411442024,0.4359560448586173,-0.30793472522,0.7895407112837063,-0.05389790291294139,0.48753705971196926,-0.493902915967269,-0.39230259051584637,0.7148522286596415,0.8919633282432136,-0.5078437509497928,0.7689477047398339,0.41962866209040595,-0.5101892559266616,0.13738488230992685,-0.27642250720842654,0.26820388226009007,-0.5777240218266444,-0.051655620907475885,-0.2876232055564687,-0.045997957404618095,0.9329893763516086,0.03827139941225033,-0.28019641397478656,-0.4683959921015255,0.5790886954603622,0.3214176507752504,0.6146695464538396,0.0020197942704753835,0.2929990365795905,-0.3971331069701334,-0.6798459360263829,0.23161488730307456,0.8540095011976399,-0.07253625796656715,-0.8991802922189223,0.6465959037273272,-0.19110326851827342,0.7674831534886031,-0.8547417868582872,0.19845612708852434,0.1829206788136295,0.5769555656801364,-0.7841145837309509,-0.7200330047630139,-0.506460383048648,0.5979749585807808,0.5597437079979559,0.10545028705510795,0.6240756647246752,-0.10316891895495717,0.6425620774844187,0.40418478281714876,0.9413500702998969,0.47234427311253135,0.39228890694073426,0.5096935517519556,-0.5262139266784298,0.37822335274344265,0.3272836575709066,-0.010240913842646915,0.3478591797401087,0.37917173126086823,-0.8021439802447392,-0.9279538128653231,-0.3727327321519591,0.5022626836119639,-0.19033658064000036,-0.5265289672540416,0.4508861078681936,-0.6252628100080533,-0.1729108172609033,0.7325469651558678,0.6040256958936712,0.1871222788186575,-0.35264765354291416,-0.6178103636239527,-0.7290960963365949,-0.8527090288491062,-0.6357797976050863,-0.14512547130736486,-0.03919226088121608,-0.4294875208631548,0.1664781934650965,0.71746863700761,0.9767127809722016,-0.28775937070165014,0.5023241901804671,-0.10667611409386213,0.3102657882473978,0.7320339477620852,0.5525633532045608,0.5692737418991753,-0.6975826258986864,0.02666428759661832,-0.8182696521637447,0.7808383856840186,-0.09949574432223818,0.7554602185967774,-0.9224539074531348,0.601496691406612,-0.5416621180022227,-0.2953969043781117,0.9867238736285575,-0.20329303424561207,-0.4567431547838545,-0.7743841780389547,-0.822654540885849,0.9458923375080395,0.5189154451204656,-0.45383370416261526,-0.9754685114368855,0.6378147402002634,-0.49601353515968105,-0.4037946129542953,-0.30816315115014126,-0.5782727984405853,-0.07841602219240862,0.3373127967713505,-0.30982914755188196,-0.28790466547798443,-0.8779664833330245,-0.31012997374951645,0.39286933199987484,-0.047779944340284874,0.11655218202576245,0.7841918566219039,0.8022955471314468,0.4456087563407194,-0.10907849812872827,0.11688203047686319,-0.757966998122519,-0.03312209744532124,-0.41134283793210313,0.9138794365529548,-0.004219723112060425,0.25935600443007445,-0.7912225692297636,-0.04795694150814578,0.22302407001405244,-0.9616494586784756,-0.2812459544068444,-0.12826754608786572,0.9398731865236121,-0.5614587809618738,0.28148492966997374,-0.3630988933803332,-0.7216516901277208,0.5226621804301637,-0.1280898601696423,0.72379301168304,-0.09133982393131523,0.4249528935957265,0.34552059154881976,-0.03973234524816727,0.6964502182602446,0.2196941945161095,-0.0645472354806329,-0.41967423624763267,-0.8761333866739895,0.32060864002643896,0.4113849280798907,-0.5757861845065375,-0.5770850941675856,0.8380799175232148,-0.3355208909066061,-0.25054810566369357,0.8664264928067396,-0.859536027427354,0.9168352904633905,0.45154740492161194,-0.030316180977388196,0.7680928399782418,0.6537588438549404,0.9935419176672973,-0.8553642843264919,0.26623883190666975,-0.6499765730412204,-0.8507019176874131,-0.2510865852237192,-0.8889903491449953,-0.5336717511796598,-0.8884596566323237,0.9887549452111641,-0.36421212298463823,-0.29579495487956065,-0.977264878208365,-0.026305410443050903,0.5652589056034629,0.11552769359470583,-0.4564873010546302,0.5972053839058531,-0.9122484831302589,-0.3216889002082408,0.0036280572157756374,-0.3105359536077179,0.019371899884401245,-0.06993825690698197,0.12345584560620271,-0.025399600131101874,-0.7887318505185514,-0.7965999840289131,-0.5284617555327253,-0.8148922797897464,0.17765991545223514,0.10166551200121088,0.03636134371983646,0.08312331119867666,0.7392459176033972,0.4093746843636219,0.5308189543825192,-0.7533221118200641,0.5575655846810346,0.08454633763398123,-0.9874994189319026,-0.8875044376971131,-0.5217623037107626,-0.0795365041322813,0.9463713801357216,0.8438698225032595,0.2211057513048531,-0.4096439694279548,-0.578388328906164,0.0069838670164403815,-0.304589917934984,0.7421388720434714,0.7343846331336343,-0.7191031871361826,0.41630585246217056,0.28310109568811415,0.7883343273803227,0.5210646429303809,-0.001624370781228457,0.7373075206542081,0.4792544575176678,-0.07483579820314157,0.8398844833631567,-0.9758311353370384,-0.9166617490822957,0.8118937329653999,-0.9085814445196592,-0.29555136692951756,-0.5569490750265271,0.44074060743851273,-0.9905756680191113,-0.4674727859561405,0.5791599530779878,0.9877764919591878,0.8211384452483599,-0.6339932930256778,-0.21132781765723063,0.711422547094338,0.47486531147822,-0.6718549221927739,-0.7176274108897966,0.4247265478161695,0.08851288720115891,0.8292460541958766,0.36059303643708907,-0.8908557198598457,-0.7515828049978537,-0.6675694805309367,-0.007454583957323457,-0.5771438827737261,0.4457885069950147,0.4234063115520601,-0.7874162536656737,0.8609080776542655,0.9953761069381963,0.7293255859784362,-0.4707354523188241,0.2921052619001938,-0.28774261687395075,0.2537088025220693,0.2211862550807404,0.4685170009042747,0.320689797730366,-0.6467717355910789,0.9558037284453733,-0.5228048393872662,0.12836341216970082,0.7906971607297786,0.9290122123167568,0.8664942138038083,-0.6390276746578336,-0.9969125539435781,0.12323267387352388,0.09645009108291092,-0.7226783693303385,0.6885166748582652,-0.14564950418658995,0.004851558260973832,-0.7594440073934647,-0.009921575112607162,-0.8260981320336986,0.8436867736842255,0.45721766724601265,0.15165764316617691,-0.32511026444251456,0.49492431148141103,0.9868136474425557,-0.6664607237526092,0.46598987815240633,-0.5839721270339888,-0.9062892676849343,0.3598134140946576,-0.8884397850719363,0.30955680108600303,0.17491817661419606,0.9408671072463535,-0.4512765361422657,0.029216454430433192,0.0025761672013904224,0.5492222723600682,0.9042486721157705,-0.5233239964725516,-0.17395702427969661,-0.9255472779235885,0.22588657960114622,-0.8832772882380429,0.06422929038719394,-0.8264749899363486,0.5618047035086615,0.1374861251181856,-0.275014546653058,-0.33253849966829474,-0.507089310562034,0.7695279209849084,0.7626304013505467,-0.26030937248740615,0.2118806010952614,0.0515328507001902,-0.8577580059672374,0.017291066854825843,-0.6938819336038575,-0.03195503747132733,-0.8445977527726529,0.2854807615788748,0.7079914742718558,-0.9158010625033834,0.5991910947246102,-0.5108925168461567,-0.6900852449257013,0.15907172099557698,-0.2982959071892397,0.8027579865162826,0.7452636524665586,-0.2827057822135335,-0.5427951828340696,-0.5737459243828145,0.5570678000786127,-0.608666500225159,0.6518268684144033,0.6614656962212786,0.11594072792373478,0.5441560891122488,0.1337354473359933,0.6346180461840341,0.2700516318705293,0.9350605384165811,-0.06629826578148101,-0.626655773446164,0.2974304139644839,-0.7342073201306132,0.44950027239612345,-0.34857789568365494,-0.03519734833517241,0.890237760225475,-0.22024585450011314,0.9709187763591993,-0.40262979068048566,-0.5081852812615062,-0.2874682902134351,0.6437296202837968,0.9960597739910657,-0.44184376703691397,0.23507645185203074,-0.7479323774387563,-0.1945454213919029,0.7883702831129393,0.0651488403067364,-0.07428306916596616,-0.8880803907025543,0.9578743848558315,0.6798289217013154,-0.630095227207514,0.4822429082199591,-0.9337603542042623,0.7876449720266598,0.20530649151811442,0.8833083555545831,0.5575431432693381,0.47927746044216724,-0.6635133712762777,0.6614368880153982,0.5662625040939129,-0.4205860307807976,0.04841065993861715,0.8252773650635228,-0.7405485502063112,-0.1936642322675728,-0.9831051256413956,0.5293283109814193,-0.8916891351425869,-0.8273341971268313,-0.005994649018551179,0.43465154486773105,-0.6182735005910245,-0.7727178683090417,0.7482205764885368,-0.5017213947914967,-0.7749810757539213,-0.8451503343941802,-0.2782870271002986,-0.3611276049827179,-0.21618635428131672,-0.02053119711189355,-0.697980897253204,0.6921140057012427,0.33890151217687725,-0.4193581652485596,-0.7885597718885307,0.6202540388448874,0.5866017463015134,0.4193515588479677,0.5240521056277392,0.6012517797981154,0.8905288940115041,-0.13833962063393335,-0.40453051304824683,-0.7876285878664997,0.851489813014644,-0.8931855549884,0.8926000968559196,-0.5422659639857099,0.16891936900469195,0.3797527821507476,-0.9940595963680119,0.9293189906438575,0.7030949901988208,-0.017714602613070785,0.6911305697369756,0.47486803023492774,0.4780354875630848,-0.38904316437659414,-0.8923736781581448,0.6344828727333724,0.7231625564260007,-0.39306099185491616,-0.2805552621312448,-0.46872227532788013,0.2257346445075088,0.900705495650417,0.18999179318005677,-0.4938789326977675,0.42459297594330625,-0.9014925148147079,-0.7688007264147285,0.482479105697013,-0.06396565419352118,-0.39614452675882017,-0.5924872463416642,-0.14716403855126137,-0.217788495995479,0.8395025781340832,0.9986437498248986,0.155414705994263,-0.5348440044127916,0.46284422671632974,0.06194578697123365,0.8255753787694147,-0.326573312767898,-0.7619066062082256,0.9703748914694703,-0.2828639735102012,-0.2955594086526552,-0.9874053101145908,0.9020199015129307,0.25179628666240417,0.2553140568180514,-0.2746810002394051,0.14441869523113393,-0.6112964147718736,-0.12021250731662247,0.7141571960579984,0.5447211008611261,-0.9050241982908696,0.7108393415896748,0.15047818113166533,-0.20079214591519934,-0.8975549333940127,-0.5004901215391211,0.18868627656965975,0.02168445746455694,0.2915736081339597,-0.17405419806146893,-0.3674892293791663,0.4511507900113827,-0.6297166937522509,-0.9145067022848692,-0.04648979788076568,0.8377190853235748,-0.18377472026271002,0.5793529172237912,-0.06252292588210429,-0.3130087194485851,-0.9541196797292253,-0.9536307862234845,-0.12339456789214642,0.5850869098391214,-0.9277328713465054,0.15145771707344435,-0.20025394442510036,0.37256439885050874,0.07223039288344912,0.8026539214282145,-0.28577089506508235,-0.7651557106466167,-0.6755751113538762,0.8705244420827047,-0.2981845424106151,-0.5664256904720184,0.959499445885255,0.7224638100459679,0.08510550119735338,-0.5666883948350288,0.3061735600461062,-0.8453755012584363,-0.5610458507586666,-0.3881595670850073,0.8348280421856424,0.24762916412880864,0.9034637843047149,-0.4867095467133131,0.8769642299290128,0.21309278496056772,-0.4706655996703022,-0.19078141711594698,-0.16393166490631428,-0.6167801464095111,-0.25705706423730046,-0.047354288786462195,0.23225081387147073,0.46797826542677035,0.8887278008954653,-0.20628244947307106,-0.009809483017165554,-0.04348144262612852,-0.5575046014291085,0.3860527084466234,-0.05558610398507602,0.6389727655059585,0.08679609148345602,0.5243346465193541,-0.48814916957556465,0.414579582392673,-0.12438822163553365,0.4769773482032744,-0.7302604415304956,0.28093463761375537,0.5511601547864986,0.9851650345360912,0.5421942548393295,-0.30996788896814254,-0.7811418694161802,-0.46868001970995055,0.8817125996576918,-0.7458826476447418,-0.8760985451428964,0.5385351904738536,-0.09605961977268906,-0.2958869439361731,-0.5546933000115626,0.3174368488837347,-0.0625570964816391,0.8815171394359411,-0.9158547987201686,0.31703578085956297,0.02752134954879404,-0.8517763996817367,0.38037821893594126,-0.39404756998647317,0.7676850055258977,0.07309837893467108,0.545114244143909,0.12298301500980902,0.9063612462700981,-0.3117184768323402,0.3820080318443342,0.30719437187102416,0.03024621900901714,0.4602033806829091,-0.639464849531028,-0.6113671661217635,-0.44366175807315145,-0.4249667156602235,-0.7402367234994576,-0.9882042139345191,0.6969125328166426,0.8826399018675417,-0.18236147157819937,0.5684548792941668,-0.08630106359995349,-0.4331213635897737,0.9387731929076759,-0.7365561808299628,-0.27175118042765156,0.714468868859722,-0.051522015536281884,0.5278094198541106,-0.9758854315797905,-0.5555836957797964,0.41018235561108307,0.964316966256844,0.08763236464828639,0.23181535743691173,-0.3511610633239566,-0.6474098075590224,-0.37075390602952707,-0.06450264702628639,-0.9230299311736201,-0.7573932382548603,0.22806776139610196,-0.5558438953999301,0.8234694646421792,-0.015905433585418294,-0.7492574261392693,0.9873520523561492,0.7301189945829143,0.8530995397676087,-0.5079367015738279,0.00497265969365257,0.8896222892570904,0.8251413164232346,0.8811070785693969,-0.9926311946854449,0.9046976872442909,-0.8908834110609556,0.2386981244463957,-0.07605890562329298,0.43985608287453637,-0.39197468013070136,0.6154626006097166,-0.7145524346752228,-0.1370854187280517,-0.5928361552352706,-0.04310423455427692,-0.8348903140412642,0.5695449267892911,-0.2888484878368387,0.5715936906102135,-0.583738257419752,0.19341260948016714,-0.3144004443913384,-0.9038545623105168,-0.3988334177473165,-0.579819197930727,-0.5597850515297775,-0.43999296812903443,0.48354022064850044,0.25534030174376765,0.8294126885544157,-0.4146015668733125,0.4371545571183497,-0.2322836935263739,0.2994370533429209,-0.07834176704671725,0.7476704266222143,0.16500326394658726,-0.5218275676476454,0.5687240045907216,0.13578185555349442,-0.2898138731199893,-0.46189129050500677,0.5064559202785617,0.4001069753032698,0.6846470416049693,-0.9114055323417705,-0.2261877269258501,0.3733779980434777,-0.5438456700086123,0.498527814253209,0.9165629249178999,0.021095435331693224,0.08598732668586218,0.539891060313201,-0.6031062712705992,0.24067078592423918,-0.6932390082045994,-0.050141320495859176,-0.9474805789494232,-0.8209654042648684,-0.8338999703999241,0.5166576503580238,-0.2651316375050703,-0.36487994778699395],"bias":763.2239807926064},{"weights":[0.9995240421868172,-0.9060113471315456,0.533372457331704,0.8842387886500527,0.3608146932321543,0.09757347541740424,0.13144813932085508,0.5644987470668332,0.5311349776821968,-0.11452658028949392,0.9878718414650418,0.19408298697700221,-0.6751440641501971,-0.6845334633740681,0.8312524419052778,0.9780283549655073,0.5321379427947912,0.5328242814855662,0.7205055087600138,0.8858595250412096,-0.1518782939399923,-0.9177004306530838,-0.9212984935626807,-0.38114701652273997,-0.504385472056935,0.8739726547103279,-0.5218566419033617,0.13560826346448662,-0.20704863529531403,0.2604844396769037,-0.4911863849000917,-0.439702663965722,0.4677483604165875,-0.36428043646330144,-0.9029823835130388,-0.8534733609858249,0.45651477175097854,-0.3876643490550906,0.6815164669038793,-0.3569078856531607,0.0919840487623147,0.8127862079211479,-0.9704874383414781,0.09215106048538546,0.01738333233737377,0.4053877090046387,0.2851880030080842,0.790897861781358,-0.054759672682884286,-0.46377028840699497,-0.15553275154558888,-0.7948632501672535,-0.4812067984757227,-0.8524366493823012,0.06360821765463287,0.8770719762568437,-0.3050605795878458,0.2760709107456951,-0.19752809996911092,-0.4994088546867048,0.3661240685347775,-0.6801983331494501,0.97720062827538,0.0985240283835771,0.29695390445166536,-0.029434352272224018,0.04565842392810904,-0.6889863995976047,0.42889185255824724,-0.4653847753608895,-0.47525839631736977,-0.9369161214396025,0.15660385802073984,0.09140563184708972,-0.3132751892251284,0.5427618860589103,0.5893246208883696,-0.44023508267905775,-0.10578881001088947,-0.0007797989201132616,-0.32263047254027377,-0.19088588200520862,0.57212599672423,0.3846439598913167,0.6347035435747888,0.888945405373359,0.2010272817684715,0.6940859146466116,-0.5676407893119921,-0.3722727166318349,-0.8627073674510246,0.63712074138189,-0.4740458691383287,-0.024083389417101753,0.017834590609464573,-0.09513365075095725,-0.19333178288926067,-0.6662314301148848,-0.4840925967105125,-0.18412251750383035,-0.6985945656264976,0.25085267598632566,-0.8498180768344485,-0.9620362367828905,0.8688135188644326,0.17650395129037966,-0.19093996089991583,-0.9957986019765026,-0.4511963469636173,0.036645711351430243,0.7344964412699162,0.6072214961914932,0.359237732336819,0.6871991266325055,0.5837070062589524,0.4781783983906882,-0.05498779169929602,0.17997863704638695,-0.3358797475236228,0.14524812853029268,0.009463837393485885,0.21016057950514178,0.49502978385352225,-0.6350133324684424,-0.6023460079436185,0.6851663137118993,0.22476795169926023,0.9987318009819077,-0.3088009299565959,0.5550707713810992,-0.6122736370376214,0.9516589148582408,0.026066590633445852,-0.502623731945079,-0.1026876482528234,0.46907485794275594,0.4745253445632587,-0.2223858583945293,0.19324632154878474,-0.45942048865345164,0.1732698897269489,-0.1299481286869879,0.9828291235671802,0.1829109273042704,-0.6476882555287071,-0.5786775062851626,0.14410870985431457,0.3046979070490914,-0.2928555279867888,-0.21688966510315932,0.17186631582470602,-0.19435543318862747,0.7825764551865539,0.8429423064819948,-0.2821696612513387,0.4391236928246811,-0.6065949586201551,-0.443112068823853,0.3072155600960298,-0.6273666173045847,0.993490317349782,-0.8766606486265878,-0.02669347478884232,0.49014608850099917,-0.148535414838308,-0.051965393292146,-0.9224321833393101,-0.7892288480311018,0.45196379378108587,0.7355750222376378,0.6826483798121159,0.030305994948271575,-0.9487896730577949,0.23964760984170752,0.9163108717627324,-0.21567249720843007,0.2491168554760641,0.07589302672687115,0.9151315587773916,-0.720159001089836,-0.9265950022713025,-0.7318401939649868,-0.2445096324906486,0.547614462176639,-0.5148799080810478,0.7335027679450139,-0.9040673147176497,0.9302287259064572,0.5946593558376234,-0.3319917940026489,0.06560802384062603,-0.8458687970595107,-0.8097733699399083,0.3962096404358193,0.9718753427717153,0.4592095466929389,0.36169694518381235,0.1474632909390743,-0.19745672214308918,0.1098859885205905,0.13517587775218232,0.8699901658534421,-0.5412887602737104,0.7206986959496176,-0.1421275848962762,-0.9641100348520544,0.5154749862404127,-0.8096222478827353,-0.7488923330874253,-0.6851550687311838,0.03219782239703228,-0.4835417048555031,0.532183883882007,0.7643354249169025,-0.12235061492570543,-0.7552455802426152,-0.642005085249965,0.9597451834523709,-0.2862740661295615,-0.5536275310026966,0.6787400146318254,0.5385473109170524,0.44885973051117034,-0.20772014985649134,0.7046034197989006,0.5841580272134883,0.6909823156424526,0.2582181530845755,-0.4087589964535776,0.3461005714111467,0.01757755734827038,-0.4898310697380319,0.7945983063390423,0.8489089980407751,0.6108217756210426,0.5365777812614616,-0.1263739003456381,-0.9848992151926854,0.4527804534192801,-0.3233477122438053,0.7612465148235228,-0.20262790106860784,-0.6209030552247219,-0.8936845715207804,0.5587319973480751,-0.9231565742062884,-0.444142340519333,-0.02513236356180837,-0.40373185009987456,-0.2949949369013356,0.7064251731580615,-0.4807915196139412,-0.13648941622369115,0.8018993684453082,-0.5637992024873535,0.5510146758842791,0.24122761149472227,0.24419385250632297,0.6996999560652628,-0.6661769938436581,-0.9894541073234029,-0.11818710207127125,-0.28936527692873915,0.15581860023002125,-0.849938600251908,-0.11926289283001212,-0.23236895483438813,-0.6667224072198241,-0.266904245751141,0.28264700591315073,0.37246487436152664,0.28588599533696435,0.2729388020732033,0.2566956571415657,-0.9036090551408718,0.6571072683072336,-0.0333784985383927,0.4790330118641939,0.2869622435313106,0.1983090764314599,-0.4676039766513642,0.9626391360849933,-0.6226614807704229,0.48492228287635397,0.8417558995839305,-0.8468956976822568,0.8615513576270724,0.6498994971599821,0.8720703311927718,-0.5107038295251058,-0.17469682326832991,0.5494872656893728,-0.1636121094770524,-0.5649622517985953,-0.3734391809879791,-0.15335529125754377,-0.5886633352410646,0.4714329142779832,0.1716089069864135,-0.4762777305337971,0.195627466969845,0.34976228509973906,-0.6611925857078536,0.8617137496792338,-0.3138925101992358,0.8970681855225835,0.0651197500058216,0.6377270800772421,0.9586005841857395,-0.11190922215628696,-0.18688510257435942,0.7027063791422119,0.17259557440379325,0.8703481771906278,0.7319389807011691,0.14865835347140255,-0.9211386546671769,-0.8875146749329379,0.6514470104826393,0.8931752883474418,0.1330112096958782,0.6067039206646325,-0.23057527467462036,-0.5668179084282619,0.38490835140382584,-0.8301462827864521,0.6725813573546557,0.862236480737288,0.552025242416815,0.7233836706981074,-0.7800619670235993,-0.2577857630367273,-0.26601497404719643,-0.6920993735068235,0.47303911115932307,0.1484029383737404,-0.693023788921241,-0.41325646201004984,-0.6361191200543574,0.2757110078571201,0.6225231639514943,-0.5984029745921644,-0.8671613433562504,-0.111578331610386,0.9483274284795367,-0.9682380003644466,-0.0265456250408711,-0.15891049330440987,-0.7566694705804737,0.33729148987778323,0.4337408465647403,-0.5632666779240454,0.8324734183727127,0.520849244477013,-0.061068327578135406,-0.4264427164820286,0.5689184947021801,-0.4817255087489287,-0.8952187491607462,0.8195792755561233,-0.9410017195774123,-0.645617228678605,-0.10125957412243292,0.7558496967414263,0.1878985991693254,0.923581182813987,0.36358349099057374,0.9916909517289221,-0.4558069636827464,0.8297926483495663,-0.3961321983647066,-0.3103952476590246,-0.8878111798022066,0.6696989277192351,-0.21525063501726693,-0.5376642783053365,0.8036172199235394,-0.6492646961908881,-0.9480603300076478,0.06917558243038968,-0.834495648552954,-0.2492582599202504,-0.5811362775928202,-0.8208658163504761,-0.29954375067617045,-0.9502994674580165,-0.24067683344774116,-0.03618880820079973,-0.12260470693351033,-0.8690729655785043,-0.39500184145226447,-0.9227269118672861,0.054355914256544846,0.7653719272852371,-0.6121807571426277,-0.3148762613608267,-0.5007078301626771,0.3522214221082858,-0.20326589622273827,-0.662335280169696,0.3902339798384791,-0.5993703161491695,-0.0006320470698280012,-0.37046575950292393,-0.5994838861037595,0.4838086524370899,-0.032638540592852205,-0.9398983287171192,0.9154914389227153,-0.6469100151571392,-0.8301160684292368,-0.6638246225289253,-0.7841298531351066,-0.10300337968787865,-0.2055668890057749,-0.7277747855623726,0.3813703205264578,-0.3223565309530061,0.27316570481047053,-0.5502038220411709,0.8637777187109932,0.7169868149731848,0.6890046378535164,0.6152340916825598,0.9150099765454214,0.8482516489306744,0.021922485837391203,-0.9721127584420288,-0.594348107888639,-0.20499474375250815,0.2878158845341603,-0.1585449971864934,-0.6888340942076434,0.03941519062035548,0.8718356029363155,0.6151711880527877,0.30907770312380434,0.8683369387892239,0.2931314444804993,-0.13694018439514188,-0.7165692751446122,0.5919150889223155,-0.9351438580156222,0.0424105303374156,-0.9822131456417513,-0.8066345668571486,0.47038153186100384,-0.4638254971039699,0.5700210945708544,-0.28204039218599863,-0.09461286954770198,0.957861151032585,-0.09842565380850932,0.2324768465102336,0.08928188204699916,0.5185586910840949,-0.6458087011483289,-0.948816173958499,0.2560606368847482,0.4850032594639737,0.6971220439472643,0.5865120110733009,0.19638595385707047,-0.04693051748414234,-0.3817137633377712,-0.7629047096035335,0.9650996499945941,-0.47345314132095817,0.6775392437327223,0.2711606435706808,0.6699863011416411,-0.38982673560489856,-0.2925074394023812,0.2610246395409366,-0.004541449340681236,0.6094782487790429,-0.9089828413414867,0.48419987941366305,0.26232664479228784,-0.22865998915664587,-0.3980227654947952,-0.1892591691474652,-0.17219860526591457,-0.6063369365778346,0.7208235315343687,-0.9451592804646736,-0.565340062174903,0.5402419739168973,0.31390475222891645,0.9134509504798727,0.39642248537656544,0.9561741928390299,0.744083025123798,-0.003349153608698696,-0.8992665897993595,0.5237949325094129,-0.35320952720439536,-0.4687362475239847,0.8510234460882198,0.4376032523150779,-0.44071949215228123,-0.20828411473847686,-0.6087710619455327,-0.8925108345428803,0.5672750328334892,0.1785625570474152,0.18999750616864164,0.7545593087035143,0.34857936776785303,0.3379166444270214,0.4534441887842444,0.9605596219657921,-0.7732064482702286,0.2968731977035928,0.6828738295772614,0.5292741245158021,0.6216781459298137,-0.8120497866674681,-0.4867282623478708,-0.9555497338150563,0.36588933218784225,0.21060825914636894,-0.7289258977917692,0.3875367826491791,0.6109322895396399,-0.8843801735581209,-0.28064039396454277,0.2800990136994357,-0.40774201611673444,0.5559327890675565,0.42924648552476175,-0.2948190148400558,0.06884595562208196,-0.21609825819388062,-0.9747015615650989,-0.7416564187370591,0.7570781179401118,-0.6758242575721707,0.40762035775966243,-0.5217714725039104,-0.938515541160807,0.2626180859722611,0.9181073701145013,0.8885627732785251,0.7141173215887004,-0.9685611354368171,-0.40573125510656594,-0.6168315789783252,-0.4556753380262144,-0.7439894837814944,0.7640793337374063,0.855360766270707,0.6842407698550472,-0.8241596197293175,-0.19955515602296003,-0.8413663453626032,-0.32091629070202776,-0.9707098659030313,0.4406757170932254,0.6289553294210175,0.4626726222504183,0.1595551479970978,0.3760018204733866,-0.4166647311034737,0.7515873109943181,-0.6458125927029905,-0.6544172508900346,-0.9315387426051025,0.9310615342419899,-0.6040235390168118,0.552218890963748,0.543445156366539,0.692228109053016,0.23319834780679694,-0.4597536388763026,-0.54236326608221,-0.23501716053028332,-0.4896397346267576,0.1739993742079915,0.4944232491557794,0.3680442496475602,-0.148859319442169,0.7578234915524984,-0.15374517680954414,-0.23851745656359524,-0.2853399450158598,-0.9556315699251678,0.1238512772493805,-0.07257296274251246,0.4942026326961231,-0.5070135508165445,0.06889819452851897,0.8363343158567051,-0.17879819061811064,-0.5545508636815994,-0.018779115031067217,-0.4881503611729765,-0.06527360174617103,-0.08979326208748573,0.585746842686945,0.8915130712300345,-0.9999148149894594,0.41691573901399703,0.8610109600578695,0.47899877519303224,-0.76751918649942,0.021461043252518852,-0.3132088055611968,0.6604099303838606,0.17491724201060288,-0.197450960829205,0.20572585552439726,-0.6073949361144853,0.5541110462593042,0.5593651384267333,-0.2351382692552506,0.9696061286083961,0.9427162704859109,0.5472005085309597,-0.04398455348740926,-0.7152205849560738,-0.6428312197549144,0.921947858562925,0.4267737723364653,-0.12207277623402035,0.9108623609122617,0.4948424681381396,0.1279756388469342,0.5571319804629007,-0.4373276372276971,0.5500558056358584,-0.582641888177593,0.9173053494989856,0.4618802128734245,0.5924475184772064,-0.041780614455170006,-0.7634318908655144,0.040410014398367,0.7595201650329617,0.24058610206297093,0.4488234539672691,-0.3988054271465007,0.7852772890844277,0.07795402160105258,0.036767510720384866,-0.48234447073283215,-0.42797531038914594,-0.7532241701841853,-0.32275092657970017,-0.04821914698492957,-0.2967332103578708,0.5950517495793797,-0.3897119103506128,0.42525641145417126,-0.4033117483439699,-0.7260576290711307,-0.13299242342672368,0.5593816017210829,0.08335237719040345,-0.8048142036505568,0.28276681676861415,0.649738959241227,0.9433340013045943,-0.3500340419170893,-0.5507490906168444,0.7592000963455088,0.9711343904492744,0.15935480802214563,0.17535925006829567,0.9269814442152562,-0.8978749938359818,-0.9309542296024813,-0.7956841291229013,0.9742657864666544,0.13566975040332396,0.44807329816931274,0.5297404471450835,-0.2778565495867169,-0.7921394118730176,-0.010882554594112026,0.08456178714298668,0.5148718834595849,-0.24004546607807686,-0.2507423744411761,-0.4792023365927549,-0.5910264986999225,-0.8967669874011759,0.9976424822809031,0.2189858812708403,-0.23621504099570867,0.14848630886500747,-0.3355052796343023,0.7044346099560745,-0.6137884530115838,-0.5670145522469694,0.13478476296303388,0.7193983782409363,-0.8782308618414802,0.14963141249741208,-0.6109973328304479,0.6744980139196022,0.2563707827336974,-0.2550028775607509,0.21044520301489777,-0.8649994190625576,-0.19088705771566827,-0.5488931936430452,-0.7650405695152598,-0.13755405291146472,-0.4416425099343675,-0.8810111324716123,-0.8167944420562088,-0.8565492626855016,-0.5750780759899046,-0.5957145897767879,-0.14178525490168736,0.21721111516288127,-0.44653125797059,0.6710731182834206,-0.3964208983461903,-0.1295223347346881,-0.9646416064684065,0.008297238859462652,0.14787623712438425,-0.9495429964358939,-0.08631205544835341,-0.3637475650426012,0.5784544763957795,-0.8281414843565593,0.6057084761295051,0.3398046287462364,0.16255634084053572,0.8508355650138109,0.7593433077824092,-0.6261395693202214,-0.15727852605736992,-0.925126689041532,0.4232151390107939,0.8649783722082667,0.9209287790922662,-0.5252456987050174,0.8566884651928182,-0.09594336733111009,0.025746110815708434,-0.019237412681039956,-0.931691425231961,0.36160034774241856,-0.47516664342971415,0.8060117528040363,-0.7814663764674519,0.35477315332339954,-0.7369378678198282,-0.5026998619058403,0.09220137629189473,0.7386561803560334,0.3654342547902778,-0.7908666636676993,-0.6910125726755973,0.2277418529919344,-0.6072953310195102,0.28204132783455815,0.8042147998311631,-0.2455120965785027,0.6636582302257303,-0.8650083293378374,-0.5928218435094554,-0.5317965380153553,0.2496077966319512,-0.5027148938366541,0.6941788918795302,-0.777743449272692,-0.9102809504944886,0.06143489992077944,0.19307067477766449,0.9729085082299838,0.3365358595678849,0.846359312129553,0.32160749284916745,0.6193982575114787,0.32643376865689966,0.7296152078796099,-0.28331862024375365,0.7271946368049136,0.26015869040428186],"bias":-506.3518964475139},{"weights":[-0.7275768104234679,0.17168036320091185,-0.8119190868944375,0.9953135228084289,-0.8154283013146064,0.13936005946605423,-0.49374026858040665,0.9452405510588804,0.4562308733707381,-0.4107319003706644,-0.9517527347539398,0.9017906138059448,0.8400006295372169,-0.7343641409912229,-0.31922217600170555,-0.8060112289671917,0.5437858096690729,-0.08552093282225925,-0.5137249110213502,-0.9620036403943537,0.49718379189028905,0.4732525289346601,0.31885739559775583,0.17956412589062154,0.9483868665538586,0.896987066776131,0.49659734986836224,-0.554085835553968,-0.4297066189435266,0.6716894546929111,-0.23039637820081094,0.10930395244619273,0.9300137416167669,-0.8176790852729923,0.08410132831462214,-0.24730564946296907,0.08267766845470792,0.8514457333890801,-0.832314097931838,-0.4783149036399168,-0.08914988367635335,0.3509315207157546,-0.48248438605010335,-0.1813623878447128,0.6568642298674177,-0.5601511406366897,-0.9404808543521912,-0.023623604575173207,0.5341785687942471,-0.8320132010776335,-0.07857200739073411,0.4996377513468224,0.4608093629359673,-0.9544057906021215,-0.09762796014998854,0.7497528818055685,0.9268271235634296,-0.777492523774971,-0.30581815115814104,0.07055172835535028,0.49042594893288216,0.6654425538588886,0.664012381979532,0.08376183768004042,0.07821829932971225,0.05412256926332937,0.0757433043861937,0.9517085707229258,-0.48735396852757473,-0.07319609897548984,0.8350144216564717,0.5928134550188169,-0.34714015260770426,-0.8990005266680168,0.963322107692572,-0.27084167401666415,0.4695174403169995,0.11468417627697036,0.5663943368501849,-0.16543455292550746,-0.16078256423266568,-0.25897511299954656,-0.6488377318073106,0.3884039849250436,-0.8541801985627862,-0.9932321562409205,-0.8785372101486528,-0.6445251461535846,0.235384580990873,-0.6993294311837848,0.278894212459996,-0.46363692843574134,-0.5004601801614066,0.791274319771551,0.1995956829379213,0.30424596407777127,-0.8903763345140998,-0.6773944463876096,-0.30238647514284533,0.7894786099650668,0.1755956809028798,0.32819794369582356,-0.45954294967216036,0.8185911869069815,0.20202707546453702,0.8992926300171082,0.3839907357530006,0.6773251006050631,-0.5151121408201451,0.8556114408510567,0.9553757423363205,-0.6347813900887482,0.5453106356218167,-0.17927951638584716,0.45722561260754,-0.12200203833163403,0.26044871602178477,0.8829805267333133,-0.391520018888563,-0.5901454003000817,0.14728263343396852,0.30852026984520675,-0.41235751787008557,0.5876010601530917,-0.41152481083179504,-0.44190913588797587,0.6547603872030368,0.7401809258559098,-0.3776932276005134,-0.41258235628584483,0.668726008926293,-0.6497202711798207,0.4513923271766207,-0.731377399916612,-0.75614076047761,0.3370136289754808,-0.7376187803093788,-0.21907613778475588,0.21145912650783805,0.3079661280039234,0.31487122454303895,0.4903936993619631,0.5114410718455118,-0.6961026602286142,0.905180731885141,-0.15392890908334422,0.5609222812281454,-0.1570305635435374,0.01775196575628124,-0.7244210294306925,-0.7932978772725545,-0.9523186828997039,-0.7796018901963979,0.6233381677303496,-0.29397816049921355,-0.1890604746419169,-0.7045205588162209,0.1717719653972356,-0.18274284008439823,-0.5447765184541402,-0.048139385046199745,0.5423089045271356,0.0674276850276807,-0.7885628136312417,-0.9106532304323678,0.8179340420037087,-0.3397682851238275,-0.44593915709335574,-0.7211736280945948,0.4295200957540195,0.5870375265575265,0.4772006838321423,0.37676685967272316,-0.14262807345952266,-0.5567613782806,0.5305414337387653,0.6843759293434841,0.2141236115718992,0.4845590480171764,-0.34849758378286344,0.31030418547831307,-0.43816138255545,0.3218016727660724,0.9805876883967541,0.8580692777754271,-0.7686615675418307,0.10599550591325624,0.07362988786466707,0.08955015107251763,0.7555837363333198,0.12617010521958516,0.20973681439025427,-0.6950541462037036,-0.789691079972362,0.4399389577072861,-0.5138131136363033,-0.629539566622463,0.1419467046381988,0.028109340643089453,0.1240884298731122,-0.8834523953180158,0.4435671040660436,-0.8290763703883646,0.42879310243495405,-0.8620125202492699,0.10903810031962857,0.15466809831227168,-0.02991636574288936,0.9501977115518989,0.8116632458432091,-0.8771259489321261,-0.8441785982989924,-0.7527518203410097,-0.40649991618553916,0.4825688520344773,0.7138841408199581,-0.5437044816310359,0.1819916424928767,-0.5881708313479224,-0.024022131924751555,0.4906605323938895,0.34424338663141985,0.2793954754573158,-0.5402802803696232,0.25870991852528613,0.02229205919577515,0.6059653908418454,0.20786661899159276,-0.23126491484784184,-0.8662624928847831,0.6703945850263535,0.8612499653872603,0.8793001296196823,0.32197555324791427,0.9687771202056337,-0.30214428188720754,-0.23765206148961493,-0.33425695270274725,0.6044047551684204,-0.12542534309387499,-0.9898213440881669,0.7035941527937979,-0.8360887176588578,-0.7802465169878983,-0.32729829546561096,0.5527811530571403,0.00619079343456308,-0.13744084104232357,0.8536584438818564,0.708454904479765,-0.43764612631337707,0.06880520712783111,0.13952318669544717,-0.7668598274623712,-0.6054582429717668,0.20752227570944726,-0.7153761974738888,-0.2663805819289018,-0.09378749242521467,0.13613282862490417,-0.17208544538674309,0.586060517038931,-0.620675243621593,-0.8044159909917927,-0.9813881829328746,0.46538783110657844,0.2111467333162711,-0.3782784162956534,-0.7309554947827843,-0.9875650255636681,-0.12928165308597528,-0.8999491657792267,-0.67597354620673,-0.28650849964922465,0.7151005652949847,-0.9888404630957548,-0.0518339441975435,0.8429910080619196,0.5317227356281413,-0.04877379617342381,0.652220994773872,0.41095264683579424,-0.08011780400123625,-0.6052092433137211,0.29555520766885834,0.03955363314390059,0.17783507101800344,-0.34433680810587575,-0.6043277627871113,0.7951221402565039,0.1404990877053267,0.6886577375543594,0.4168525795130531,-0.21217216020185692,0.41834472990434524,0.05772654670185107,-0.3778542256493287,-0.3855730270585145,-0.69965872005442,-0.6007885055487705,-0.6309077474689362,0.45374817032560744,0.04403498305413622,0.6631717603270753,0.14911585881975098,-0.8826406396401003,0.8174971865035872,0.2187816460206342,0.6936245005822053,0.9069601404725285,-0.2458378453579675,0.3129115775368745,0.9251884009714502,0.26498762817528965,0.5556942598580941,-0.25640315280339365,0.9329170910278699,-0.2896851904330635,-0.7279737567495403,-0.6592936760983941,-0.5573931427380492,-0.24000806505792793,-0.5542633637671512,-0.6141635488697217,0.5831868162065335,-0.7122074234203768,0.6958259352267326,-0.5656684817964228,0.35001091666938544,0.801622254362266,0.7722420827286052,-0.5852817108126422,0.026022003678878747,-0.6190635940173288,-0.8606620781590677,0.28237288717518805,0.43840815575520553,-0.147927916520862,-0.3331942245166237,-0.11520015612453127,-0.9420122681906902,-0.40688223233497434,0.5998510100854224,0.47523314200175415,0.7502325955863394,-0.900461712557842,-0.35260134735370485,-0.36106706589682025,0.9499697439264998,-0.33092637323183594,0.5543318761939435,0.2801085254031186,-0.1559861458579661,0.4432143667393782,-0.08150790282884346,-0.8622699470490556,-0.6423835354722653,-0.27044075624505215,-0.9885920457877284,0.011149198927144166,0.1227950924093002,-0.39893132667001696,0.09157486177929819,-0.8494536521751725,0.8856702534020355,-0.11766044016073707,0.09261797833360452,0.00966536650653893,-0.08420264203316963,-0.02550447780858489,-0.44152098900769365,0.8012943222374922,0.6966858106248415,0.6161936821225549,-0.7591431497189975,-0.8606662147043163,-0.4849458198209624,-0.6095333108401282,-0.1690803654665478,-0.6024139017774379,0.3542253642567528,-0.30964949544337017,0.1850590512186865,0.957599099404363,-0.16396831307784154,0.4108157748715109,0.014952810541380757,0.9197926098684284,-0.9863835469107758,-0.13716063298797643,0.8683463259302799,0.3764733547500869,0.07562871855223374,0.11336886056272011,0.7013600634162436,0.5066984808775867,-0.3771949768674423,-0.10842170798672734,0.10948740517564826,-0.08078901915019587,0.6412997024170553,0.6280268180818043,0.5635149993550055,0.5457742683398932,-0.957166426101717,-0.7794439268934932,-0.4647286659685732,-0.4600217636045123,0.02569019556478791,-0.6816702136725477,0.5584912629246408,-0.8602243804399956,0.3349982140070935,0.3284468753576415,0.19655266097800128,-0.21610345505456996,0.4693934895473868,-0.7664733607161858,0.8250256719373321,-0.9681568791782986,0.5251959187722774,-0.529644369343798,0.04966210454479114,0.4743538899092541,0.9316743984473272,0.814153259625531,0.6677704751873499,-0.1805628487942985,-0.38213688657033407,0.7135515104495682,0.2687111467128318,0.8304705897779323,0.7636963301816353,0.40875381060690064,0.1987556800653807,0.29205888681241365,-0.4117421479700778,0.6911874582903437,0.8590017295918031,0.8937060912405443,-0.07606734464291609,0.40745584971992876,0.7762702413499607,-0.6699850489665184,0.4517418032158007,0.17896530561449664,-0.48318021825919244,-0.9033282646629672,-0.5080529379800693,0.7534719204266462,-0.7400964489757578,-0.3740088436668825,-0.21434207986584575,-0.33470648398378877,0.13580545938961963,-0.24326399586671954,-0.2243205429953843,0.4942995993533632,0.8484307356748362,-0.5516505231795361,-0.48191594167806295,-0.3945288056936902,0.9546039279619003,0.2918229053090857,0.7968123217913168,0.7349941995936207,-0.8817985918993014,0.1484800272256206,-0.2561173759517734,-0.9225020999573585,-0.9896436732423979,-0.8776672084810446,-0.921370026677204,-0.2687841331667231,0.6147379366159105,-0.5338814074623128,-0.6835952412683488,0.05397369108914374,0.29050396845474324,-0.9438782106645958,-0.4813463326457921,-0.44701622784099015,0.6423012470923508,0.12055277182661905,0.6982720008571821,0.45314888511977447,0.2653790097952542,-0.9201793335295947,-0.9284840471697424,-0.5982316273330537,0.6328350792865121,-0.18197885711038309,0.34849520149057867,-0.2842718750133688,-0.01900376013828753,0.9366634407597094,-0.021410459919099623,-0.13155056227234319,0.47919922834122897,-0.855308352487838,-0.9283227295143517,-0.2493987896151264,0.19820553650718598,0.12377473536788841,0.32142214675184233,-0.10979650604146496,0.1600666137208533,0.8333577549185929,-0.281443603187884,-0.01589436585259918,-0.011613461234906808,-0.0350223806447425,-0.8816180344047062,-0.43844720026719974,0.012598308061438246,0.7949374501543063,-0.16593195096817714,-0.10599636369186793,-0.2987077658520394,0.42809973725786854,0.13155205814405635,0.47796986132831787,0.80692856986833,-0.3168847311004148,0.28044085227965443,-0.8747417392229431,0.72053454822403,0.09562629547885582,0.9999019051283025,-0.6076123107913554,0.9270698324391908,-0.3963462648820615,0.4274462181555885,0.9449447246882121,0.7393504035848935,0.7132172536932502,-0.385691537047014,-0.7132995816276297,0.27286230734811845,0.9795205564096721,0.5685985108144269,-0.13211212008274975,-0.4444157184679658,-0.898598354108616,0.5607905364114325,-0.15588705655267576,-0.7356554284227745,-0.4392639285718838,-0.3249883859764857,-0.6837149025387435,0.7171411233145673,0.22116561905332066,0.6712115166940316,-0.21248288667543003,0.7127255080701591,-0.5963042375853438,0.3038449752636856,-0.618202269467858,-0.24614050657863462,0.07143983817532495,0.12459049424383428,0.062473421503388415,-0.7050545640835297,-0.9134718049490722,0.33765869174251817,-0.5009595516381471,0.47932727921925533,0.9729660751530584,0.16473405550568687,-0.32716601359703024,-0.6235377400835613,-0.4552463703631773,-0.49826126276130767,0.19185623963112564,-0.3839702410247243,0.6208150748547152,0.6841240918274227,0.8769101857308983,0.19041955400198374,-0.5943308943919261,0.9419825854203001,0.9414674554807387,-0.7465713927144559,0.6984318659665378,0.9719051819201412,-0.9052853377940795,0.8311745793757463,0.7063915705192949,-0.2573095405883046,-0.07840346392434716,-0.3612025414628959,-0.7564732468827611,0.39461930578515947,-0.7759274154239097,-0.5633365653052018,0.49018987382512735,-0.17908310306517006,0.0600834140643447,-0.46478030014065475,0.22896412161796986,0.8609216988116102,0.11381615201893247,-0.22522803030375904,0.9371383416236805,-0.028806407644276,-0.8283070478741976,-0.4729447869311638,-0.3880470748893865,0.7184946049128209,0.770439469589479,0.39673020736790976,0.29232735940812127,-0.4672274122140938,-0.9544664306707049,-0.9048188410799032,-0.2046894152007086,-0.4228153362373974,-0.6837276809300818,-0.9975858263292263,0.03529413204404808,0.4885974463948495,-0.21554367189950874,-0.7879294187520705,-0.6015671490384227,-0.7612423808439757,-0.3725973694758751,-0.937479222715055,0.8068699637543482,-0.7203133639831791,-0.9250197822573907,-0.8688357010360916,0.12238657861943869,-0.7535943106680052,0.829445686673413,0.8931491109591199,0.16514382246472126,-0.09692646590259457,0.6843919801235825,0.5207745757836157,0.6790543008728029,-0.8079764744298696,0.5714412990509379,-0.942349384074948,0.06553906756318151,0.6871144070029871,0.5726870278512406,-0.5556810529549718,-0.11102676929386446,-0.24410291918847582,0.09000411572177924,0.4024425786704402,0.6115976262677276,-0.9176082460323252,0.30872336720130633,-0.22624760932698518,-0.9496586991386153,0.18613506151483916,-0.4420353906640515,0.6991331385952564,-0.5200031587887493,0.8072224845326708,-0.5968052018239489,-0.5390007601435229,0.5109574374953207,0.5541040547762894,0.8150196378401469,-0.8880826687641403,0.940214649326891,0.34219843463089017,-0.5946944991412311,0.36686185173744645,0.8577097392526629,-0.7222194435552218,0.836075237809589,-0.6055442290898729,-0.6629626381203941,-0.5606409882845647,0.46804873616955645,-0.5729826207245194,-0.0838654184298071,-0.3892348294359764,0.6359887139038403,-0.6181945023048727,-0.13200725422135218,-0.029480755593877195,-0.0904633056908577,0.5331564415222081,-0.5017428266934525,0.24371346706624664,0.020522147131800672,0.6105239543198779,-0.3458600141077053,0.9699543631322518,-0.4372541048187184,-0.7250705750425159,-0.1742996110716981,-0.08485435911812855,-0.7244105293770935,-0.6390579912664558,0.01688604463387433,0.1674267630361368,-0.02293384941945531,0.607763801799508,-0.47725106463424805,0.0433487741959353,-0.49519325325556185,-0.2958031049830674,-0.6643976671626817,-0.32767236455098825,-0.31308432086612115,0.21672072836599554,-0.8628710695958652,0.49767893832309573,-0.3611282506069311,-0.42943101320762533,-0.0673748254446962,-0.4576611877369836,-0.502514019939793,0.18931445383910628,-0.6954741303626517,0.29959058257408566,0.22371815985895438,0.9799285008991712,0.9926108381909384,0.722471745574734,0.4406678362079859,-0.11434405481601573,-0.2572345209181761,0.9140064674333739,0.6803864893836131,0.7886650569801743,0.6079365570486277,0.4001974214146222,0.16089829059155525,-0.56984369440256,0.544351307781084,0.6131096446169688,0.8453676999899353,-0.953744803345435,0.5905390338404337,0.5537583872322176,0.06979264474831348,-0.17353292570220225,-0.1010348040803275,-0.4167705199888485,0.17319029025638955,0.7857583368169685,-0.3905718309139261,0.42210014694910747,0.42965917983940116,0.8812563619986675,-0.7575137050180447,-0.1073430842266232,0.41421761564638127,-0.577966226609921,0.20827266451246373,-0.5610739748494651,-0.7758868982145106,-0.3383522829384953,-0.16926838648223885,-0.922297733877433,-0.2834481696054527,-0.20750424808490742,-0.14240750863410012,0.017914183307812692,-0.9224729454848237,-0.7831250865903998,-0.6547732093151284,-0.7761804965873758,-0.602399408242567,-0.9198732559791103,-0.08069888909713052,0.556857015407406,-0.20737122034198574,0.03277949118542933,-0.9945142027867968,-0.6088892773070858,0.9532908886995268,0.42761685036439356,0.06192035783508576,-0.9966876927254433,-0.6337775505924199,0.2601310353359181,0.0032432493728702383],"bias":495.98837777099493},{"weights":[0.45235310443675436,0.20293540128436405,0.8442822631941391,0.2354178879637745,0.16034147547277344,-0.37814673523302966,-0.6614381831285545,-0.6032357682399945,0.7356124588325192,-0.284839052156161,-0.620473524591107,0.41935011171077363,0.11925006314436981,0.9516597100503756,0.8090313690213895,0.8648831838236419,0.8836206980512831,-0.5618939068825162,0.18222041404843514,-0.6894800008872273,0.9383767631809827,0.35970953624667157,0.2377493597369722,0.4094728767784561,0.6911999742889354,-0.4797173483696615,0.91805852411425,-0.7699473912101138,0.7732413427090918,0.2903837894593395,0.44751312786517294,-0.7100663062622452,-0.40355733185043396,-0.37832512679688923,-0.3551034189833744,0.017424222336285045,-0.5718052370982809,0.8856816883966836,-0.28280249194231066,0.9559158514112669,0.25966644024772156,0.28707147320146964,0.9434595166459383,-0.6210860742821742,0.47634017344674806,-0.3931999751916595,0.9852904487987333,0.36107187883267056,0.04027055217448838,-0.8922436788583314,-0.6639613830838456,0.5424522688017563,0.5035207659434642,-0.7843145422153452,-0.014779174305279419,0.3606688282692976,0.15355959493538762,0.7962412853459067,0.10352129980825309,-0.3105641990290855,0.9746256356248106,0.7203134967528952,0.42500935062180734,0.11532753249632188,0.7396362869404292,-0.08526578000810003,0.3074615132653027,0.27077432167652704,-0.872798701192913,0.8194547640213226,0.05383694712193776,0.454992025761201,-0.007341316069458426,-0.10121242013215603,-0.04496989309102073,-0.8987276446167094,0.7566519569815826,0.9939910906361953,0.40537224219079837,0.09733822298377026,0.09995404992226176,0.6849390950247671,-0.14610036285985073,-0.06929346805799996,-0.24318368512265698,-0.46911386276876454,-0.9086524790326518,0.49549267919764084,-0.07392007450605664,-0.5283027835108873,-0.11479107430749558,-0.5480287142889311,0.6954670094486342,-0.4001139590818088,0.20689009002090053,-0.44769836024409226,0.7269316434025219,-0.3975137998493019,-0.5655021111753125,-0.08755784355132645,-0.6493780740201771,0.2649120477357716,0.7581139989736183,0.7229658636081417,0.5576683826756659,-0.010902301065511821,0.2068696397763663,0.8002026770104793,0.2906166229955329,0.8779050886339022,0.636151905029525,-0.8618653583434317,-0.9069147503219894,-0.2877797195734737,-0.13037762189366164,-0.5466054165619907,0.3124392399089939,0.13134298105723952,0.13910262435611864,0.9944965900182416,0.9016510335723269,-0.5027999072068856,0.4806897791543956,-0.25888690361459465,0.6797509874060061,-0.5219030839497556,0.4751363133518387,0.18936830152238837,-0.9891361844546429,-0.7291998153454222,0.720198701190303,0.533054596772685,-0.3265310368585932,-0.13336980890446792,-0.8939828430251495,-0.481415442548895,-0.6860828249826638,0.29530471164878236,0.6421210932710428,0.9614836973708183,-0.9870407232983687,-0.3473087104737367,-0.11132946758937035,-0.5481598011929552,0.9735575542047195,-0.5338519744883294,0.1453867420176147,-0.03546891391112883,-0.32192076931585456,-0.9204611414997506,0.4061183939023185,0.2879812731989184,0.319708521793467,-0.39790490659683897,0.38495184286134787,-0.14497398424174968,0.7299403208129629,0.6196881240878964,-0.014456135867822795,0.9457182207608743,-0.46093636109090985,-0.682676408746155,0.47754403133137124,0.877489246748048,-0.7671945267085079,-0.47372915666652693,0.3961051556528261,0.3428921096217312,0.12255013712952145,-0.42077813326391,0.6488670905215685,0.4078340720290856,-0.6959964713905418,0.0964067262799202,0.10945984288804134,-0.5282502778008351,-0.15619546158283715,0.185118578987848,-0.11367385920661732,0.32816912240784823,0.8833808210433229,0.661791399959621,0.23655789926391924,0.3893080575236114,0.9551292290144291,-0.8509588769323893,0.4257973478629684,-0.9573816333663414,0.3816934898757718,0.19975502054100325,-0.7400474284485004,0.23900656030383916,-0.8035217135496349,0.7201759616672128,-0.5337420625836562,0.4170303667049162,0.15088101715349111,-0.9748734189005712,-0.47345302184368165,-0.582289464979346,0.6898434220074936,0.762039841325155,-0.7279954738400747,-0.32418604535799744,-0.9888811217124434,0.00761338669027678,0.9043236875137199,0.8121112496032747,0.5252220177346261,-0.42409060999472636,0.5540576622314215,-0.12114022544844394,-0.11720366302079288,-0.9496052369916819,0.775173826052248,-0.31334147217011976,-0.8951302482765113,-0.9940202929417241,-0.5544825135244569,0.2677294396894454,-0.5315716517472429,-0.587811731037291,0.8389349097114724,-0.6474875345297315,-0.16659065448851118,0.6387315539024425,-0.11854932636652915,-0.40612693538705313,0.012430803793972878,-0.9148840684978619,-0.28680991460060934,-0.3671383890265991,0.51699717488891,-0.4313592525116481,-0.35859938500424837,-0.6725148827039016,0.8020435148183727,-0.6466385246766131,0.4699515208855618,0.9577382983315199,0.12862055412950202,-0.3921636861046487,0.8824549209278709,0.5877243827926613,0.3119741337242976,-0.378552323113992,0.43482233616511357,-0.16070842849875033,0.6477566099730008,-0.19724797923723836,-0.31129626476153804,0.6432991042733729,0.5328046882052688,0.6062968129345885,0.9959456762776013,-0.2118411517527372,-0.4596815331286157,0.9796342602506662,-0.9026993104924674,0.8120591816061684,0.011592300197742045,-0.06512019978918904,0.539334343390256,0.28162435511567185,0.4753434465221176,-0.17042274816177994,-0.03477376617902728,-0.46119813958540545,0.4484393772970168,-0.8777333214149605,-0.3983940673308246,-0.48800086802245435,0.6203319210886935,-0.44410020800897154,0.48350102152136154,0.5040105108047745,0.014488824076800633,-0.4519094269082329,0.3927073605242688,-0.46436219952779734,0.42871686442012136,0.09266962539190571,-0.39682517169117837,0.8353829155032275,-0.8156376919813786,0.21125743330024127,-0.8516017038601675,-0.14640690979810822,-0.7007882019220042,0.27438760797627193,0.47608333891167565,-0.8831600905550836,-0.16307785573018352,-0.6851395745485704,0.39569901810135244,-0.0951426108385438,-0.3624814581237161,-0.7445799700266429,-0.388366106590341,-0.3216113811432373,0.4885441649980109,0.7133172860582269,-0.45070336150514745,-0.6015258643557155,-0.02055595554948697,0.5148099891456606,-0.22075464397597777,0.3132536946048199,0.9475034424020663,-0.05327633243856855,0.13527033800190846,0.6254903324026202,0.0970823584068432,0.8194465570220437,0.6570376372685072,-0.7339266033603433,0.7281881965714758,0.0630025668751748,-0.021893536442411765,-0.9303386338969069,0.5804721715883945,-0.7128288338059909,-0.6457703259813288,0.857670447899332,0.02714806182609042,-0.7018174061929208,-0.8806298814941966,-0.20188939768194425,0.8728638536478428,0.1013052142911337,0.5648227295535531,-0.9625362648591764,-0.003797600057469097,0.6206652321316879,0.8248783376012478,0.8996305029876144,0.740446276123718,-0.3921226571157366,-0.5581964670209119,-0.4183021496710855,-0.7483064415640781,